{"learner":{"attributes":{"best_iteration":"2772","best_score":"3272.2404759949463","scikit_learn":"{\"_estimator_type\": \"regressor\"}"},"feature_names":["lag_1","lag_2","lag_3","lag_5","lag_10","roll_mean_5","roll_std_5","second","delta_1","abs_delta_1"],"feature_types":["float","float","float","float","float","float","float","int","float","float"],"gradient_booster":{"model":{"cats":{"enc":[],"feature_segments":[],"sorted_idx":[]},"gbtree_model_param":{"num_parallel_tree":"1","num_trees":"2823"},"iteration_indptr":[0,1,2,3,4,5,6,7,8,9,10,11,12,13,14,15,16,17,18,19,20,21,22,23,24,25,26,27,28,29,30,31,32,33,34,35,36,37,38,39,40,41,42,43,44,45,46,47,48,49,50,51,52,53,54,55,56,57,58,59,60,61,62,63,64,65,66,67,68,69,70,71,72,73,74,75,76,77,78,79,80,81,82,83,84,85,86,87,88,89,90,91,92,93,94,95,96,97,98,99,100,101,102,103,104,105,106,107,108,109,110,111,112,113,114,115,116,117,118,119,120,121,122,123,124,125,126,127,128,129,130,131,132,133,134,135,136,137,138,139,140,141,142,143,144,145,146,147,148,149,150,151,152,153,154,155,156,157,158,159,160,161,162,163,164,165,166,167,168,169,170,171,172,173,174,175,176,177,178,179,180,181,182,183,184,185,186,187,188,189,190,191,192,193,194,195,196,197,198,199,200,201,202,203,204,205,206,207,208,209,210,211,212,213,214,215,216,217,218,219,220,221,222,223,224,225,226,227,228,229,230,231,232,233,234,235,236,237,238,239,240,241,242,243,244,245,246,247,248,249,250,251,252,253,254,255,256,257,258,259,260,261,262,263,264,265,266,267,268,269,270,271,272,273,274,275,276,277,278,279,280,281,282,283,284,285,286,287,288,289,290,291,292,293,294,295,296,297,298,299,300,301,302,303,304,305,306,307,308,309,310,311,312,313,314,315,316,317,318,319,320,321,322,323,324,325,326,327,328,329,330,331,332,333,334,335,336,337,338,339,340,341,342,343,344,345,346,347,348,349,350,351,352,353,354,355,356,357,358,359,360,361,362,363,364,365,366,367,368,369,370,371,372,373,374,375,376,377,378,379,380,381,382,383,384,385,386,387,388,389,390,391,392,393,394,395,396,397,398,399,400,401,402,403,404,405,406,407,408,409,410,411,412,413,414,415,416,417,418,419,420,421,422,423,424,425,426,427,428,429,430,431,432,433,434,435,436,437,438,439,440,441,442,443,444,445,446,447,448,449,450,451,452,453,454,455,456,457,458,459,460,461,462,463,464,465,466,467,468,469,470,471,472,473,474,475,476,477,478,479,480,481,482,483,484,485,486,487,488,489,490,491,492,493,494,495,496,497,498,499,500,501,502,503,504,505,506,507,508,509,510,511,512,513,514,515,516,517,518,519,520,521,522,523,524,525,526,527,528,529,530,531,532,533,534,535,536,537,538,539,540,541,542,543,544,545,546,547,548,549,550,551,552,553,554,555,556,557,558,559,560,561,562,563,564,565,566,567,568,569,570,571,572,573,574,575,576,577,578,579,580,581,582,583,584,585,586,587,588,589,590,591,592,593,594,595,596,597,598,599,600,601,602,603,604,605,606,607,608,609,610,611,612,613,614,615,616,617,618,619,620,621,622,623,624,625,626,627,628,629,630,631,632,633,634,635,636,637,638,639,640,641,642,643,644,645,646,647,648,649,650,651,652,653,654,655,656,657,658,659,660,661,662,663,664,665,666,667,668,669,670,671,672,673,674,675,676,677,678,679,680,681,682,683,684,685,686,687,688,689,690,691,692,693,694,695,696,697,698,699,700,701,702,703,704,705,706,707,708,709,710,711,712,713,714,715,716,717,718,719,720,721,722,723,724,725,726,727,728,729,730,731,732,733,734,735,736,737,738,739,740,741,742,743,744,745,746,747,748,749,750,751,752,753,754,755,756,757,758,759,760,761,762,763,764,765,766,767,768,769,770,771,772,773,774,775,776,777,778,779,780,781,782,783,784,785,786,787,788,789,790,791,792,793,794,795,796,797,798,799,800,801,802,803,804,805,806,807,808,809,810,811,812,813,814,815,816,817,818,819,820,821,822,823,824,825,826,827,828,829,830,831,832,833,834,835,836,837,838,839,840,841,842,843,844,845,846,847,848,849,850,851,852,853,854,855,856,857,858,859,860,861,862,863,864,865,866,867,868,869,870,871,872,873,874,875,876,877,878,879,880,881,882,883,884,885,886,887,888,889,890,891,892,893,894,895,896,897,898,899,900,901,902,903,904,905,906,907,908,909,910,911,912,913,914,915,916,917,918,919,920,921,922,923,924,925,926,927,928,929,930,931,932,933,934,935,936,937,938,939,940,941,942,943,944,945,946,947,948,949,950,951,952,953,954,955,956,957,958,959,960,961,962,963,964,965,966,967,968,969,970,971,972,973,974,975,976,977,978,979,980,981,982,983,984,985,986,987,988,989,990,991,992,993,994,995,996,997,998,999,1000,1001,1002,1003,1004,1005,1006,1007,1008,1009,1010,1011,1012,1013,1014,1015,1016,1017,1018,1019,1020,1021,1022,1023,1024,1025,1026,1027,1028,1029,1030,1031,1032,1033,1034,1035,1036,1037,1038,1039,1040,1041,1042,1043,1044,1045,1046,1047,1048,1049,1050,1051,1052,1053,1054,1055,1056,1057,1058,1059,1060,1061,1062,1063,1064,1065,1066,1067,1068,1069,1070,1071,1072,1073,1074,1075,1076,1077,1078,1079,1080,1081,1082,1083,1084,1085,1086,1087,1088,1089,1090,1091,1092,1093,1094,1095,1096,1097,1098,1099,1100,1101,1102,1103,1104,1105,1106,1107,1108,1109,1110,1111,1112,1113,1114,1115,1116,1117,1118,1119,1120,1121,1122,1123,1124,1125,1126,1127,1128,1129,1130,1131,1132,1133,1134,1135,1136,1137,1138,1139,1140,1141,1142,1143,1144,1145,1146,1147,1148,1149,1150,1151,1152,1153,1154,1155,1156,1157,1158,1159,1160,1161,1162,1163,1164,1165,1166,1167,1168,1169,1170,1171,1172,1173,1174,1175,1176,1177,1178,1179,1180,1181,1182,1183,1184,1185,1186,1187,1188,1189,1190,1191,1192,1193,1194,1195,1196,1197,1198,1199,1200,1201,1202,1203,1204,1205,1206,1207,1208,1209,1210,1211,1212,1213,1214,1215,1216,1217,1218,1219,1220,1221,1222,1223,1224,1225,1226,1227,1228,1229,1230,1231,1232,1233,1234,1235,1236,1237,1238,1239,1240,1241,1242,1243,1244,1245,1246,1247,1248,1249,1250,1251,1252,1253,1254,1255,1256,1257,1258,1259,1260,1261,1262,1263,1264,1265,1266,1267,1268,1269,1270,1271,1272,1273,1274,1275,1276,1277,1278,1279,1280,1281,1282,1283,1284,1285,1286,1287,1288,1289,1290,1291,1292,1293,1294,1295,1296,1297,1298,1299,1300,1301,1302,1303,1304,1305,1306,1307,1308,1309,1310,1311,1312,1313,1314,1315,1316,1317,1318,1319,1320,1321,1322,1323,1324,1325,1326,1327,1328,1329,1330,1331,1332,1333,1334,1335,1336,1337,1338,1339,1340,1341,1342,1343,1344,1345,1346,1347,1348,1349,1350,1351,1352,1353,1354,1355,1356,1357,1358,1359,1360,1361,1362,1363,1364,1365,1366,1367,1368,1369,1370,1371,1372,1373,1374,1375,1376,1377,1378,1379,1380,1381,1382,1383,1384,1385,1386,1387,1388,1389,1390,1391,1392,1393,1394,1395,1396,1397,1398,1399,1400,1401,1402,1403,1404,1405,1406,1407,1408,1409,1410,1411,1412,1413,1414,1415,1416,1417,1418,1419,1420,1421,1422,1423,1424,1425,1426,1427,1428,1429,1430,1431,1432,1433,1434,1435,1436,1437,1438,1439,1440,1441,1442,1443,1444,1445,1446,1447,1448,1449,1450,1451,1452,1453,1454,1455,1456,1457,1458,1459,1460,1461,1462,1463,1464,1465,1466,1467,1468,1469,1470,1471,1472,1473,1474,1475,1476,1477,1478,1479,1480,1481,1482,1483,1484,1485,1486,1487,1488,1489,1490,1491,1492,1493,1494,1495,1496,1497,1498,1499,1500,1501,1502,1503,1504,1505,1506,1507,1508,1509,1510,1511,1512,1513,1514,1515,1516,1517,1518,1519,1520,1521,1522,1523,1524,1525,1526,1527,1528,1529,1530,1531,1532,1533,1534,1535,1536,1537,1538,1539,1540,1541,1542,1543,1544,1545,1546,1547,1548,1549,1550,1551,1552,1553,1554,1555,1556,1557,1558,1559,1560,1561,1562,1563,1564,1565,1566,1567,1568,1569,1570,1571,1572,1573,1574,1575,1576,1577,1578,1579,1580,1581,1582,1583,1584,1585,1586,1587,1588,1589,1590,1591,1592,1593,1594,1595,1596,1597,1598,1599,1600,1601,1602,1603,1604,1605,1606,1607,1608,1609,1610,1611,1612,1613,1614,1615,1616,1617,1618,1619,1620,1621,1622,1623,1624,1625,1626,1627,1628,1629,1630,1631,1632,1633,1634,1635,1636,1637,1638,1639,1640,1641,1642,1643,1644,1645,1646,1647,1648,1649,1650,1651,1652,1653,1654,1655,1656,1657,1658,1659,1660,1661,1662,1663,1664,1665,1666,1667,1668,1669,1670,1671,1672,1673,1674,1675,1676,1677,1678,1679,1680,1681,1682,1683,1684,1685,1686,1687,1688,1689,1690,1691,1692,1693,1694,1695,1696,1697,1698,1699,1700,1701,1702,1703,1704,1705,1706,1707,1708,1709,1710,1711,1712,1713,1714,1715,1716,1717,1718,1719,1720,1721,1722,1723,1724,1725,1726,1727,1728,1729,1730,1731,1732,1733,1734,1735,1736,1737,1738,1739,1740,1741,1742,1743,1744,1745,1746,1747,1748,1749,1750,1751,1752,1753,1754,1755,1756,1757,1758,1759,1760,1761,1762,1763,1764,1765,1766,1767,1768,1769,1770,1771,1772,1773,1774,1775,1776,1777,1778,1779,1780,1781,1782,1783,1784,1785,1786,1787,1788,1789,1790,1791,1792,1793,1794,1795,1796,1797,1798,1799,1800,1801,1802,1803,1804,1805,1806,1807,1808,1809,1810,1811,1812,1813,1814,1815,1816,1817,1818,1819,1820,1821,1822,1823,1824,1825,1826,1827,1828,1829,1830,1831,1832,1833,1834,1835,1836,1837,1838,1839,1840,1841,1842,1843,1844,1845,1846,1847,1848,1849,1850,1851,1852,1853,1854,1855,1856,1857,1858,1859,1860,1861,1862,1863,1864,1865,1866,1867,1868,1869,1870,1871,1872,1873,1874,1875,1876,1877,1878,1879,1880,1881,1882,1883,1884,1885,1886,1887,1888,1889,1890,1891,1892,1893,1894,1895,1896,1897,1898,1899,1900,1901,1902,1903,1904,1905,1906,1907,1908,1909,1910,1911,1912,1913,1914,1915,1916,1917,1918,1919,1920,1921,1922,1923,1924,1925,1926,1927,1928,1929,1930,1931,1932,1933,1934,1935,1936,1937,1938,1939,1940,1941,1942,1943,1944,1945,1946,1947,1948,1949,1950,1951,1952,1953,1954,1955,1956,1957,1958,1959,1960,1961,1962,1963,1964,1965,1966,1967,1968,1969,1970,1971,1972,1973,1974,1975,1976,1977,1978,1979,1980,1981,1982,1983,1984,1985,1986,1987,1988,1989,1990,1991,1992,1993,1994,1995,1996,1997,1998,1999,2000,2001,2002,2003,2004,2005,2006,2007,2008,2009,2010,2011,2012,2013,2014,2015,2016,2017,2018,2019,2020,2021,2022,2023,2024,2025,2026,2027,2028,2029,2030,2031,2032,2033,2034,2035,2036,2037,2038,2039,2040,2041,2042,2043,2044,2045,2046,2047,2048,2049,2050,2051,2052,2053,2054,2055,2056,2057,2058,2059,2060,2061,2062,2063,2064,2065,2066,2067,2068,2069,2070,2071,2072,2073,2074,2075,2076,2077,2078,2079,2080,2081,2082,2083,2084,2085,2086,2087,2088,2089,2090,2091,2092,2093,2094,2095,2096,2097,2098,2099,2100,2101,2102,2103,2104,2105,2106,2107,2108,2109,2110,2111,2112,2113,2114,2115,2116,2117,2118,2119,2120,2121,2122,2123,2124,2125,2126,2127,2128,2129,2130,2131,2132,2133,2134,2135,2136,2137,2138,2139,2140,2141,2142,2143,2144,2145,2146,2147,2148,2149,2150,2151,2152,2153,2154,2155,2156,2157,2158,2159,2160,2161,2162,2163,2164,2165,2166,2167,2168,2169,2170,2171,2172,2173,2174,2175,2176,2177,2178,2179,2180,2181,2182,2183,2184,2185,2186,2187,2188,2189,2190,2191,2192,2193,2194,2195,2196,2197,2198,2199,2200,2201,2202,2203,2204,2205,2206,2207,2208,2209,2210,2211,2212,2213,2214,2215,2216,2217,2218,2219,2220,2221,2222,2223,2224,2225,2226,2227,2228,2229,2230,2231,2232,2233,2234,2235,2236,2237,2238,2239,2240,2241,2242,2243,2244,2245,2246,2247,2248,2249,2250,2251,2252,2253,2254,2255,2256,2257,2258,2259,2260,2261,2262,2263,2264,2265,2266,2267,2268,2269,2270,2271,2272,2273,2274,2275,2276,2277,2278,2279,2280,2281,2282,2283,2284,2285,2286,2287,2288,2289,2290,2291,2292,2293,2294,2295,2296,2297,2298,2299,2300,2301,2302,2303,2304,2305,2306,2307,2308,2309,2310,2311,2312,2313,2314,2315,2316,2317,2318,2319,2320,2321,2322,2323,2324,2325,2326,2327,2328,2329,2330,2331,2332,2333,2334,2335,2336,2337,2338,2339,2340,2341,2342,2343,2344,2345,2346,2347,2348,2349,2350,2351,2352,2353,2354,2355,2356,2357,2358,2359,2360,2361,2362,2363,2364,2365,2366,2367,2368,2369,2370,2371,2372,2373,2374,2375,2376,2377,2378,2379,2380,2381,2382,2383,2384,2385,2386,2387,2388,2389,2390,2391,2392,2393,2394,2395,2396,2397,2398,2399,2400,2401,2402,2403,2404,2405,2406,2407,2408,2409,2410,2411,2412,2413,2414,2415,2416,2417,2418,2419,2420,2421,2422,2423,2424,2425,2426,2427,2428,2429,2430,2431,2432,2433,2434,2435,2436,2437,2438,2439,2440,2441,2442,2443,2444,2445,2446,2447,2448,2449,2450,2451,2452,2453,2454,2455,2456,2457,2458,2459,2460,2461,2462,2463,2464,2465,2466,2467,2468,2469,2470,2471,2472,2473,2474,2475,2476,2477,2478,2479,2480,2481,2482,2483,2484,2485,2486,2487,2488,2489,2490,2491,2492,2493,2494,2495,2496,2497,2498,2499,2500,2501,2502,2503,2504,2505,2506,2507,2508,2509,2510,2511,2512,2513,2514,2515,2516,2517,2518,2519,2520,2521,2522,2523,2524,2525,2526,2527,2528,2529,2530,2531,2532,2533,2534,2535,2536,2537,2538,2539,2540,2541,2542,2543,2544,2545,2546,2547,2548,2549,2550,2551,2552,2553,2554,2555,2556,2557,2558,2559,2560,2561,2562,2563,2564,2565,2566,2567,2568,2569,2570,2571,2572,2573,2574,2575,2576,2577,2578,2579,2580,2581,2582,2583,2584,2585,2586,2587,2588,2589,2590,2591,2592,2593,2594,2595,2596,2597,2598,2599,2600,2601,2602,2603,2604,2605,2606,2607,2608,2609,2610,2611,2612,2613,2614,2615,2616,2617,2618,2619,2620,2621,2622,2623,2624,2625,2626,2627,2628,2629,2630,2631,2632,2633,2634,2635,2636,2637,2638,2639,2640,2641,2642,2643,2644,2645,2646,2647,2648,2649,2650,2651,2652,2653,2654,2655,2656,2657,2658,2659,2660,2661,2662,2663,2664,2665,2666,2667,2668,2669,2670,2671,2672,2673,2674,2675,2676,2677,2678,2679,2680,2681,2682,2683,2684,2685,2686,2687,2688,2689,2690,2691,2692,2693,2694,2695,2696,2697,2698,2699,2700,2701,2702,2703,2704,2705,2706,2707,2708,2709,2710,2711,2712,2713,2714,2715,2716,2717,2718,2719,2720,2721,2722,2723,2724,2725,2726,2727,2728,2729,2730,2731,2732,2733,2734,2735,2736,2737,2738,2739,2740,2741,2742,2743,2744,2745,2746,2747,2748,2749,2750,2751,2752,2753,2754,2755,2756,2757,2758,2759,2760,2761,2762,2763,2764,2765,2766,2767,2768,2769,2770,2771,2772,2773,2774,2775,2776,2777,2778,2779,2780,2781,2782,2783,2784,2785,2786,2787,2788,2789,2790,2791,2792,2793,2794,2795,2796,2797,2798,2799,2800,2801,2802,2803,2804,2805,2806,2807,2808,2809,2810,2811,2812,2813,2814,2815,2816,2817,2818,2819,2820,2821,2822,2823],"tree_info":[0,0,0,0,0,0,0,0,0,0,0,0,0,0,0,0,0,0,0,0,0,0,0,0,0,0,0,0,0,0,0,0,0,0,0,0,0,0,0,0,0,0,0,0,0,0,0,0,0,0,0,0,0,0,0,0,0,0,0,0,0,0,0,0,0,0,0,0,0,0,0,0,0,0,0,0,0,0,0,0,0,0,0,0,0,0,0,0,0,0,0,0,0,0,0,0,0,0,0,0,0,0,0,0,0,0,0,0,0,0,0,0,0,0,0,0,0,0,0,0,0,0,0,0,0,0,0,0,0,0,0,0,0,0,0,0,0,0,0,0,0,0,0,0,0,0,0,0,0,0,0,0,0,0,0,0,0,0,0,0,0,0,0,0,0,0,0,0,0,0,0,0,0,0,0,0,0,0,0,0,0,0,0,0,0,0,0,0,0,0,0,0,0,0,0,0,0,0,0,0,0,0,0,0,0,0,0,0,0,0,0,0,0,0,0,0,0,0,0,0,0,0,0,0,0,0,0,0,0,0,0,0,0,0,0,0,0,0,0,0,0,0,0,0,0,0,0,0,0,0,0,0,0,0,0,0,0,0,0,0,0,0,0,0,0,0,0,0,0,0,0,0,0,0,0,0,0,0,0,0,0,0,0,0,0,0,0,0,0,0,0,0,0,0,0,0,0,0,0,0,0,0,0,0,0,0,0,0,0,0,0,0,0,0,0,0,0,0,0,0,0,0,0,0,0,0,0,0,0,0,0,0,0,0,0,0,0,0,0,0,0,0,0,0,0,0,0,0,0,0,0,0,0,0,0,0,0,0,0,0,0,0,0,0,0,0,0,0,0,0,0,0,0,0,0,0,0,0,0,0,0,0,0,0,0,0,0,0,0,0,0,0,0,0,0,0,0,0,0,0,0,0,0,0,0,0,0,0,0,0,0,0,0,0,0,0,0,0,0,0,0,0,0,0,0,0,0,0,0,0,0,0,0,0,0,0,0,0,0,0,0,0,0,0,0,0,0,0,0,0,0,0,0,0,0,0,0,0,0,0,0,0,0,0,0,0,0,0,0,0,0,0,0,0,0,0,0,0,0,0,0,0,0,0,0,0,0,0,0,0,0,0,0,0,0,0,0,0,0,0,0,0,0,0,0,0,0,0,0,0,0,0,0,0,0,0,0,0,0,0,0,0,0,0,0,0,0,0,0,0,0,0,0,0,0,0,0,0,0,0,0,0,0,0,0,0,0,0,0,0,0,0,0,0,0,0,0,0,0,0,0,0,0,0,0,0,0,0,0,0,0,0,0,0,0,0,0,0,0,0,0,0,0,0,0,0,0,0,0,0,0,0,0,0,0,0,0,0,0,0,0,0,0,0,0,0,0,0,0,0,0,0,0,0,0,0,0,0,0,0,0,0,0,0,0,0,0,0,0,0,0,0,0,0,0,0,0,0,0,0,0,0,0,0,0,0,0,0,0,0,0,0,0,0,0,0,0,0,0,0,0,0,0,0,0,0,0,0,0,0,0,0,0,0,0,0,0,0,0,0,0,0,0,0,0,0,0,0,0,0,0,0,0,0,0,0,0,0,0,0,0,0,0,0,0,0,0,0,0,0,0,0,0,0,0,0,0,0,0,0,0,0,0,0,0,0,0,0,0,0,0,0,0,0,0,0,0,0,0,0,0,0,0,0,0,0,0,0,0,0,0,0,0,0,0,0,0,0,0,0,0,0,0,0,0,0,0,0,0,0,0,0,0,0,0,0,0,0,0,0,0,0,0,0,0,0,0,0,0,0,0,0,0,0,0,0,0,0,0,0,0,0,0,0,0,0,0,0,0,0,0,0,0,0,0,0,0,0,0,0,0,0,0,0,0,0,0,0,0,0,0,0,0,0,0,0,0,0,0,0,0,0,0,0,0,0,0,0,0,0,0,0,0,0,0,0,0,0,0,0,0,0,0,0,0,0,0,0,0,0,0,0,0,0,0,0,0,0,0,0,0,0,0,0,0,0,0,0,0,0,0,0,0,0,0,0,0,0,0,0,0,0,0,0,0,0,0,0,0,0,0,0,0,0,0,0,0,0,0,0,0,0,0,0,0,0,0,0,0,0,0,0,0,0,0,0,0,0,0,0,0,0,0,0,0,0,0,0,0,0,0,0,0,0,0,0,0,0,0,0,0,0,0,0,0,0,0,0,0,0,0,0,0,0,0,0,0,0,0,0,0,0,0,0,0,0,0,0,0,0,0,0,0,0,0,0,0,0,0,0,0,0,0,0,0,0,0,0,0,0,0,0,0,0,0,0,0,0,0,0,0,0,0,0,0,0,0,0,0,0,0,0,0,0,0,0,0,0,0,0,0,0,0,0,0,0,0,0,0,0,0,0,0,0,0,0,0,0,0,0,0,0,0,0,0,0,0,0,0,0,0,0,0,0,0,0,0,0,0,0,0,0,0,0,0,0,0,0,0,0,0,0,0,0,0,0,0,0,0,0,0,0,0,0,0,0,0,0,0,0,0,0,0,0,0,0,0,0,0,0,0,0,0,0,0,0,0,0,0,0,0,0,0,0,0,0,0,0,0,0,0,0,0,0,0,0,0,0,0,0,0,0,0,0,0,0,0,0,0,0,0,0,0,0,0,0,0,0,0,0,0,0,0,0,0,0,0,0,0,0,0,0,0,0,0,0,0,0,0,0,0,0,0,0,0,0,0,0,0,0,0,0,0,0,0,0,0,0,0,0,0,0,0,0,0,0,0,0,0,0,0,0,0,0,0,0,0,0,0,0,0,0,0,0,0,0,0,0,0,0,0,0,0,0,0,0,0,0,0,0,0,0,0,0,0,0,0,0,0,0,0,0,0,0,0,0,0,0,0,0,0,0,0,0,0,0,0,0,0,0,0,0,0,0,0,0,0,0,0,0,0,0,0,0,0,0,0,0,0,0,0,0,0,0,0,0,0,0,0,0,0,0,0,0,0,0,0,0,0,0,0,0,0,0,0,0,0,0,0,0,0,0,0,0,0,0,0,0,0,0,0,0,0,0,0,0,0,0,0,0,0,0,0,0,0,0,0,0,0,0,0,0,0,0,0,0,0,0,0,0,0,0,0,0,0,0,0,0,0,0,0,0,0,0,0,0,0,0,0,0,0,0,0,0,0,0,0,0,0,0,0,0,0,0,0,0,0,0,0,0,0,0,0,0,0,0,0,0,0,0,0,0,0,0,0,0,0,0,0,0,0,0,0,0,0,0,0,0,0,0,0,0,0,0,0,0,0,0,0,0,0,0,0,0,0,0,0,0,0,0,0,0,0,0,0,0,0,0,0,0,0,0,0,0,0,0,0,0,0,0,0,0,0,0,0,0,0,0,0,0,0,0,0,0,0,0,0,0,0,0,0,0,0,0,0,0,0,0,0,0,0,0,0,0,0,0,0,0,0,0,0,0,0,0,0,0,0,0,0,0,0,0,0,0,0,0,0,0,0,0,0,0,0,0,0,0,0,0,0,0,0,0,0,0,0,0,0,0,0,0,0,0,0,0,0,0,0,0,0,0,0,0,0,0,0,0,0,0,0,0,0,0,0,0,0,0,0,0,0,0,0,0,0,0,0,0,0,0,0,0,0,0,0,0,0,0,0,0,0,0,0,0,0,0,0,0,0,0,0,0,0,0,0,0,0,0,0,0,0,0,0,0,0,0,0,0,0,0,0,0,0,0,0,0,0,0,0,0,0,0,0,0,0,0,0,0,0,0,0,0,0,0,0,0,0,0,0,0,0,0,0,0,0,0,0,0,0,0,0,0,0,0,0,0,0,0,0,0,0,0,0,0,0,0,0,0,0,0,0,0,0,0,0,0,0,0,0,0,0,0,0,0,0,0,0,0,0,0,0,0,0,0,0,0,0,0,0,0,0,0,0,0,0,0,0,0,0,0,0,0,0,0,0,0,0,0,0,0,0,0,0,0,0,0,0,0,0,0,0,0,0,0,0,0,0,0,0,0,0,0,0,0,0,0,0,0,0,0,0,0,0,0,0,0,0,0,0,0,0,0,0,0,0,0,0,0,0,0,0,0,0,0,0,0,0,0,0,0,0,0,0,0,0,0,0,0,0,0,0,0,0,0,0,0,0,0,0,0,0,0,0,0,0,0,0,0,0,0,0,0,0,0,0,0,0,0,0,0,0,0,0,0,0,0,0,0,0,0,0,0,0,0,0,0,0,0,0,0,0,0,0,0,0,0,0,0,0,0,0,0,0,0,0,0,0,0,0,0,0,0,0,0,0,0,0,0,0,0,0,0,0,0,0,0,0,0,0,0,0,0,0,0,0,0,0,0,0,0,0,0,0,0,0,0,0,0,0,0,0,0,0,0,0,0,0,0,0,0,0,0,0,0,0,0,0,0,0,0,0,0,0,0,0,0,0,0,0,0,0,0,0,0,0,0,0,0,0,0,0,0,0,0,0,0,0,0,0,0,0,0,0,0,0,0,0,0,0,0,0,0,0,0,0,0,0,0,0,0,0,0,0,0,0,0,0,0,0,0,0,0,0,0,0,0,0,0,0,0,0,0,0,0,0,0,0,0,0,0,0,0,0,0,0,0,0,0,0,0,0,0,0,0,0,0,0,0,0,0,0,0,0,0,0,0,0,0,0,0,0,0,0,0,0,0,0,0,0,0,0,0,0,0,0,0,0,0,0,0,0,0,0,0,0,0,0,0,0,0,0,0,0,0,0,0,0,0,0,0,0,0,0,0,0,0,0,0,0,0,0,0,0,0,0,0,0,0,0,0,0,0,0,0,0,0,0,0,0,0,0,0,0,0,0,0,0,0,0,0,0,0,0,0,0,0,0,0,0,0,0,0,0,0,0,0,0,0,0,0,0,0,0,0,0,0,0,0,0,0,0,0,0,0,0,0,0,0,0,0,0,0,0,0,0,0,0,0,0,0,0,0,0,0,0,0,0,0,0,0,0,0,0,0,0,0,0,0,0,0,0,0,0,0,0,0,0,0,0,0,0,0,0,0,0,0,0,0,0,0,0,0,0,0,0,0,0,0,0,0,0,0,0,0,0,0,0,0,0,0,0,0,0,0,0,0,0,0,0,0,0,0,0,0,0,0,0,0,0,0,0,0,0,0,0,0,0,0,0,0,0,0,0,0,0,0,0,0,0,0,0,0,0,0,0,0,0,0,0,0,0,0,0,0,0,0,0,0,0,0,0,0,0,0,0,0,0,0,0,0,0,0,0,0,0,0,0,0,0,0,0,0,0,0,0,0,0,0,0,0,0,0,0,0,0,0,0,0,0,0,0,0,0,0,0,0,0,0,0,0,0,0,0,0,0,0,0,0,0,0,0,0,0,0,0,0,0,0,0,0,0,0,0,0,0,0,0,0,0,0,0,0,0,0,0,0,0,0,0,0,0,0,0,0,0,0,0,0,0,0,0,0,0,0,0,0,0,0,0,0,0,0,0,0,0,0,0,0,0,0,0,0,0,0,0,0,0,0,0,0,0,0,0,0,0,0,0,0,0,0,0,0,0,0,0,0,0,0,0,0,0,0,0,0,0,0,0,0,0,0,0,0,0,0,0,0,0,0,0,0,0,0,0,0,0,0,0,0,0,0,0,0,0,0,0,0,0,0,0,0,0,0,0,0,0,0,0,0,0,0,0,0,0,0,0,0,0,0,0,0,0,0,0,0,0,0,0,0,0,0,0,0,0,0,0,0,0,0,0,0,0,0,0,0,0,0,0,0,0,0,0,0,0,0,0,0,0,0,0,0,0,0,0,0,0,0,0,0,0,0,0,0,0,0,0,0,0,0,0,0,0,0,0,0,0,0,0,0,0,0,0,0,0,0,0,0,0,0,0,0,0,0,0,0,0,0,0,0,0,0,0,0,0,0,0,0,0,0,0,0,0,0,0,0,0,0,0,0,0,0,0,0,0,0,0,0,0,0,0,0,0,0,0,0,0,0,0,0,0,0,0,0,0,0,0,0,0,0,0,0,0,0,0,0,0,0,0,0,0,0,0,0,0,0,0,0,0,0,0,0,0,0,0,0,0,0,0,0,0,0,0,0,0,0,0,0,0,0,0,0,0,0,0,0,0,0,0,0,0,0,0,0,0,0,0,0,0,0,0,0,0,0,0,0,0,0,0,0,0,0,0,0,0,0,0,0,0,0,0,0,0,0,0,0,0,0,0,0,0,0,0,0,0,0,0,0,0,0,0,0,0,0,0,0,0,0,0,0,0,0,0,0,0,0,0,0,0,0,0,0,0,0,0,0,0,0,0,0,0,0,0,0,0,0,0,0,0,0,0,0,0,0,0,0,0,0,0,0,0,0,0,0,0,0,0,0,0,0,0,0,0,0,0,0,0],"trees":[{"base_weights":[-2.6200393E-2,-1.1721339E4,2.4256738E5,-1.698894E4,8.831225E4,1.8941906E5,3.8641497E5,-3.6991888E2,4.9310365E0,9.0600616E2,-1.1344577E2,1.2044985E2,2.0475785E3,1.339406E3,4.137908E3],"categories":[],"categories_nodes":[],"categories_segments":[],"categories_sizes":[],"default_left":[0,0,0,0,0,0,0,0,0,0,0,0,0,0,0],"id":0,"left_children":[1,3,5,7,9,11,13,-1,-1,-1,-1,-1,-1,-1,-1],"loss_changes":[2.948407E13,5.2139603E12,3.5812394E12,3.2864278E12,1.13913364E11,9.525002E11,8.292747E11,0E0,0E0,0E0,0E0,0E0,0E0,0E0,0E0],"parents":[2147483647,0,0,1,1,2,2,3,3,4,4,5,5,6,6],"right_children":[2,4,6,8,10,12,14,-1,-1,-1,-1,-1,-1,-1,-1],"split_conditions":[2.62032E5,2.1388E5,4.71872E5,1.302E5,4.3288E4,-1.568E4,-1.06112E5,-3.6991888E2,4.9310365E0,9.0600616E2,-1.1344577E2,1.2044985E2,2.0475785E3,1.339406E3,4.137908E3],"split_indices":[5,0,0,5,9,8,8,0,0,0,0,0,0,0,0],"split_type":[0,0,0,0,0,0,0,0,0,0,0,0,0,0,0],"sum_hessian":[1.0368E4,9.891E3,4.77E2,9.397E3,4.94E2,3.5E2,1.27E2,4.382E3,5.015E3,4.83E2,1.1E1,2.8E1,3.22E2,1.3E1,1.14E2],"tree_param":{"num_deleted":"0","num_feature":"10","num_nodes":"15","size_leaf_vector":"1"}},{"base_weights":[2.4683585E2,-1.1730602E4,2.3878697E5,-1.6822213E4,8.732854E4,1.8739542E5,3.8321838E5,-3.6665094E2,2.8811002E0,-1.2577321E1,8.976591E2,5.30012E-1,2.0097079E3,1.3061516E3,4.1016904E3],"categories":[],"categories_nodes":[],"categories_segments":[],"categories_sizes":[],"default_left":[0,0,0,0,0,0,0,0,0,0,0,0,0,0,0],"id":1,"left_children":[1,3,5,7,9,11,13,-1,-1,-1,-1,-1,-1,-1,-1],"loss_changes":[2.981949E13,5.0139056E12,3.6320429E12,3.2094754E12,1.05048965E11,9.4099E11,8.314432E11,0E0,0E0,0E0,0E0,0E0,0E0,0E0,0E0],"parents":[2147483647,0,0,1,1,2,2,3,3,4,4,5,5,6,6],"right_children":[2,4,6,8,10,12,14,-1,-1,-1,-1,-1,-1,-1,-1],"split_conditions":[2.62032E5,1.946096E5,4.71872E5,1.302E5,-1.568E4,-1.568E4,-1.06112E5,-3.6665094E2,2.8811002E0,-1.2577321E1,8.976591E2,5.30012E-1,2.0097079E3,1.3061516E3,4.1016904E3],"split_indices":[5,5,0,5,8,8,8,0,0,0,0,0,0,0,0],"split_type":[0,0,0,0,0,0,0,0,0,0,0,0,0,0,0],"sum_hessian":[1.0435E4,9.937E3,4.98E2,9.452E3,4.85E2,3.69E2,1.29E2,4.376E3,5.076E3,1.3E1,4.72E2,2.5E1,3.44E2,1.3E1,1.16E2],"tree_param":{"num_deleted":"0","num_feature":"10","num_nodes":"15","size_leaf_vector":"1"}},{"base_weights":[3.2084503E2,-1.1672193E4,2.3563598E5,-3.33891E4,1.1164291E4,1.84989E5,3.814316E5,-3.9639413E2,-2.0689316E2,2.7663734E1,8.6410156E2,8.665887E1,2.0025209E3,1.2963601E3,4.085325E3],"categories":[],"categories_nodes":[],"categories_segments":[],"categories_sizes":[],"default_left":[0,0,0,0,0,0,0,0,0,0,0,0,0,0,0],"id":2,"left_children":[1,3,5,7,9,11,13,-1,-1,-1,-1,-1,-1,-1,-1],"loss_changes":[2.9330466E13,4.904702E12,3.6510284E12,4.0154536E11,3.0461922E12,1.01016876E12,8.273223E11,0E0,0E0,0E0,0E0,0E0,0E0,0E0,0E0],"parents":[2147483647,0,0,1,1,2,2,3,3,4,4,5,5,6,6],"right_children":[2,4,6,8,10,12,14,-1,-1,-1,-1,-1,-1,-1,-1],"split_conditions":[2.62032E5,1.378144E5,4.71872E5,1.174368E5,2.1388E5,-1.568E4,-1.06112E5,-3.9639413E2,-2.0689316E2,2.7663734E1,8.6410156E2,8.665887E1,2.0025209E3,1.2963601E3,4.085325E3],"split_indices":[5,5,0,5,0,8,8,0,0,0,0,0,0,0,0],"split_type":[0,0,0,0,0,0,0,0,0,0,0,0,0,0,0],"sum_hessian":[1.0391E4,9.888E3,5.03E2,5.068E3,4.82E3,3.75E2,1.28E2,3.395E3,1.673E3,4.337E3,4.83E2,3E1,3.45E2,1.3E1,1.15E2],"tree_param":{"num_deleted":"0","num_feature":"10","num_nodes":"15","size_leaf_vector":"1"}},{"base_weights":[-4.2979244E1,-1.562821E4,1.5959628E5,-3.552871E4,1.9225441E3,1.08112875E5,2.999093E5,-3.9913672E2,-2.5647E2,7.519573E0,3.1128752E3,8.9163794E2,1.5435391E3,6.5353735E2,3.2359565E3],"categories":[],"categories_nodes":[],"categories_segments":[],"categories_sizes":[],"default_left":[0,0,0,0,0,0,0,0,0,0,0,0,0,0,0],"id":3,"left_children":[1,3,5,7,9,11,13,-1,-1,-1,-1,-1,-1,-1,-1],"loss_changes":[2.5902728E13,3.3128828E12,6.656809E12,1.9158218E11,1.8253063E12,5.811942E11,1.3566812E12,0E0,0E0,0E0,0E0,0E0,0E0,0E0,0E0],"parents":[2147483647,0,0,1,1,2,2,3,3,4,4,5,5,6,6],"right_children":[2,4,6,8,10,12,14,-1,-1,-1,-1,-1,-1,-1,-1],"split_conditions":[2.37552E5,1.3064E5,3.60592E5,1.14768E5,2.10952E5,3.13504E5,-1.06112E5,-3.9913672E2,-2.5647E2,7.519573E0,3.1128752E3,8.9163794E2,1.5435391E3,6.5353735E2,3.2359565E3],"split_indices":[0,2,0,0,9,2,8,0,0,0,0,0,0,0,0],"split_type":[0,0,0,0,0,0,0,0,0,0,0,0,0,0,0],"sum_hessian":[1.0409E4,9.484E3,9.25E2,4.444E3,5.04E3,6.78E2,2.47E2,3.076E3,1.368E3,5.022E3,1.8E1,4.83E2,1.95E2,2.3E1,2.24E2],"tree_param":{"num_deleted":"0","num_feature":"10","num_nodes":"15","size_leaf_vector":"1"}},{"base_weights":[-3.928675E2,-1.1459867E4,2.3345747E5,-3.2719309E4,1.0877485E4,1.8300314E5,3.689525E5,-3.860482E2,-1.9965314E2,2.819692E1,8.4802637E2,-2.5545517E1,1.9511267E3,1.2146826E3,4.0130203E3],"categories":[],"categories_nodes":[],"categories_segments":[],"categories_sizes":[],"default_left":[0,0,0,0,0,0,0,0,0,0,0,0,0,0,0],"id":4,"left_children":[1,3,5,7,9,11,13,-1,-1,-1,-1,-1,-1,-1,-1],"loss_changes":[2.6804228E13,4.6964414E12,3.1318742E12,3.7957717E11,2.8726948E12,7.712245E11,9.60008E11,0E0,0E0,0E0,0E0,0E0,0E0,0E0,0E0],"parents":[2147483647,0,0,1,1,2,2,3,3,4,4,5,5,6,6],"right_children":[2,4,6,8,10,12,14,-1,-1,-1,-1,-1,-1,-1,-1],"split_conditions":[2.62032E5,1.378144E5,4.71872E5,1.180752E5,2.1388E5,-1.568E4,-1.06112E5,-3.860482E2,-1.9965314E2,2.819692E1,8.4802637E2,-2.5545517E1,1.9511267E3,1.2146826E3,4.0130203E3],"split_indices":[5,5,0,5,0,8,8,0,0,0,0,0,0,0,0],"split_type":[0,0,0,0,0,0,0,0,0,0,0,0,0,0,0],"sum_hessian":[1.0355E4,9.888E3,4.67E2,5.066E3,4.822E3,3.42E2,1.25E2,3.465E3,1.601E3,4.349E3,4.73E2,2.1E1,3.21E2,1.5E1,1.1E2],"tree_param":{"num_deleted":"0","num_feature":"10","num_nodes":"15","size_leaf_vector":"1"}},{"base_weights":[3.6573965E2,-1.1055989E4,2.3300389E5,-1.6057511E4,8.461159E4,1.8173384E5,3.6340772E5,-3.4721707E2,9.268713E0,8.675131E2,-1.7422525E2,1.5762089E3,2.2841963E3,3.9331592E3,1.2915469E3],"categories":[],"categories_nodes":[],"categories_segments":[],"categories_sizes":[],"default_left":[0,0,0,0,0,0,0,0,0,0,0,0,0,0,0],"id":5,"left_children":[1,3,5,7,9,11,13,-1,-1,-1,-1,-1,-1,-1,-1],"loss_changes":[2.776427E13,4.767054E12,3.20332E12,3.0007521E12,1.095817E11,3.613802E11,9.090378E11,0E0,0E0,0E0,0E0,0E0,0E0,0E0,0E0],"parents":[2147483647,0,0,1,1,2,2,3,3,4,4,5,5,6,6],"right_children":[2,4,6,8,10,12,14,-1,-1,-1,-1,-1,-1,-1,-1],"split_conditions":[2.62032E5,2.1388E5,4.71872E5,1.317904E5,4.3288E4,3.60592E5,1.0728E5,-3.4721707E2,9.268713E0,8.675131E2,-1.7422525E2,1.5762089E3,2.2841963E3,3.9331592E3,1.2915469E3],"split_indices":[5,0,0,5,9,0,9,0,0,0,0,0,0,0,0],"split_type":[0,0,0,0,0,0,0,0,0,0,0,0,0,0,0],"sum_hessian":[1.0447E4,9.959E3,4.88E2,9.465E3,4.94E2,3.52E2,1.36E2,4.509E3,4.956E3,4.84E2,1E1,2.35E2,1.17E2,1.2E2,1.6E1],"tree_param":{"num_deleted":"0","num_feature":"10","num_nodes":"15","size_leaf_vector":"1"}},{"base_weights":[-4.0674954E2,-1.1390712E4,2.2699428E5,-3.2040717E4,1.0628279E4,1.8199234E5,3.5681966E5,-3.8079675E2,-2.0063896E2,2.7285847E1,8.238502E2,-7.159393E1,1.9264633E3,8.1332574E2,3.9177786E3],"categories":[],"categories_nodes":[],"categories_segments":[],"categories_sizes":[],"default_left":[0,0,0,0,0,0,0,0,0,0,0,0,0,0,0],"id":6,"left_children":[1,3,5,7,9,11,13,-1,-1,-1,-1,-1,-1,-1,-1],"loss_changes":[2.5911896E13,4.4999754E12,2.7277258E12,3.686122E11,2.715017E12,7.2081107E11,1.14306E12,0E0,0E0,0E0,0E0,0E0,0E0,0E0,0E0],"parents":[2147483647,0,0,1,1,2,2,3,3,4,4,5,5,6,6],"right_children":[2,4,6,8,10,12,14,-1,-1,-1,-1,-1,-1,-1,-1],"split_conditions":[2.62032E5,1.378144E5,4.71872E5,1.174368E5,1.946096E5,-1.06112E5,-1.06112E5,-3.8079675E2,-2.0063896E2,2.7285847E1,8.238502E2,-7.159393E1,1.9264633E3,8.1332574E2,3.9177786E3],"split_indices":[5,5,0,5,5,8,8,0,0,0,0,0,0,0,0],"split_type":[0,0,0,0,0,0,0,0,0,0,0,0,0,0,0],"sum_hessian":[1.0372E4,9.895E3,4.77E2,5.106E3,4.789E3,3.56E2,1.21E2,3.393E3,1.713E3,4.315E3,4.74E2,1.9E1,3.37E2,1.4E1,1.07E2],"tree_param":{"num_deleted":"0","num_feature":"10","num_nodes":"15","size_leaf_vector":"1"}},{"base_weights":[-1.23772896E2,-1.1100236E4,2.2185983E5,-3.1437332E4,1.1116397E4,1.7506773E5,3.4814838E5,-3.7393655E2,-1.8786743E2,2.9515638E1,8.235647E2,-7.1318016E1,1.9040923E3,1.01609125E3,3.8370972E3],"categories":[],"categories_nodes":[],"categories_segments":[],"categories_sizes":[],"default_left":[0,0,0,0,0,0,0,0,0,0,0,0,0,0,0],"id":7,"left_children":[1,3,5,7,9,11,13,-1,-1,-1,-1,-1,-1,-1,-1],"loss_changes":[2.544295E13,4.495976E12,2.8464267E12,3.9074608E11,2.7661477E12,1.0104309E12,1.1182916E12,0E0,0E0,0E0,0E0,0E0,0E0,0E0,0E0],"parents":[2147483647,0,0,1,1,2,2,3,3,4,4,5,5,6,6],"right_children":[2,4,6,8,10,12,14,-1,-1,-1,-1,-1,-1,-1,-1],"split_conditions":[2.62032E5,1.384736E5,4.71872E5,1.185776E5,2.1388E5,-1.568E4,-1.06112E5,-3.7393655E2,-1.8786743E2,2.9515638E1,8.235647E2,-7.1318016E1,1.9040923E3,1.01609125E3,3.8370972E3],"split_indices":[5,5,0,5,0,8,8,0,0,0,0,0,0,0,0],"split_type":[0,0,0,0,0,0,0,0,0,0,0,0,0,0,0],"sum_hessian":[1.044E4,9.949E3,4.91E2,5.194E3,4.755E3,3.6E2,1.31E2,3.53E3,1.664E3,4.267E3,4.88E2,2.8E1,3.32E2,1.7E1,1.14E2],"tree_param":{"num_deleted":"0","num_feature":"10","num_nodes":"15","size_leaf_vector":"1"}},{"base_weights":[-9.22583E1,-1.471141E4,1.5212277E5,-3.4358223E4,1.5607217E3,1.0445924E5,2.9528234E5,-3.8214935E2,-2.5231432E2,5.010129E-1,2.0192966E3,8.477344E2,1.4380441E3,7.165729E2,3.1762278E3],"categories":[],"categories_nodes":[],"categories_segments":[],"categories_sizes":[],"default_left":[0,0,0,0,0,0,0,0,0,0,0,0,0,0,0],"id":8,"left_children":[1,3,5,7,9,11,13,-1,-1,-1,-1,-1,-1,-1,-1],"loss_changes":[2.3236121E13,3.0457927E12,6.212649E12,1.5095667E11,1.5775654E12,5.2069453E11,1.1163014E12,0E0,0E0,0E0,0E0,0E0,0E0,0E0,0E0],"parents":[2147483647,0,0,1,1,2,2,3,3,4,4,5,5,6,6],"right_children":[2,4,6,8,10,12,14,-1,-1,-1,-1,-1,-1,-1,-1],"split_conditions":[2.37552E5,1.28864E5,3.92688E5,1.14488E5,8.3808E4,3.13504E5,-1.06112E5,-3.8214935E2,-2.5231432E2,5.010129E-1,2.0192966E3,8.477344E2,1.4380441E3,7.165729E2,3.1762278E3],"split_indices":[0,2,0,4,8,0,8,0,0,0,0,0,0,0,0],"split_type":[0,0,0,0,0,0,0,0,0,0,0,0,0,0,0],"sum_hessian":[1.044E4,9.526E3,9.14E2,4.315E3,5.211E3,6.87E2,2.27E2,3.031E3,1.284E3,5.173E3,3.8E1,4.6E2,2.27E2,2.1E1,2.06E2],"tree_param":{"num_deleted":"0","num_feature":"10","num_nodes":"15","size_leaf_vector":"1"}},{"base_weights":[1.2669383E2,-1.4753734E4,1.524738E5,-3.3841957E4,1.3437896E3,1.0258629E5,2.9343056E5,-3.8030756E2,-2.5458333E2,-1.0523811E-1,1.9309227E3,8.439107E2,1.421534E3,6.775837E2,3.1579143E3],"categories":[],"categories_nodes":[],"categories_segments":[],"categories_sizes":[],"default_left":[0,0,0,0,0,0,0,0,0,0,0,0,0,0,0],"id":9,"left_children":[1,3,5,7,9,11,13,-1,-1,-1,-1,-1,-1,-1,-1],"loss_changes":[2.3540407E13,2.9068493E12,6.467449E12,1.5101959E11,1.3329783E12,4.8043812E11,1.1947433E12,0E0,0E0,0E0,0E0,0E0,0E0,0E0,0E0],"parents":[2147483647,0,0,1,1,2,2,3,3,4,4,5,5,6,6],"right_children":[2,4,6,8,10,12,14,-1,-1,-1,-1,-1,-1,-1,-1],"split_conditions":[2.37552E5,1.28864E5,3.60592E5,1.13528E5,8.3808E4,3.13504E5,-1.06112E5,-3.8030756E2,-2.5458333E2,-1.0523811E-1,1.9309227E3,8.439107E2,1.421534E3,6.775837E2,3.1579143E3],"split_indices":[0,2,0,3,8,2,8,0,0,0,0,0,0,0,0],"split_type":[0,0,0,0,0,0,0,0,0,0,0,0,0,0,0],"sum_hessian":[1.0382E4,9.459E3,9.23E2,4.327E3,5.132E3,6.83E2,2.4E2,2.883E3,1.444E3,5.097E3,3.5E1,4.7E2,2.13E2,2.2E1,2.18E2],"tree_param":{"num_deleted":"0","num_feature":"10","num_nodes":"15","size_leaf_vector":"1"}},{"base_weights":[-1.365553E2,-1.0725358E4,2.1319569E5,-2.9939543E4,1.1150424E4,1.6757873E5,3.4226162E5,-3.5979025E2,-1.7017514E2,3.3086014E1,7.952415E2,-1.6801436E2,1.7948857E3,8.853456E2,3.7545242E3],"categories":[],"categories_nodes":[],"categories_segments":[],"categories_sizes":[],"default_left":[0,0,0,0,0,0,0,0,0,0,0,0,0,0,0],"id":10,"left_children":[1,3,5,7,9,11,13,-1,-1,-1,-1,-1,-1,-1,-1],"loss_changes":[2.3407094E13,4.1497857E12,2.827567E12,4.0957903E11,2.4752551E12,8.0233785E11,1.03627725E12,0E0,0E0,0E0,0E0,0E0,0E0,0E0,0E0],"parents":[2147483647,0,0,1,1,2,2,3,3,4,4,5,5,6,6],"right_children":[2,4,6,8,10,12,14,-1,-1,-1,-1,-1,-1,-1,-1],"split_conditions":[2.62032E5,1.395904E5,4.71872E5,1.196288E5,2.1388E5,-1.06112E5,-1.06112E5,-3.5979025E2,-1.7017514E2,3.3086014E1,7.952415E2,-1.6801436E2,1.7948857E3,8.853456E2,3.7545242E3],"split_indices":[5,5,0,5,0,8,8,0,0,0,0,0,0,0,0],"split_type":[0,0,0,0,0,0,0,0,0,0,0,0,0,0,0],"sum_hessian":[1.036E4,9.871E3,4.89E2,5.255E3,4.616E3,3.63E2,1.26E2,3.58E3,1.675E3,4.142E3,4.74E2,2.2E1,3.41E2,1.5E1,1.11E2],"tree_param":{"num_deleted":"0","num_feature":"10","num_nodes":"15","size_leaf_vector":"1"}},{"base_weights":[1.9251704E-1,-1.0598912E4,2.1321525E5,-3.004875E4,1.0661887E4,1.6614655E5,3.493267E5,-3.577216E2,-1.7426465E2,2.968821E1,7.798201E2,3.9944042E1,1.8061252E3,1.1192227E3,3.7354731E3],"categories":[],"categories_nodes":[],"categories_segments":[],"categories_sizes":[],"default_left":[0,0,0,0,0,0,0,0,0,0,0,0,0,0,0],"id":11,"left_children":[1,3,5,7,9,11,13,-1,-1,-1,-1,-1,-1,-1,-1],"loss_changes":[2.3383069E13,4.0763785E12,3.0811902E12,3.7128136E11,2.439069E12,8.578012E11,6.769523E11,0E0,0E0,0E0,0E0,0E0,0E0,0E0,0E0],"parents":[2147483647,0,0,1,1,2,2,3,3,4,4,5,5,6,6],"right_children":[2,4,6,8,10,12,14,-1,-1,-1,-1,-1,-1,-1,-1],"split_conditions":[2.62032E5,1.388448E5,4.71872E5,1.192272E5,1.946096E5,-1.568E4,-1.06112E5,-3.577216E2,-1.7426465E2,2.968821E1,7.798201E2,3.9944042E1,1.8061252E3,1.1192227E3,3.7354731E3],"split_indices":[5,5,0,5,5,8,8,0,0,0,0,0,0,0,0],"split_type":[0,0,0,0,0,0,0,0,0,0,0,0,0,0,0],"sum_hessian":[1.0345E4,9.856E3,4.89E2,5.147E3,4.709E3,3.65E2,1.24E2,3.54E3,1.607E3,4.227E3,4.82E2,3E1,3.35E2,1.2E1,1.12E2],"tree_param":{"num_deleted":"0","num_feature":"10","num_nodes":"15","size_leaf_vector":"1"}},{"base_weights":[-2.1738252E2,-1.0785719E4,2.1161948E5,-2.9986549E4,1.0186469E4,1.6719003E5,3.377009E5,-3.592479E2,-1.865277E2,2.949934E1,7.8048254E2,-1.1432401E2,1.7913132E3,8.283005E2,3.6827424E3],"categories":[],"categories_nodes":[],"categories_segments":[],"categories_sizes":[],"default_left":[0,0,0,0,0,0,0,0,0,0,0,0,0,0,0],"id":12,"left_children":[1,3,5,7,9,11,13,-1,-1,-1,-1,-1,-1,-1,-1],"loss_changes":[2.3321238E13,3.99573E12,2.716397E12,3.479579E11,2.3289822E12,7.869846E11,9.6690556E11,0E0,0E0,0E0,0E0,0E0,0E0,0E0,0E0],"parents":[2147483647,0,0,1,1,2,2,3,3,4,4,5,5,6,6],"right_children":[2,4,6,8,10,12,14,-1,-1,-1,-1,-1,-1,-1,-1],"split_conditions":[2.62032E5,1.384736E5,4.71872E5,1.174368E5,2.1388E5,-1.06112E5,-1.06112E5,-3.592479E2,-1.865277E2,2.949934E1,7.8048254E2,-1.1432401E2,1.7913132E3,8.283005E2,3.6827424E3],"split_indices":[5,5,0,5,0,8,8,0,0,0,0,0,0,0,0],"split_type":[0,0,0,0,0,0,0,0,0,0,0,0,0,0,0],"sum_hessian":[1.0415E4,9.921E3,4.94E2,5.179E3,4.742E3,3.67E2,1.27E2,3.397E3,1.782E3,4.286E3,4.56E2,2.3E1,3.44E2,1.4E1,1.13E2],"tree_param":{"num_deleted":"0","num_feature":"10","num_nodes":"15","size_leaf_vector":"1"}},{"base_weights":[-3.8401073E1,-1.002363E4,2.161636E5,-1.4895317E4,8.217847E4,1.6446202E5,3.4204297E5,-3.281095E2,1.1439646E0,7.192538E2,2.2509563E3,-8.349703E1,1.7571067E3,9.75941E2,3.6547925E3],"categories":[],"categories_nodes":[],"categories_segments":[],"categories_sizes":[],"default_left":[0,0,0,0,0,0,0,0,0,0,0,0,0,0,0],"id":13,"left_children":[1,3,5,7,9,11,13,-1,-1,-1,-1,-1,-1,-1,-1],"loss_changes":[2.2494981E13,4.4750545E12,2.9374997E12,2.5441474E12,7.16481E11,6.390662E11,7.262857E11,0E0,0E0,0E0,0E0,0E0,0E0,0E0,0E0],"parents":[2147483647,0,0,1,1,2,2,3,3,4,4,5,5,6,6],"right_children":[2,4,6,8,10,12,14,-1,-1,-1,-1,-1,-1,-1,-1],"split_conditions":[3.13504E5,2.1388E5,4.71872E5,1.2832E5,8.3808E4,-1.06112E5,-1.06112E5,-3.281095E2,1.1439646E0,7.192538E2,2.2509563E3,-8.349703E1,1.7571067E3,9.75941E2,3.6547925E3],"split_indices":[0,2,0,0,8,8,8,0,0,0,0,0,0,0,0],"split_type":[0,0,0,0,0,0,0,0,0,0,0,0,0,0,0],"sum_hessian":[1.0418E4,9.959E3,4.59E2,9.46E3,4.99E2,3.27E2,1.32E2,4.312E3,5.148E3,4.67E2,3.2E1,2E1,3.07E2,1.2E1,1.2E2],"tree_param":{"num_deleted":"0","num_feature":"10","num_nodes":"15","size_leaf_vector":"1"}},{"base_weights":[4.4937445E2,-9.433822E3,2.1221294E5,-1.4659734E4,8.339814E4,1.6318383E5,3.3559853E5,-3.1234778E2,1.2422504E1,7.362702E2,3.1672522E3,8.4241E1,1.7406937E3,1.085407E3,3.5969353E3],"categories":[],"categories_nodes":[],"categories_segments":[],"categories_sizes":[],"default_left":[0,0,0,0,0,0,0,0,0,0,0,0,0,0,0],"id":14,"left_children":[1,3,5,7,9,11,13,-1,-1,-1,-1,-1,-1,-1,-1],"loss_changes":[2.1778636E13,4.8244007E12,2.7521974E12,2.4810808E12,1.1850094E12,5.612052E11,6.776538E11,0E0,0E0,0E0,0E0,0E0,0E0,0E0,0E0],"parents":[2147483647,0,0,1,1,2,2,3,3,4,4,5,5,6,6],"right_children":[2,4,6,8,10,12,14,-1,-1,-1,-1,-1,-1,-1,-1],"split_conditions":[3.13504E5,2.1388E5,4.71872E5,1.3252E5,2.10952E5,-1.568E4,-1.06112E5,-3.1234778E2,1.2422504E1,7.362702E2,3.1672522E3,8.4241E1,1.7406937E3,1.085407E3,3.5969353E3],"split_indices":[0,2,0,0,9,8,8,0,0,0,0,0,0,0,0],"split_type":[0,0,0,0,0,0,0,0,0,0,0,0,0,0,0],"sum_hessian":[1.0404E4,9.941E3,4.63E2,9.412E3,5.29E2,3.33E2,1.3E2,4.608E3,4.804E3,5.09E2,2E1,2.2E1,3.11E2,1.3E1,1.17E2],"tree_param":{"num_deleted":"0","num_feature":"10","num_nodes":"15","size_leaf_vector":"1"}},{"base_weights":[-5.0753873E2,-1.0499522E4,2.122476E5,-2.8832088E4,1.0033158E4,1.6525544E5,3.3079816E5,-3.4287646E2,-1.6507732E2,2.8756462E1,7.650971E2,1.4164412E3,2.0747588E3,3.537023E3,1.3009254E3],"categories":[],"categories_nodes":[],"categories_segments":[],"categories_sizes":[],"default_left":[0,0,0,0,0,0,0,0,0,0,0,0,0,0,0],"id":15,"left_children":[1,3,5,7,9,11,13,-1,-1,-1,-1,-1,-1,-1,-1],"loss_changes":[2.203662E13,3.7271912E12,2.5358238E12,3.5114687E11,2.2222733E12,3.0456624E11,5.56193E11,0E0,0E0,0E0,0E0,0E0,0E0,0E0,0E0],"parents":[2147483647,0,0,1,1,2,2,3,3,4,4,5,5,6,6],"right_children":[2,4,6,8,10,12,14,-1,-1,-1,-1,-1,-1,-1,-1],"split_conditions":[2.62032E5,1.388448E5,4.71872E5,1.196288E5,2.1388E5,3.60592E5,1.0728E5,-3.4287646E2,-1.6507732E2,2.8756462E1,7.650971E2,1.4164412E3,2.0747588E3,3.537023E3,1.3009254E3],"split_indices":[5,5,0,5,0,0,9,0,0,0,0,0,0,0,0],"split_type":[0,0,0,0,0,0,0,0,0,0,0,0,0,0,0],"sum_hessian":[1.0364E4,9.9E3,4.64E2,5.23E3,4.67E3,3.34E2,1.3E2,3.624E3,1.606E3,4.217E3,4.53E2,2.17E2,1.17E2,1.16E2,1.4E1],"tree_param":{"num_deleted":"0","num_feature":"10","num_nodes":"15","size_leaf_vector":"1"}},{"base_weights":[-3.0260107E2,-1.0295626E4,2.0697475E5,-2.823986E4,1.0674995E4,1.703449E5,3.0766306E5,-3.387011E2,-1.5710367E2,3.240665E1,7.480102E2,2.856006E3,1.5465315E3,3.4364746E3,5.6724994E2],"categories":[],"categories_nodes":[],"categories_segments":[],"categories_sizes":[],"default_left":[0,0,0,0,0,0,0,0,0,0,0,0,0,0,0],"id":16,"left_children":[1,3,5,7,9,11,13,-1,-1,-1,-1,-1,-1,-1,-1],"loss_changes":[2.14818E13,3.723431E12,1.7068615E12,3.7560962E11,2.175095E12,5.924465E11,1.1182675E12,0E0,0E0,0E0,0E0,0E0,0E0,0E0,0E0],"parents":[2147483647,0,0,1,1,2,2,3,3,4,4,5,5,6,6],"right_children":[2,4,6,8,10,12,14,-1,-1,-1,-1,-1,-1,-1,-1],"split_conditions":[2.62032E5,1.399936E5,4.508256E5,1.19976E5,1.946096E5,3.13504E5,1.0064E4,-3.387011E2,-1.5710367E2,3.240665E1,7.480102E2,2.856006E3,1.5465315E3,3.4364746E3,5.6724994E2],"split_indices":[5,5,5,5,5,2,9,0,0,0,0,0,0,0,0],"split_type":[0,0,0,0,0,0,0,0,0,0,0,0,0,0,0],"sum_hessian":[1.0369E4,9.893E3,4.76E2,5.331E3,4.562E3,3.51E2,1.25E2,3.677E3,1.654E3,4.089E3,4.73E2,4E1,3.11E2,1.09E2,1.6E1],"tree_param":{"num_deleted":"0","num_feature":"10","num_nodes":"15","size_leaf_vector":"1"}},{"base_weights":[1.01903786E2,-9.329984E3,2.1057722E5,-1.4201053E4,7.863886E4,1.6032233E5,3.3072888E5,-3.0948016E2,5.749701E0,7.0662256E2,2.971718E3,1.3058542E3,2.0953022E3,9.919035E2,3.5343455E3],"categories":[],"categories_nodes":[],"categories_segments":[],"categories_sizes":[],"default_left":[0,0,0,0,0,0,0,0,0,0,0,0,0,0,0],"id":17,"left_children":[1,3,5,7,9,11,13,-1,-1,-1,-1,-1,-1,-1,-1],"loss_changes":[2.0550559E13,4.2467173E12,2.6279412E12,2.3233587E12,8.854396E11,4.3357412E11,6.483838E11,0E0,0E0,0E0,0E0,0E0,0E0,0E0,0E0],"parents":[2147483647,0,0,1,1,2,2,3,3,4,4,5,5,6,6],"right_children":[2,4,6,8,10,12,14,-1,-1,-1,-1,-1,-1,-1,-1],"split_conditions":[3.13504E5,2.1388E5,4.71872E5,1.30608E5,2.10952E5,3.60592E5,-1.06112E5,-3.0948016E2,5.749701E0,7.0662256E2,2.971718E3,1.3058542E3,2.0953022E3,9.919035E2,3.5343455E3],"split_indices":[0,2,0,0,9,0,8,0,0,0,0,0,0,0,0],"split_type":[0,0,0,0,0,0,0,0,0,0,0,0,0,0,0],"sum_hessian":[1.035E4,9.907E3,4.43E2,9.388E3,5.19E2,3.14E2,1.29E2,4.4E3,4.988E3,5.02E2,1.7E1,1.98E2,1.16E2,1.2E1,1.17E2],"tree_param":{"num_deleted":"0","num_feature":"10","num_nodes":"15","size_leaf_vector":"1"}},{"base_weights":[-4.619651E1,-9.878392E3,2.0100117E5,-2.8003465E4,1.0044522E4,1.5828773E5,3.215049E5,-3.404985E2,-1.7369359E2,2.961063E1,7.414806E2,1.3734169E3,1.98539E3,3.4874434E3,1.2473544E3],"categories":[],"categories_nodes":[],"categories_segments":[],"categories_sizes":[],"default_left":[0,0,0,0,0,0,0,0,0,0,0,0,0,0,0],"id":18,"left_children":[1,3,5,7,9,11,13,-1,-1,-1,-1,-1,-1,-1,-1],"loss_changes":[2.0732025E13,3.6109626E12,2.4660557E12,3.360728E11,2.1629929E12,2.7877966E11,6.3720496E11,0E0,0E0,0E0,0E0,0E0,0E0,0E0,0E0],"parents":[2147483647,0,0,1,1,2,2,3,3,4,4,5,5,6,6],"right_children":[2,4,6,8,10,12,14,-1,-1,-1,-1,-1,-1,-1,-1],"split_conditions":[2.62032E5,1.388448E5,4.71872E5,1.170912E5,2.1388E5,3.60592E5,1.0728E5,-3.404985E2,-1.7369359E2,2.961063E1,7.414806E2,1.3734169E3,1.98539E3,3.4874434E3,1.2473544E3],"split_indices":[5,5,0,5,0,0,9,0,0,0,0,0,0,0,0],"split_type":[0,0,0,0,0,0,0,0,0,0,0,0,0,0,0],"sum_hessian":[1.0486E4,9.998E3,4.88E2,5.235E3,4.763E3,3.62E2,1.26E2,3.336E3,1.899E3,4.29E3,4.73E2,2.41E2,1.21E2,1.1E2,1.6E1],"tree_param":{"num_deleted":"0","num_feature":"10","num_nodes":"15","size_leaf_vector":"1"}},{"base_weights":[-1.3119176E2,-9.880792E3,1.946252E5,-2.6965674E4,1.0918411E4,1.5252892E5,3.1196916E5,-3.2615433E2,-1.4080913E2,3.5344845E1,7.329185E2,-4.084417E1,1.6699052E3,8.862295E2,3.3816072E3],"categories":[],"categories_nodes":[],"categories_segments":[],"categories_sizes":[],"default_left":[0,0,0,0,0,0,0,0,0,0,0,0,0,0,0],"id":19,"left_children":[1,3,5,7,9,11,13,-1,-1,-1,-1,-1,-1,-1,-1],"loss_changes":[1.975511E13,3.5211214E12,2.4025267E12,3.9554987E11,2.0579877E12,8.31893E11,7.305041E11,0E0,0E0,0E0,0E0,0E0,0E0,0E0,0E0],"parents":[2147483647,0,0,1,1,2,2,3,3,4,4,5,5,6,6],"right_children":[2,4,6,8,10,12,14,-1,-1,-1,-1,-1,-1,-1,-1],"split_conditions":[2.62032E5,1.41248E5,4.71872E5,1.212368E5,2.1388E5,-1.568E4,-1.06112E5,-3.2615433E2,-1.4080913E2,3.5344845E1,7.329185E2,-4.084417E1,1.6699052E3,8.862295E2,3.3816072E3],"split_indices":[5,5,0,5,0,8,8,0,0,0,0,0,0,0,0],"split_type":[0,0,0,0,0,0,0,0,0,0,0,0,0,0,0],"sum_hessian":[1.0402E4,9.907E3,4.95E2,5.439E3,4.468E3,3.66E2,1.29E2,3.78E3,1.659E3,3.996E3,4.72E2,3.1E1,3.35E2,1.4E1,1.15E2],"tree_param":{"num_deleted":"0","num_feature":"10","num_nodes":"15","size_leaf_vector":"1"}},{"base_weights":[1.5121587E2,-9.169714E3,1.9952639E5,-1.3836079E4,7.594591E4,1.5407045E5,3.1637656E5,-3.0583887E2,1.5469774E0,6.8273083E2,2.9714968E3,-1.5308896E2,1.6427081E3,7.974827E2,3.468123E3],"categories":[],"categories_nodes":[],"categories_segments":[],"categories_sizes":[],"default_left":[0,0,0,0,0,0,0,0,0,0,0,0,0,0,0],"id":20,"left_children":[1,3,5,7,9,11,13,-1,-1,-1,-1,-1,-1,-1,-1],"loss_changes":[1.9306495E13,3.9430673E12,2.415808E12,2.2049076E12,8.5549724E11,5.830329E11,9.013958E11,0E0,0E0,0E0,0E0,0E0,0E0,0E0,0E0],"parents":[2147483647,0,0,1,1,2,2,3,3,4,4,5,5,6,6],"right_children":[2,4,6,8,10,12,14,-1,-1,-1,-1,-1,-1,-1,-1],"split_conditions":[3.13504E5,2.1388E5,4.71872E5,1.2832E5,2.10952E5,-1.06112E5,-1.06112E5,-3.0583887E2,1.5469774E0,6.8273083E2,2.9714968E3,-1.5308896E2,1.6427081E3,7.974827E2,3.468123E3],"split_indices":[0,2,0,0,9,8,8,0,0,0,0,0,0,0,0],"split_type":[0,0,0,0,0,0,0,0,0,0,0,0,0,0,0],"sum_hessian":[1.0387E4,9.924E3,4.63E2,9.409E3,5.15E2,3.35E2,1.28E2,4.282E3,5.127E3,4.99E2,1.6E1,1.9E1,3.16E2,1.5E1,1.13E2],"tree_param":{"num_deleted":"0","num_feature":"10","num_nodes":"15","size_leaf_vector":"1"}},{"base_weights":[-1.1828173E2,-8.937533E3,1.9639148E5,-1.3629634E4,7.541217E4,1.5300302E5,3.1202484E5,-2.914407E2,1.15251E1,6.722241E2,2.8998037E3,4.3669075E1,1.6215795E3,9.4895905E2,3.3505833E3],"categories":[],"categories_nodes":[],"categories_segments":[],"categories_sizes":[],"default_left":[0,0,0,0,0,0,0,0,0,0,0,0,0,0,0],"id":21,"left_children":[1,3,5,7,9,11,13,-1,-1,-1,-1,-1,-1,-1,-1],"loss_changes":[1.8036073E13,3.9429695E12,2.1949265E12,2.1640543E12,9.0306956E11,4.4425806E11,5.73354E11,0E0,0E0,0E0,0E0,0E0,0E0,0E0,0E0],"parents":[2147483647,0,0,1,1,2,2,3,3,4,4,5,5,6,6],"right_children":[2,4,6,8,10,12,14,-1,-1,-1,-1,-1,-1,-1,-1],"split_conditions":[3.13504E5,2.1388E5,4.71872E5,1.3252E5,2.10952E5,-1.568E4,-1.06112E5,-2.914407E2,1.15251E1,6.722241E2,2.8998037E3,4.3669075E1,1.6215795E3,9.4895905E2,3.3505833E3],"split_indices":[0,2,0,0,9,8,8,0,0,0,0,0,0,0,0],"split_type":[0,0,0,0,0,0,0,0,0,0,0,0,0,0,0],"sum_hessian":[1.0405E4,9.959E3,4.46E2,9.435E3,5.24E2,3.26E2,1.2E2,4.603E3,4.832E3,5.06E2,1.8E1,1.9E1,3.07E2,1.2E1,1.08E2],"tree_param":{"num_deleted":"0","num_feature":"10","num_nodes":"15","size_leaf_vector":"1"}},{"base_weights":[5.03604E2,-9.334207E3,1.9648372E5,-1.3562914E4,7.10473E4,1.5453667E5,3.0833703E5,-2.926753E2,7.9699E0,-2.5764178E2,7.3516113E2,-2.1537799E2,1.6544312E3,7.911669E2,3.365655E3],"categories":[],"categories_nodes":[],"categories_segments":[],"categories_sizes":[],"default_left":[0,0,0,0,0,0,0,0,0,0,0,0,0,0,0],"id":22,"left_children":[1,3,5,7,9,11,13,-1,-1,-1,-1,-1,-1,-1,-1],"loss_changes":[1.9966433E13,3.352814E12,2.27485E12,2.1128903E12,1.19726146E11,6.987291E11,8.404253E11,0E0,0E0,0E0,0E0,0E0,0E0,0E0,0E0],"parents":[2147483647,0,0,1,1,2,2,3,3,4,4,5,5,6,6],"right_children":[2,4,6,8,10,12,14,-1,-1,-1,-1,-1,-1,-1,-1],"split_conditions":[2.62032E5,1.946096E5,4.71872E5,1.317904E5,-1.568E4,-1.06112E5,-1.06112E5,-2.926753E2,7.9699E0,-2.5764178E2,7.3516113E2,-2.1537799E2,1.6544312E3,7.911669E2,3.365655E3],"split_indices":[5,5,0,5,8,8,8,0,0,0,0,0,0,0,0],"split_type":[0,0,0,0,0,0,0,0,0,0,0,0,0,0,0],"sum_hessian":[1.0354E4,9.86E3,4.94E2,9.368E3,4.92E2,3.61E2,1.33E2,4.474E3,4.894E3,1.2E1,4.8E2,2.1E1,3.4E2,1.5E1,1.18E2],"tree_param":{"num_deleted":"0","num_feature":"10","num_nodes":"15","size_leaf_vector":"1"}},{"base_weights":[-3.0138293E2,-9.608397E3,1.8956616E5,-2.599621E4,1.0465707E4,1.4890877E5,3.024341E5,-3.2191367E2,-1.497325E2,3.4758358E1,7.0313715E2,-1.5105765E1,1.6209205E3,8.291677E2,3.3305337E3],"categories":[],"categories_nodes":[],"categories_segments":[],"categories_sizes":[],"default_left":[0,0,0,0,0,0,0,0,0,0,0,0,0,0,0],"id":23,"left_children":[1,3,5,7,9,11,13,-1,-1,-1,-1,-1,-1,-1,-1],"loss_changes":[1.8416772E13,3.2685965E12,2.1897664E12,3.7305844E11,1.868017E12,7.1413373E11,8.327319E11,0E0,0E0,0E0,0E0,0E0,0E0,0E0,0E0],"parents":[2147483647,0,0,1,1,2,2,3,3,4,4,5,5,6,6],"right_children":[2,4,6,8,10,12,14,-1,-1,-1,-1,-1,-1,-1,-1],"split_conditions":[2.62032E5,1.41248E5,4.71872E5,1.180752E5,2.1388E5,-1.568E4,-1.06112E5,-3.2191367E2,-1.497325E2,3.4758358E1,7.0313715E2,-1.5105765E1,1.6209205E3,8.291677E2,3.3305337E3],"split_indices":[5,5,0,5,0,8,8,0,0,0,0,0,0,0,0],"split_type":[0,0,0,0,0,0,0,0,0,0,0,0,0,0,0],"sum_hessian":[1.042E4,9.934E3,4.86E2,5.469E3,4.465E3,3.59E2,1.27E2,3.5E3,1.969E3,3.999E3,4.66E2,2.9E1,3.3E2,1.6E1,1.11E2],"tree_param":{"num_deleted":"0","num_feature":"10","num_nodes":"15","size_leaf_vector":"1"}},{"base_weights":[1.6756247E2,-9.149904E3,1.9395484E5,-2.5291234E4,1.0999516E4,1.5192675E5,3.107543E5,-3.1049655E2,-1.3128223E2,3.653675E1,6.9668835E2,-5.065163E1,1.6446312E3,1.1714595E3,3.2840825E3],"categories":[],"categories_nodes":[],"categories_segments":[],"categories_sizes":[],"default_left":[0,0,0,0,0,0,0,0,0,0,0,0,0,0,0],"id":24,"left_children":[1,3,5,7,9,11,13,-1,-1,-1,-1,-1,-1,-1,-1],"loss_changes":[1.8734943E13,3.2201386E12,2.2894063E12,3.846009E11,1.8977615E12,6.936068E11,3.8877004E11,0E0,0E0,0E0,0E0,0E0,0E0,0E0,0E0],"parents":[2147483647,0,0,1,1,2,2,3,3,4,4,5,5,6,6],"right_children":[2,4,6,8,10,12,14,-1,-1,-1,-1,-1,-1,-1,-1],"split_conditions":[2.62032E5,1.41896E5,4.71872E5,1.212368E5,2.1388E5,-1.568E4,-1.06112E5,-3.1049655E2,-1.3128223E2,3.653675E1,6.9668835E2,-5.065163E1,1.6446312E3,1.1714595E3,3.2840825E3],"split_indices":[5,5,0,5,0,8,8,0,0,0,0,0,0,0,0],"split_type":[0,0,0,0,0,0,0,0,0,0,0,0,0,0,0],"sum_hessian":[1.0374E4,9.899E3,4.75E2,5.496E3,4.403E3,3.51E2,1.24E2,3.729E3,1.767E3,3.914E3,4.89E2,2.6E1,3.25E2,1.1E1,1.13E2],"tree_param":{"num_deleted":"0","num_feature":"10","num_nodes":"15","size_leaf_vector":"1"}},{"base_weights":[-5.377377E1,-9.123786E3,1.860886E5,-2.49638E4,1.0799408E4,1.4741573E5,2.977645E5,-3.0727655E2,-1.2945027E2,3.6700977E1,6.9850116E2,-3.301354E1,1.5964595E3,9.116758E2,3.213517E3],"categories":[],"categories_nodes":[],"categories_segments":[],"categories_sizes":[],"default_left":[0,0,0,0,0,0,0,0,0,0,0,0,0,0,0],"id":25,"left_children":[1,3,5,7,9,11,13,-1,-1,-1,-1,-1,-1,-1,-1],"loss_changes":[1.7514575E13,3.1220234E12,2.0377785E12,3.8137443E11,1.8445257E12,6.6411613E11,5.7008665E11,0E0,0E0,0E0,0E0,0E0,0E0,0E0,0E0],"parents":[2147483647,0,0,1,1,2,2,3,3,4,4,5,5,6,6],"right_children":[2,4,6,8,10,12,14,-1,-1,-1,-1,-1,-1,-1,-1],"split_conditions":[2.62032E5,1.42176E5,4.71872E5,1.212368E5,2.1388E5,-1.568E4,-1.06112E5,-3.0727655E2,-1.2945027E2,3.6700977E1,6.9850116E2,-3.301354E1,1.5964595E3,9.116758E2,3.213517E3],"split_indices":[5,5,0,5,0,8,8,0,0,0,0,0,0,0,0],"split_type":[0,0,0,0,0,0,0,0,0,0,0,0,0,0,0],"sum_hessian":[1.0372E4,9.891E3,4.81E2,5.51E3,4.381E3,3.59E2,1.22E2,3.723E3,1.787E3,3.91E3,4.71E2,2.7E1,3.32E2,1.3E1,1.09E2],"tree_param":{"num_deleted":"0","num_feature":"10","num_nodes":"15","size_leaf_vector":"1"}},{"base_weights":[-5.1431103E1,-8.663479E3,1.8786167E5,-1.2956657E4,7.282932E4,1.445728E5,3.009877E5,-2.881069E2,2.421574E0,6.4496106E2,2.7908083E3,2.43125E1,1.5468505E3,8.8135547E2,3.249068E3],"categories":[],"categories_nodes":[],"categories_segments":[],"categories_sizes":[],"default_left":[0,0,0,0,0,0,0,0,0,0,0,0,0,0,0],"id":26,"left_children":[1,3,5,7,9,11,13,-1,-1,-1,-1,-1,-1,-1,-1],"loss_changes":[1.680299E13,3.4743845E12,2.1846651E12,1.9736952E12,8.3621315E11,4.7539343E11,6.077683E11,0E0,0E0,0E0,0E0,0E0,0E0,0E0,0E0],"parents":[2147483647,0,0,1,1,2,2,3,3,4,4,5,5,6,6],"right_children":[2,4,6,8,10,12,14,-1,-1,-1,-1,-1,-1,-1,-1],"split_conditions":[3.13504E5,2.1388E5,4.71872E5,1.2832E5,2.10952E5,-1.568E4,-1.06112E5,-2.881069E2,2.421574E0,6.4496106E2,2.7908083E3,2.43125E1,1.5468505E3,8.8135547E2,3.249068E3],"split_indices":[0,2,0,0,9,8,8,0,0,0,0,0,0,0,0],"split_type":[0,0,0,0,0,0,0,0,0,0,0,0,0,0,0],"sum_hessian":[1.0381E4,9.927E3,4.54E2,9.431E3,4.96E2,3.3E2,1.24E2,4.284E3,5.147E3,4.78E2,1.8E1,2.2E1,3.08E2,1.3E1,1.11E2],"tree_param":{"num_deleted":"0","num_feature":"10","num_nodes":"15","size_leaf_vector":"1"}},{"base_weights":[5.33725E1,-9.116554E3,1.8499248E5,-2.436865E4,1.0779594E4,1.4265094E5,3.012317E5,-3.0308615E2,-1.2789438E2,3.8051277E1,6.7690265E2,-1.8844923E1,1.5470117E3,8.5981836E2,3.202464E3],"categories":[],"categories_nodes":[],"categories_segments":[],"categories_sizes":[],"default_left":[0,0,0,0,0,0,0,0,0,0,0,0,0,0,0],"id":27,"left_children":[1,3,5,7,9,11,13,-1,-1,-1,-1,-1,-1,-1,-1],"loss_changes":[1.7733788E13,3.0236145E12,2.388374E12,3.8753246E11,1.7160313E12,6.342653E11,5.086359E11,0E0,0E0,0E0,0E0,0E0,0E0,0E0,0E0],"parents":[2147483647,0,0,1,1,2,2,3,3,4,4,5,5,6,6],"right_children":[2,4,6,8,10,12,14,-1,-1,-1,-1,-1,-1,-1,-1],"split_conditions":[2.62032E5,1.424608E5,4.71872E5,1.204144E5,2.1388E5,-1.568E4,-1.06112E5,-3.0308615E2,-1.2789438E2,3.8051277E1,6.7690265E2,-1.8844923E1,1.5470117E3,8.5981836E2,3.202464E3],"split_indices":[5,5,0,5,0,8,8,0,0,0,0,0,0,0,0],"split_type":[0,0,0,0,0,0,0,0,0,0,0,0,0,0,0],"sum_hessian":[1.0455E4,9.962E3,4.93E2,5.639E3,4.323E3,3.63E2,1.3E2,3.726E3,1.913E3,3.852E3,4.71E2,2.8E1,3.35E2,1.1E1,1.19E2],"tree_param":{"num_deleted":"0","num_feature":"10","num_nodes":"15","size_leaf_vector":"1"}},{"base_weights":[1.2264269E2,-1.2344528E4,1.2677824E5,-2.7527041E4,1.7529408E3,8.506901E4,2.4633783E5,-3.175979E2,-1.9606963E2,9.357733E0,2.5113481E3,8.2608856E2,3.1365942E3,5.453712E2,2.6448064E3],"categories":[],"categories_nodes":[],"categories_segments":[],"categories_sizes":[],"default_left":[0,0,0,0,0,0,0,0,0,0,0,0,0,0,0],"id":28,"left_children":[1,3,5,7,9,11,13,-1,-1,-1,-1,-1,-1,-1,-1],"loss_changes":[1.6387231E13,2.022251E12,4.6167124E12,1.5187653E11,9.9832024E11,3.626846E11,8.207288E11,0E0,0E0,0E0,0E0,0E0,0E0,0E0,0E0],"parents":[2147483647,0,0,1,1,2,2,3,3,4,4,5,5,6,6],"right_children":[2,4,6,8,10,12,14,-1,-1,-1,-1,-1,-1,-1,-1],"split_conditions":[2.37552E5,1.3208E5,3.92688E5,1.13864E5,2.10952E5,8.3808E4,-1.06112E5,-3.175979E2,-1.9606963E2,9.357733E0,2.5113481E3,8.2608856E2,3.1365942E3,5.453712E2,2.6448064E3],"split_indices":[0,2,0,0,9,8,8,0,0,0,0,0,0,0,0],"split_type":[0,0,0,0,0,0,0,0,0,0,0,0,0,0,0],"sum_hessian":[1.0376E4,9.447E3,9.29E2,4.548E3,4.899E3,6.9E2,2.39E2,2.962E3,1.586E3,4.884E3,1.5E1,6.84E2,6E0,2.1E1,2.18E2],"tree_param":{"num_deleted":"0","num_feature":"10","num_nodes":"15","size_leaf_vector":"1"}},{"base_weights":[-3.130693E2,-9.053334E3,1.8055084E5,-2.4044639E4,1.0501585E4,1.2373583E5,2.3166672E5,-3.042843E2,-1.394572E2,3.590009E1,6.539877E2,-2.3595657E2,1.3491376E3,3.8428546E2,2.519279E3],"categories":[],"categories_nodes":[],"categories_segments":[],"categories_sizes":[],"default_left":[0,0,0,0,0,0,0,0,0,0,0,0,0,0,0],"id":29,"left_children":[1,3,5,7,9,11,13,-1,-1,-1,-1,-1,-1,-1,-1],"loss_changes":[1.642613E13,2.9059923E12,1.3624221E12,3.613136E11,1.6320562E12,3.8031432E11,9.730429E11,0E0,0E0,0E0,0E0,0E0,0E0,0E0,0E0],"parents":[2147483647,0,0,1,1,2,2,3,3,4,4,5,5,6,6],"right_children":[2,4,6,8,10,12,14,-1,-1,-1,-1,-1,-1,-1,-1],"split_conditions":[2.62032E5,1.42176E5,3.615184E5,1.177392E5,1.946096E5,-1.06112E5,-1.06112E5,-3.042843E2,-1.394572E2,3.590009E1,6.539877E2,-2.3595657E2,1.3491376E3,3.8428546E2,2.519279E3],"split_indices":[5,5,5,5,5,8,8,0,0,0,0,0,0,0,0],"split_type":[0,0,0,0,0,0,0,0,0,0,0,0,0,0,0],"sum_hessian":[1.0389E4,9.911E3,4.78E2,5.61E3,4.301E3,2.28E2,2.5E2,3.436E3,2.174E3,3.821E3,4.8E2,1.6E1,2.12E2,2.4E1,2.26E2],"tree_param":{"num_deleted":"0","num_feature":"10","num_nodes":"15","size_leaf_vector":"1"}},{"base_weights":[-4.966509E2,-8.817156E3,1.7645262E5,-2.330307E4,1.11112705E4,1.4079817E5,2.8251734E5,-2.9315198E2,-1.1850192E2,4.075045E1,6.549092E2,-1.6292332E1,1.5307384E3,8.881156E2,3.058766E3],"categories":[],"categories_nodes":[],"categories_segments":[],"categories_sizes":[],"default_left":[0,0,0,0,0,0,0,0,0,0,0,0,0,0,0],"id":30,"left_children":[1,3,5,7,9,11,13,-1,-1,-1,-1,-1,-1,-1,-1],"loss_changes":[1.5375389E13,2.879568E12,1.7338309E12,3.9736574E11,1.6063859E12,6.1743196E11,5.0223854E11,0E0,0E0,0E0,0E0,0E0,0E0,0E0,0E0],"parents":[2147483647,0,0,1,1,2,2,3,3,4,4,5,5,6,6],"right_children":[2,4,6,8,10,12,14,-1,-1,-1,-1,-1,-1,-1,-1],"split_conditions":[2.62032E5,1.435488E5,4.71872E5,1.212368E5,2.1388E5,-1.568E4,-1.06112E5,-2.9315198E2,-1.1850192E2,4.075045E1,6.549092E2,-1.6292332E1,1.5307384E3,8.881156E2,3.058766E3],"split_indices":[5,5,0,5,0,8,8,0,0,0,0,0,0,0,0],"split_type":[0,0,0,0,0,0,0,0,0,0,0,0,0,0,0],"sum_hessian":[1.0441E4,9.973E3,4.68E2,5.775E3,4.198E3,3.52E2,1.16E2,3.786E3,1.989E3,3.718E3,4.8E2,2.8E1,3.24E2,1.3E1,1.03E2],"tree_param":{"num_deleted":"0","num_feature":"10","num_nodes":"15","size_leaf_vector":"1"}},{"base_weights":[-3.0559344E2,-8.757364E3,1.7402597E5,-2.3980877E4,9.853754E3,1.3680562E5,2.8516728E5,-3.024231E2,-1.472668E2,3.283821E1,6.489932E2,-7.485761E1,1.4888815E3,7.9902277E2,3.1152393E3],"categories":[],"categories_nodes":[],"categories_segments":[],"categories_sizes":[],"default_left":[0,0,0,0,0,0,0,0,0,0,0,0,0,0,0],"id":31,"left_children":[1,3,5,7,9,11,13,-1,-1,-1,-1,-1,-1,-1,-1],"loss_changes":[1.5358882E13,2.8170692E12,1.9548854E12,3.1645316E11,1.6177896E12,6.339696E11,6.2432005E11,0E0,0E0,0E0,0E0,0E0,0E0,0E0,0E0],"parents":[2147483647,0,0,1,1,2,2,3,3,4,4,5,5,6,6],"right_children":[2,4,6,8,10,12,14,-1,-1,-1,-1,-1,-1,-1,-1],"split_conditions":[2.62032E5,1.41248E5,4.71872E5,1.163696E5,2.1388E5,-1.568E4,-1.06112E5,-3.024231E2,-1.472668E2,3.283821E1,6.489932E2,-7.485761E1,1.4888815E3,7.9902277E2,3.1152393E3],"split_indices":[5,5,0,5,0,8,8,0,0,0,0,0,0,0,0],"split_type":[0,0,0,0,0,0,0,0,0,0,0,0,0,0,0],"sum_hessian":[1.0422E4,9.941E3,4.81E2,5.468E3,4.473E3,3.62E2,1.19E2,3.26E3,2.208E3,3.997E3,4.76E2,2.8E1,3.34E2,1.4E1,1.05E2],"tree_param":{"num_deleted":"0","num_feature":"10","num_nodes":"15","size_leaf_vector":"1"}},{"base_weights":[2.3367119E2,-1.1706542E4,1.2082446E5,-2.65094E4,1.4565321E3,8.0064766E4,2.3575942E5,-3.0766156E2,-1.9272063E2,6.4613223E0,2.5355178E3,7.762822E2,3.070591E3,1.9152455E3,3.0552222E3],"categories":[],"categories_nodes":[],"categories_segments":[],"categories_sizes":[],"default_left":[0,0,0,0,0,0,0,0,0,0,0,0,0,0,0],"id":32,"left_children":[1,3,5,7,9,11,13,-1,-1,-1,-1,-1,-1,-1,-1],"loss_changes":[1.4927207E13,1.8380692E12,4.3566477E12,1.3619272E11,1.0201002E12,3.583414E11,6.9445825E11,0E0,0E0,0E0,0E0,0E0,0E0,0E0,0E0],"parents":[2147483647,0,0,1,1,2,2,3,3,4,4,5,5,6,6],"right_children":[2,4,6,8,10,12,14,-1,-1,-1,-1,-1,-1,-1,-1],"split_conditions":[2.37552E5,1.31224E5,3.60592E5,1.13032E5,2.10952E5,8.3808E4,5.60752E5,-3.0766156E2,-1.9272063E2,6.4613223E0,2.5355178E3,7.762822E2,3.070591E3,1.9152455E3,3.0552222E3],"split_indices":[0,3,0,1,9,8,0,0,0,0,0,0,0,0,0],"split_type":[0,0,0,0,0,0,0,0,0,0,0,0,0,0,0],"sum_hessian":[1.0365E4,9.432E3,9.33E2,4.439E3,4.993E3,6.9E2,2.43E2,2.793E3,1.646E3,4.978E3,1.5E1,6.84E2,6E0,1.51E2,9.2E1],"tree_param":{"num_deleted":"0","num_feature":"10","num_nodes":"15","size_leaf_vector":"1"}},{"base_weights":[2.6079517E2,-8.547236E3,1.7555077E5,-2.2524104E4,1.0903266E4,1.350675E5,2.850271E5,-2.8343155E2,-1.12053604E2,4.021391E1,6.2708075E2,-7.812001E1,1.4792439E3,1.0151737E3,3.0406133E3],"categories":[],"categories_nodes":[],"categories_segments":[],"categories_sizes":[],"default_left":[0,0,0,0,0,0,0,0,0,0,0,0,0,0,0],"id":33,"left_children":[1,3,5,7,9,11,13,-1,-1,-1,-1,-1,-1,-1,-1],"loss_changes":[1.6006187E13,2.683747E12,2.1597541E12,3.7800745E11,1.4714387E12,6.6981777E11,4.3369733E11,0E0,0E0,0E0,0E0,0E0,0E0,0E0,0E0],"parents":[2147483647,0,0,1,1,2,2,3,3,4,4,5,5,6,6],"right_children":[2,4,6,8,10,12,14,-1,-1,-1,-1,-1,-1,-1,-1],"split_conditions":[2.62032E5,1.437984E5,4.71872E5,1.216784E5,1.946096E5,-1.568E4,-1.06112E5,-2.8343155E2,-1.12053604E2,4.021391E1,6.2708075E2,-7.812001E1,1.4792439E3,1.0151737E3,3.0406133E3],"split_indices":[5,5,0,5,5,8,8,0,0,0,0,0,0,0,0],"split_type":[0,0,0,0,0,0,0,0,0,0,0,0,0,0,0],"sum_hessian":[1.0365E4,9.87E3,4.95E2,5.743E3,4.127E3,3.63E2,1.32E2,3.792E3,1.951E3,3.644E3,4.83E2,3E1,3.33E2,1.3E1,1.19E2],"tree_param":{"num_deleted":"0","num_feature":"10","num_nodes":"15","size_leaf_vector":"1"}},{"base_weights":[2.154763E2,-8.353241E3,1.7391669E5,-2.2293129E4,1.1046206E4,1.3758342E5,2.7132684E5,-2.8110986E2,-1.1327731E2,4.2401585E1,6.338927E2,-1.8511263E2,1.4842032E3,8.031192E2,2.953347E3],"categories":[],"categories_nodes":[],"categories_segments":[],"categories_sizes":[],"default_left":[0,0,0,0,0,0,0,0,0,0,0,0,0,0,0],"id":34,"left_children":[1,3,5,7,9,11,13,-1,-1,-1,-1,-1,-1,-1,-1],"loss_changes":[1.5387008E13,2.6644843E12,1.6827348E12,3.6541877E11,1.4674787E12,6.049513E11,5.770293E11,0E0,0E0,0E0,0E0,0E0,0E0,0E0,0E0],"parents":[2147483647,0,0,1,1,2,2,3,3,4,4,5,5,6,6],"right_children":[2,4,6,8,10,12,14,-1,-1,-1,-1,-1,-1,-1,-1],"split_conditions":[2.62032E5,1.437984E5,4.71872E5,1.212368E5,2.37552E5,-1.06112E5,-1.06112E5,-2.8110986E2,-1.1327731E2,4.2401585E1,6.338927E2,-1.8511263E2,1.4842032E3,8.031192E2,2.953347E3],"split_indices":[5,5,0,5,0,8,8,0,0,0,0,0,0,0,0],"split_type":[0,0,0,0,0,0,0,0,0,0,0,0,0,0,0],"sum_hessian":[1.0336E4,9.851E3,4.85E2,5.732E3,4.119E3,3.55E2,1.3E2,3.744E3,1.988E3,3.646E3,4.73E2,2.3E1,3.32E2,1.5E1,1.15E2],"tree_param":{"num_deleted":"0","num_feature":"10","num_nodes":"15","size_leaf_vector":"1"}},{"base_weights":[-2.538707E2,-8.422216E3,1.6849725E5,-2.2295383E4,1.0295666E4,1.3030177E5,2.737104E5,-2.8988385E2,-1.3190892E2,3.7873596E1,6.210751E2,1.0798344E3,1.7459075E3,2.9868E3,1.0452506E3],"categories":[],"categories_nodes":[],"categories_segments":[],"categories_sizes":[],"default_left":[0,0,0,0,0,0,0,0,0,0,0,0,0,0,0],"id":35,"left_children":[1,3,5,7,9,11,13,-1,-1,-1,-1,-1,-1,-1,-1],"loss_changes":[1.4449991E13,2.596733E12,1.9093688E12,3.495753E11,1.4352564E12,3.3402598E11,5.095146E11,0E0,0E0,0E0,0E0,0E0,0E0,0E0,0E0],"parents":[2147483647,0,0,1,1,2,2,3,3,4,4,5,5,6,6],"right_children":[2,4,6,8,10,12,14,-1,-1,-1,-1,-1,-1,-1,-1],"split_conditions":[2.62032E5,1.433168E5,4.71872E5,1.167584E5,1.946096E5,3.60592E5,1.0728E5,-2.8988385E2,-1.3190892E2,3.7873596E1,6.210751E2,1.0798344E3,1.7459075E3,2.9868E3,1.0452506E3],"split_indices":[5,5,0,5,5,0,9,0,0,0,0,0,0,0,0],"split_type":[0,0,0,0,0,0,0,0,0,0,0,0,0,0,0],"sum_hessian":[1.0481E4,9.998E3,4.83E2,5.742E3,4.256E3,3.56E2,1.27E2,3.308E3,2.434E3,3.782E3,4.74E2,2.39E2,1.17E2,1.1E2,1.7E1],"tree_param":{"num_deleted":"0","num_feature":"10","num_nodes":"15","size_leaf_vector":"1"}},{"base_weights":[1.1302996E2,-8.1791255E3,1.6699873E5,-2.1867064E4,1.0535989E4,1.311592E5,2.65035E5,-2.7495584E2,-1.1007053E2,3.7940125E1,6.193922E2,1.0819006E3,1.7564585E3,2.0545186E3,2.8989563E3],"categories":[],"categories_nodes":[],"categories_segments":[],"categories_sizes":[],"default_left":[0,0,0,0,0,0,0,0,0,0,0,0,0,0,0],"id":36,"left_children":[1,3,5,7,9,11,13,-1,-1,-1,-1,-1,-1,-1,-1],"loss_changes":[1.4412698E13,2.5419627E12,1.6974296E12,3.5000916E11,1.4525421E12,3.519173E11,1.3448721E11,0E0,0E0,0E0,0E0,0E0,0E0,0E0,0E0],"parents":[2147483647,0,0,1,1,2,2,3,3,4,4,5,5,6,6],"right_children":[2,4,6,8,10,12,14,-1,-1,-1,-1,-1,-1,-1,-1],"split_conditions":[2.62032E5,1.435488E5,4.71872E5,1.216784E5,2.1388E5,3.60592E5,5.60752E5,-2.7495584E2,-1.1007053E2,3.7940125E1,6.193922E2,1.0819006E3,1.7564585E3,2.0545186E3,2.8989563E3],"split_indices":[5,5,0,5,0,0,0,0,0,0,0,0,0,0,0],"split_type":[0,0,0,0,0,0,0,0,0,0,0,0,0,0,0],"sum_hessian":[1.0413E4,9.921E3,4.92E2,5.73E3,4.191E3,3.62E2,1.3E2,3.773E3,1.957E3,3.706E3,4.85E2,2.41E2,1.21E2,4.1E1,8.9E1],"tree_param":{"num_deleted":"0","num_feature":"10","num_nodes":"15","size_leaf_vector":"1"}},{"base_weights":[7.389461E1,-7.77081E3,1.6805164E5,-1.1639343E4,6.2744094E4,1.3106946E5,2.6759462E5,-2.4969151E2,1.0830873E1,5.622063E2,2.6390393E3,-1.3930045E2,1.401471E3,5.391593E2,2.8980903E3],"categories":[],"categories_nodes":[],"categories_segments":[],"categories_sizes":[],"default_left":[0,0,0,0,0,0,0,0,0,0,0,0,0,0,0],"id":37,"left_children":[1,3,5,7,9,11,13,-1,-1,-1,-1,-1,-1,-1,-1],"loss_changes":[1.3733432E13,2.716893E12,1.676738E12,1.6009337E12,6.649133E11,4.5079383E11,5.777182E11,0E0,0E0,0E0,0E0,0E0,0E0,0E0,0E0],"parents":[2147483647,0,0,1,1,2,2,3,3,4,4,5,5,6,6],"right_children":[2,4,6,8,10,12,14,-1,-1,-1,-1,-1,-1,-1,-1],"split_conditions":[3.13504E5,2.1388E5,4.71872E5,1.3252E5,2.10952E5,-1.06112E5,-1.06112E5,-2.4969151E2,1.0830873E1,5.622063E2,2.6390393E3,-1.3930045E2,1.401471E3,5.391593E2,2.8980903E3],"split_indices":[0,2,0,0,9,8,8,0,0,0,0,0,0,0,0],"split_type":[0,0,0,0,0,0,0,0,0,0,0,0,0,0,0],"sum_hessian":[1.042E4,9.956E3,4.64E2,9.439E3,5.17E2,3.4E2,1.24E2,4.609E3,4.83E3,5.02E2,1.5E1,2E1,3.2E2,1.2E1,1.12E2],"tree_param":{"num_deleted":"0","num_feature":"10","num_nodes":"15","size_leaf_vector":"1"}},{"base_weights":[-1.1519498E2,-7.6981416E3,1.6696153E5,-1.1431992E4,6.222513E4,1.2912369E5,2.6712028E5,-2.4727411E2,1.1648708E1,5.4216455E2,2.7589224E3,1.0298418E3,1.7284528E3,2.3482193E2,2.8847336E3],"categories":[],"categories_nodes":[],"categories_segments":[],"categories_sizes":[],"default_left":[0,0,0,0,0,0,0,0,0,0,0,0,0,0,0],"id":38,"left_children":[1,3,5,7,9,11,13,-1,-1,-1,-1,-1,-1,-1,-1],"loss_changes":[1.3190067E13,2.600837E12,1.6784934E12,1.5835576E12,8.4919334E11,3.5934385E11,6.3312495E11,0E0,0E0,0E0,0E0,0E0,0E0,0E0,0E0],"parents":[2147483647,0,0,1,1,2,2,3,3,4,4,5,5,6,6],"right_children":[2,4,6,8,10,12,14,-1,-1,-1,-1,-1,-1,-1,-1],"split_conditions":[3.13504E5,2.1388E5,4.71872E5,1.3252E5,2.10952E5,3.60592E5,-1.06112E5,-2.4727411E2,1.1648708E1,5.4216455E2,2.7589224E3,1.0298418E3,1.7284528E3,2.3482193E2,2.8847336E3],"split_indices":[0,3,0,0,9,0,8,0,0,0,0,0,0,0,0],"split_type":[0,0,0,0,0,0,0,0,0,0,0,0,0,0,0],"sum_hessian":[1.0409E4,9.958E3,4.51E2,9.454E3,5.04E2,3.29E2,1.22E2,4.599E3,4.855E3,4.87E2,1.7E1,2.08E2,1.21E2,1E1,1.12E2],"tree_param":{"num_deleted":"0","num_feature":"10","num_nodes":"15","size_leaf_vector":"1"}},{"base_weights":[-1.5749692E2,-8.17076E3,1.6269622E5,-2.1264258E4,1.0538572E4,1.2965785E5,2.6379238E5,-2.7831195E2,-1.2308946E2,4.286738E1,6.11913E2,-1.2166598E2,1.4189844E3,6.8379474E2,2.8944045E3],"categories":[],"categories_nodes":[],"categories_segments":[],"categories_sizes":[],"default_left":[0,0,0,0,0,0,0,0,0,0,0,0,0,0,0],"id":39,"left_children":[1,3,5,7,9,11,13,-1,-1,-1,-1,-1,-1,-1,-1],"loss_changes":[1.3440112E13,2.4048556E12,1.5790433E12,3.3927882E11,1.2797279E12,6.371069E11,5.716202E11,0E0,0E0,0E0,0E0,0E0,0E0,0E0,0E0],"parents":[2147483647,0,0,1,1,2,2,3,3,4,4,5,5,6,6],"right_children":[2,4,6,8,10,12,14,-1,-1,-1,-1,-1,-1,-1,-1],"split_conditions":[2.62032E5,1.440336E5,4.71872E5,1.170912E5,2.24456E5,-1.568E4,-1.06112E5,-2.7831195E2,-1.2308946E2,4.286738E1,6.11913E2,-1.2166598E2,1.4189844E3,6.8379474E2,2.8944045E3],"split_indices":[5,5,0,5,5,8,8,0,0,0,0,0,0,0,0],"split_type":[0,0,0,0,0,0,0,0,0,0,0,0,0,0,0],"sum_hessian":[1.0297E4,9.815E3,4.82E2,5.774E3,4.041E3,3.65E2,1.17E2,3.33E3,2.444E3,3.598E3,4.43E2,2.9E1,3.36E2,1.4E1,1.03E2],"tree_param":{"num_deleted":"0","num_feature":"10","num_nodes":"15","size_leaf_vector":"1"}},{"base_weights":[-4.3679367E1,-7.9552065E3,1.603873E5,-2.103082E4,1.0330442E4,1.0902245E5,2.0826208E5,-2.6932468E2,-1.1274397E2,3.884103E1,5.894966E2,-1.537072E2,1.2113134E3,2.3008955E3,1.027425E3],"categories":[],"categories_nodes":[],"categories_segments":[],"categories_sizes":[],"default_left":[0,0,0,0,0,0,0,0,0,0,0,0,0,0,0],"id":40,"left_children":[1,3,5,7,9,11,13,-1,-1,-1,-1,-1,-1,-1,-1],"loss_changes":[1.3206593E13,2.371094E12,1.1797854E12,3.32618E11,1.2957462E12,3.6035232E11,5.567729E11,0E0,0E0,0E0,0E0,0E0,0E0,0E0,0E0],"parents":[2147483647,0,0,1,1,2,2,3,3,4,4,5,5,6,6],"right_children":[2,4,6,8,10,12,14,-1,-1,-1,-1,-1,-1,-1,-1],"split_conditions":[2.62032E5,1.437984E5,3.615184E5,1.196288E5,1.946096E5,-1.568E4,1.0064E4,-2.6932468E2,-1.1274397E2,3.884103E1,5.894966E2,-1.537072E2,1.2113134E3,2.3008955E3,1.027425E3],"split_indices":[5,5,5,5,5,8,9,0,0,0,0,0,0,0,0],"split_type":[0,0,0,0,0,0,0,0,0,0,0,0,0,0,0],"sum_hessian":[1.0403E4,9.915E3,4.88E2,5.781E3,4.134E3,2.37E2,2.51E2,3.601E3,2.18E3,3.651E3,4.83E2,2.1E1,2.16E2,2.07E2,4.4E1],"tree_param":{"num_deleted":"0","num_feature":"10","num_nodes":"15","size_leaf_vector":"1"}},{"base_weights":[1.95124E2,-1.0612882E4,1.08058586E5,-2.483047E4,9.8505853E2,7.298763E4,2.1135989E5,-2.8631757E2,-1.8721597E2,3.3274462E0,2.4338906E3,7.068424E2,2.9421624E3,3.3683792E2,2.2824353E3],"categories":[],"categories_nodes":[],"categories_segments":[],"categories_sizes":[],"default_left":[0,0,0,0,0,0,0,0,0,0,0,0,0,0,0],"id":41,"left_children":[1,3,5,7,9,11,13,-1,-1,-1,-1,-1,-1,-1,-1],"loss_changes":[1.2147501E13,1.5617427E12,3.422682E12,9.8271494E10,8.2484933E11,3.4100242E11,7.122683E11,0E0,0E0,0E0,0E0,0E0,0E0,0E0,0E0],"parents":[2147483647,0,0,1,1,2,2,3,3,4,4,5,5,6,6],"right_children":[2,4,6,8,10,12,14,-1,-1,-1,-1,-1,-1,-1,-1],"split_conditions":[2.37552E5,1.28864E5,3.60592E5,1.1196E5,2.10952E5,8.3808E4,-1.06112E5,-2.8631757E2,-1.8721597E2,3.3274462E0,2.4338906E3,7.068424E2,2.9421624E3,3.3683792E2,2.2824353E3],"split_indices":[0,2,0,3,9,8,8,0,0,0,0,0,0,0,0],"split_type":[0,0,0,0,0,0,0,0,0,0,0,0,0,0,0],"sum_hessian":[1.0418E4,9.47E3,9.48E2,4.254E3,5.216E3,7.09E2,2.39E2,2.62E3,1.634E3,5.203E3,1.3E1,7.03E2,6E0,2.1E1,2.18E2],"tree_param":{"num_deleted":"0","num_feature":"10","num_nodes":"15","size_leaf_vector":"1"}},{"base_weights":[2.2989767E1,-1.0210933E4,1.0363457E5,-1.1044207E4,2.0198695E5,7.413043E4,1.9246333E5,-2.463756E2,2.337647E0,1.4561758E3,2.841925E3,6.856244E2,2.1626133E3,2.647091E2,2.1604614E3],"categories":[],"categories_nodes":[],"categories_segments":[],"categories_sizes":[],"default_left":[0,0,0,0,0,0,0,0,0,0,0,0,0,0,0],"id":42,"left_children":[1,3,5,7,9,11,13,-1,-1,-1,-1,-1,-1,-1,-1],"loss_changes":[1.1005401E13,1.6724634E12,2.4309536E12,1.44261E12,1.3006982E11,5.4072443E11,9.0245956E11,0E0,0E0,0E0,0E0,0E0,0E0,0E0,0E0],"parents":[2147483647,0,0,1,1,2,2,3,3,4,4,5,5,6,6],"right_children":[2,4,6,8,10,12,14,-1,-1,-1,-1,-1,-1,-1,-1],"split_conditions":[2.1388E5,7.810999E4,3.60592E5,1.28264E5,1.9673002E5,8.3808E4,-1.568E4,-2.463756E2,2.337647E0,1.4561758E3,2.841925E3,6.856244E2,2.1626133E3,2.647091E2,2.1604614E3],"split_indices":[2,6,1,1,6,8,8,0,0,0,0,0,0,0,0],"split_type":[0,0,0,0,0,0,0,0,0,0,0,0,0,0,0],"sum_hessian":[1.0377E4,9.445E3,9.32E2,9.409E3,3.6E1,7.01E2,2.31E2,4.266E3,5.143E3,2.3E1,1.3E1,6.76E2,2.5E1,2.9E1,2.02E2],"tree_param":{"num_deleted":"0","num_feature":"10","num_nodes":"15","size_leaf_vector":"1"}},{"base_weights":[-1.2330082E2,-7.7137886E3,1.5713792E5,-2.0423871E4,1.0233547E4,1.3027565E5,2.8948506E5,-2.702713E2,-1.2226833E2,3.9912037E1,5.828984E2,-1.09409805E2,1.425851E3,1.0780468E3,3.0817446E3],"categories":[],"categories_nodes":[],"categories_segments":[],"categories_sizes":[],"default_left":[0,0,0,0,0,0,0,0,0,0,0,0,0,0,0],"id":43,"left_children":[1,3,5,7,9,11,13,-1,-1,-1,-1,-1,-1,-1,-1],"loss_changes":[1.2417969E13,2.2639935E12,1.6652016E12,3.1414813E11,1.234201E12,6.968794E11,2.3841735E11,0E0,0E0,0E0,0E0,0E0,0E0,0E0,0E0],"parents":[2147483647,0,0,1,1,2,2,3,3,4,4,5,5,6,6],"right_children":[2,4,6,8,10,12,14,-1,-1,-1,-1,-1,-1,-1,-1],"split_conditions":[2.62032E5,1.440336E5,5.60752E5,1.160592E5,2.37552E5,-1.568E4,-1.06112E5,-2.702713E2,-1.2226833E2,3.9912037E1,5.828984E2,-1.09409805E2,1.425851E3,1.0780468E3,3.0817446E3],"split_indices":[5,5,0,5,0,8,8,0,0,0,0,0,0,0,0],"split_type":[0,0,0,0,0,0,0,0,0,0,0,0,0,0,0],"sum_hessian":[1.0401E4,9.923E3,4.78E2,5.809E3,4.114E3,3.99E2,7.9E1,3.216E3,2.593E3,3.642E3,4.72E2,3.2E1,3.67E2,8E0,7.1E1],"tree_param":{"num_deleted":"0","num_feature":"10","num_nodes":"15","size_leaf_vector":"1"}},{"base_weights":[-2.7777148E2,-7.949462E3,1.5212858E5,-2.1461264E4,8.216868E3,1.1868295E5,2.4543205E5,-2.7064035E2,-1.3761244E2,2.8520369E1,5.713007E2,-1.0250906E2,1.305036E3,6.8966504E2,2.7114211E3],"categories":[],"categories_nodes":[],"categories_segments":[],"categories_sizes":[],"default_left":[0,0,0,0,0,0,0,0,0,0,0,0,0,0,0],"id":44,"left_children":[1,3,5,7,9,11,13,-1,-1,-1,-1,-1,-1,-1,-1],"loss_changes":[1.2198454E13,2.1699038E12,1.5311674E12,2.3306594E11,1.1867223E12,5.652485E11,5.756399E11,0E0,0E0,0E0,0E0,0E0,0E0,0E0,0E0],"parents":[2147483647,0,0,1,1,2,2,3,3,4,4,5,5,6,6],"right_children":[2,4,6,8,10,12,14,-1,-1,-1,-1,-1,-1,-1,-1],"split_conditions":[2.62032E5,1.404176E5,4.71872E5,1.149488E5,2.1388E5,-1.568E4,-1.06112E5,-2.7064035E2,-1.3761244E2,2.8520369E1,5.713007E2,-1.0250906E2,1.305036E3,6.8966504E2,2.7114211E3],"split_indices":[5,5,0,5,0,8,8,0,0,0,0,0,0,0,0],"split_type":[0,0,0,0,0,0,0,0,0,0,0,0,0,0,0],"sum_hessian":[1.0431E4,9.932E3,4.99E2,5.41E3,4.522E3,3.69E2,1.3E2,3.13E3,2.28E3,4.076E3,4.46E2,3.1E1,3.38E2,1.7E1,1.13E2],"tree_param":{"num_deleted":"0","num_feature":"10","num_nodes":"15","size_leaf_vector":"1"}},{"base_weights":[-4.6354736E2,-1.0706748E4,1.0432168E5,-2.274506E4,1.7514895E3,7.119627E4,2.0676762E5,-2.7342783E2,-1.6223262E2,-4.2142586E1,6.498024E1,5.8104706E2,1.0246031E3,5.879292E2,2.2251467E3],"categories":[],"categories_nodes":[],"categories_segments":[],"categories_sizes":[],"default_left":[0,0,0,0,0,0,0,0,0,0,0,0,0,0,0],"id":45,"left_children":[1,3,5,7,9,11,13,-1,-1,-1,-1,-1,-1,-1,-1],"loss_changes":[1.1125173E13,1.416115E12,3.117538E12,1.4354612E11,1.3144487E11,2.8014386E11,5.1120492E11,0E0,0E0,0E0,0E0,0E0,0E0,0E0,0E0],"parents":[2147483647,0,0,1,1,2,2,3,3,4,4,5,5,6,6],"right_children":[2,4,6,8,10,12,14,-1,-1,-1,-1,-1,-1,-1,-1],"split_conditions":[2.24456E5,1.347232E5,3.92688E5,1.127712E5,1.508592E5,3.12648E5,-1.06112E5,-2.7342783E2,-1.6223262E2,-4.2142586E1,6.498024E1,5.8104706E2,1.0246031E3,5.879292E2,2.2251467E3],"split_indices":[5,5,0,5,5,5,8,0,0,0,0,0,0,0,0],"split_type":[0,0,0,0,0,0,0,0,0,0,0,0,0,0,0],"sum_hessian":[1.0363E4,9.441E3,9.22E2,4.801E3,4.64E3,6.98E2,2.24E2,2.814E3,1.987E3,2.056E3,2.584E3,4.94E2,2.04E2,2.2E1,2.02E2],"tree_param":{"num_deleted":"0","num_feature":"10","num_nodes":"15","size_leaf_vector":"1"}},{"base_weights":[-2.7816473E1,-7.5163145E3,1.5252719E5,-1.9659732E4,1.00779795E4,1.2606961E5,2.7523897E5,-2.4905759E2,-9.613588E1,3.907163E1,5.6214465E2,-1.1078812E2,1.3602695E3,7.8202356E2,2.9754324E3],"categories":[],"categories_nodes":[],"categories_segments":[],"categories_sizes":[],"default_left":[0,0,0,0,0,0,0,0,0,0,0,0,0,0,0],"id":46,"left_children":[1,3,5,7,9,11,13,-1,-1,-1,-1,-1,-1,-1,-1],"loss_changes":[1.181707E13,2.1068353E12,1.5366818E12,3.072257E11,1.1462665E12,5.4775985E11,3.5028625E11,0E0,0E0,0E0,0E0,0E0,0E0,0E0,0E0],"parents":[2147483647,0,0,1,1,2,2,3,3,4,4,5,5,6,6],"right_children":[2,4,6,8,10,12,14,-1,-1,-1,-1,-1,-1,-1,-1],"split_conditions":[2.62032E5,1.443696E5,5.60752E5,1.221056E5,2.37552E5,-1.568E4,-1.06112E5,-2.4905759E2,-9.613588E1,3.907163E1,5.6214465E2,-1.1078812E2,1.3602695E3,7.8202356E2,2.9754324E3],"split_indices":[5,5,0,5,0,8,8,0,0,0,0,0,0,0,0],"split_type":[0,0,0,0,0,0,0,0,0,0,0,0,0,0,0],"sum_hessian":[1.0342E4,9.859E3,4.83E2,5.833E3,4.026E3,3.99E2,8.4E1,3.831E3,2.002E3,3.552E3,4.74E2,2.7E1,3.72E2,9E0,7.5E1],"tree_param":{"num_deleted":"0","num_feature":"10","num_nodes":"15","size_leaf_vector":"1"}},{"base_weights":[1.5150066E2,-7.3553857E3,1.5270405E5,-1.8781137E4,1.1057714E4,1.3662238E5,2.9727305E3,-2.4535703E2,-8.760196E1,4.781097E1,5.6706604E2,-7.99404E1,1.4872299E3],"categories":[],"categories_nodes":[],"categories_segments":[],"categories_sizes":[],"default_left":[0,0,0,0,0,0,0,0,0,0,0,0,0],"id":47,"left_children":[1,3,5,7,9,11,-1,-1,-1,-1,-1,-1,-1],"loss_changes":[1.1915728E13,2.0865806E12,1.09394264E12,3.5270204E11,1.08793404E12,7.7291586E11,0E0,0E0,0E0,0E0,0E0,0E0,0E0],"parents":[2147483647,0,0,1,1,2,2,3,3,4,4,5,5],"right_children":[2,4,6,8,10,12,-1,-1,-1,-1,-1,-1,-1],"split_conditions":[2.62032E5,1.4652E5,5.610752E5,1.22704E5,2.24456E5,-1.568E4,2.9727305E3,-2.4535703E2,-8.760196E1,4.781097E1,5.6706604E2,-7.99404E1,1.4872299E3],"split_indices":[5,5,5,5,5,8,0,0,0,0,0,0,0],"split_type":[0,0,0,0,0,0,0,0,0,0,0,0,0],"sum_hessian":[1.0403E4,9.916E3,4.87E2,6.119E3,3.797E3,4.4E2,4.7E1,3.886E3,2.233E3,3.339E3,4.58E2,3.4E1,4.06E2],"tree_param":{"num_deleted":"0","num_feature":"10","num_nodes":"13","size_leaf_vector":"1"}},{"base_weights":[1.1227494E1,-7.4314907E3,1.5220248E5,-2.0229066E4,8.752365E3,1.2478314E5,2.2995261E5,-2.6047552E2,-1.270946E2,3.0132212E1,5.430726E2,-2.3120647E2,1.3355135E3,6.8397266E2,2.5303965E3],"categories":[],"categories_nodes":[],"categories_segments":[],"categories_sizes":[],"default_left":[0,0,0,0,0,0,0,0,0,0,0,0,0,0,0],"id":48,"left_children":[1,3,5,7,9,11,13,-1,-1,-1,-1,-1,-1,-1,-1],"loss_changes":[1.175873E13,2.0499856E12,1.0031255E12,2.414902E11,1.1426171E12,4.69955E11,4.4892212E11,0E0,0E0,0E0,0E0,0E0,0E0,0E0,0E0],"parents":[2147483647,0,0,1,1,2,2,3,3,4,4,5,5,6,6],"right_children":[2,4,6,8,10,12,14,-1,-1,-1,-1,-1,-1,-1,-1],"split_conditions":[2.62032E5,1.41896E5,4.508256E5,1.149488E5,1.946096E5,-1.06112E5,-1.06112E5,-2.6047552E2,-1.270946E2,3.0132212E1,5.430726E2,-2.3120647E2,1.3355135E3,6.8397266E2,2.5303965E3],"split_indices":[5,5,5,5,5,8,8,0,0,0,0,0,0,0,0],"split_type":[0,0,0,0,0,0,0,0,0,0,0,0,0,0,0],"sum_hessian":[1.0379E4,9.896E3,4.83E2,5.526E3,4.37E3,3.59E2,1.24E2,3.114E3,2.412E3,3.882E3,4.88E2,2E1,3.39E2,1.6E1,1.08E2],"tree_param":{"num_deleted":"0","num_feature":"10","num_nodes":"15","size_leaf_vector":"1"}},{"base_weights":[-7.293981E1,-7.379057E3,1.5060639E5,-1.8849445E4,9.903738E3,1.1737553E5,2.4430888E5,-2.4263853E2,-9.2357704E1,4.0521595E1,5.505766E2,9.7583716E2,1.5663534E3,2.5986655E3,1.1289484E3],"categories":[],"categories_nodes":[],"categories_segments":[],"categories_sizes":[],"default_left":[0,0,0,0,0,0,0,0,0,0,0,0,0,0,0],"id":49,"left_children":[1,3,5,7,9,11,13,-1,-1,-1,-1,-1,-1,-1,-1],"loss_changes":[1.1450273E13,1.9667314E12,1.4690686E12,3.1016406E11,1.0455666E12,2.6211202E11,2.2622398E11,0E0,0E0,0E0,0E0,0E0,0E0,0E0,0E0],"parents":[2147483647,0,0,1,1,2,2,3,3,4,4,5,5,6,6],"right_children":[2,4,6,8,10,12,14,-1,-1,-1,-1,-1,-1,-1,-1],"split_conditions":[2.62032E5,1.45072E5,4.71872E5,1.216784E5,2.37552E5,3.60592E5,1.0728E5,-2.4263853E2,-9.2357704E1,4.0521595E1,5.505766E2,9.7583716E2,1.5663534E3,2.5986655E3,1.1289484E3],"split_indices":[5,5,0,5,0,0,9,0,0,0,0,0,0,0,0],"split_type":[0,0,0,0,0,0,0,0,0,0,0,0,0,0,0],"sum_hessian":[1.0399E4,9.919E3,4.8E2,5.962E3,3.957E3,3.56E2,1.24E2,3.813E3,2.149E3,3.504E3,4.53E2,2.39E2,1.17E2,1.1E2,1.4E1],"tree_param":{"num_deleted":"0","num_feature":"10","num_nodes":"15","size_leaf_vector":"1"}},{"base_weights":[-2.0535294E2,-7.244468E3,1.4859206E5,-1.9026736E4,9.495832E3,1.2045577E5,2.761161E5,-2.5190524E2,-1.1235519E2,3.7507267E1,5.4677563E2,-2.5921698E2,1.3197668E3,8.430049E2,2.9245906E3],"categories":[],"categories_nodes":[],"categories_segments":[],"categories_sizes":[],"default_left":[0,0,0,0,0,0,0,0,0,0,0,0,0,0,0],"id":50,"left_children":[1,3,5,7,9,11,13,-1,-1,-1,-1,-1,-1,-1,-1],"loss_changes":[1.0875204E13,1.9556053E12,1.649539E12,2.791654E11,1.06300926E12,6.5437277E11,2.3867215E11,0E0,0E0,0E0,0E0,0E0,0E0,0E0,0E0],"parents":[2147483647,0,0,1,1,2,2,3,3,4,4,5,5,6,6],"right_children":[2,4,6,8,10,12,14,-1,-1,-1,-1,-1,-1,-1,-1],"split_conditions":[2.62032E5,1.440336E5,5.60752E5,1.163696E5,2.1388E5,-1.06112E5,-1.06112E5,-2.5190524E2,-1.1235519E2,3.7507267E1,5.4677563E2,-2.5921698E2,1.3197668E3,8.430049E2,2.9245906E3],"split_indices":[5,5,0,5,0,8,8,0,0,0,0,0,0,0,0],"split_type":[0,0,0,0,0,0,0,0,0,0,0,0,0,0,0],"sum_hessian":[1.0381E4,9.913E3,4.68E2,5.818E3,4.095E3,3.85E2,8.3E1,3.247E3,2.571E3,3.634E3,4.61E2,2.8E1,3.57E2,7E0,7.6E1],"tree_param":{"num_deleted":"0","num_feature":"10","num_nodes":"15","size_leaf_vector":"1"}},{"base_weights":[-1.8155062E1,-7.130467E3,1.4795706E5,-2.0358418E4,7.4435513E3,1.2206999E5,2.6140922E5,-2.5581833E2,-1.3480806E2,2.2342133E1,5.2947504E2,-1.1677083E2,1.3213347E3,6.5761035E2,2.8596401E3],"categories":[],"categories_nodes":[],"categories_segments":[],"categories_sizes":[],"default_left":[0,0,0,0,0,0,0,0,0,0,0,0,0,0,0],"id":51,"left_children":[1,3,5,7,9,11,13,-1,-1,-1,-1,-1,-1,-1,-1],"loss_changes":[1.085493E13,1.8973426E12,1.3572631E12,1.8499043E11,1.1099657E12,5.2242835E11,3.99152E11,0E0,0E0,0E0,0E0,0E0,0E0,0E0,0E0],"parents":[2147483647,0,0,1,1,2,2,3,3,4,4,5,5,6,6],"right_children":[2,4,6,8,10,12,14,-1,-1,-1,-1,-1,-1,-1,-1],"split_conditions":[2.62032E5,1.388448E5,5.60752E5,1.138768E5,1.946096E5,-1.568E4,-1.06112E5,-2.5581833E2,-1.3480806E2,2.2342133E1,5.2947504E2,-1.1677083E2,1.3213347E3,6.5761035E2,2.8596401E3],"split_indices":[5,5,0,5,5,8,8,0,0,0,0,0,0,0,0],"split_type":[0,0,0,0,0,0,0,0,0,0,0,0,0,0,0],"sum_hessian":[1.0312E4,9.84E3,4.72E2,5.158E3,4.682E3,3.86E2,8.6E1,2.93E3,2.228E3,4.202E3,4.8E2,2.7E1,3.59E2,1E1,7.6E1],"tree_param":{"num_deleted":"0","num_feature":"10","num_nodes":"15","size_leaf_vector":"1"}},{"base_weights":[5.820627E1,-6.5887925E3,1.46219E5,-1.0042484E4,5.591978E4,1.1137067E5,2.3155864E5,-2.2493893E2,1.7151189E0,4.725944E2,2.6110505E3,8.686136E2,1.5197429E3,4.8030933E2,2.531087E3],"categories":[],"categories_nodes":[],"categories_segments":[],"categories_sizes":[],"default_left":[0,0,0,0,0,0,0,0,0,0,0,0,0,0,0],"id":52,"left_children":[1,3,5,7,9,11,13,-1,-1,-1,-1,-1,-1,-1,-1],"loss_changes":[1.0162203E13,2.1604945E12,1.3273546E12,1.2059117E12,9.1879467E11,3.102283E11,5.059526E11,0E0,0E0,0E0,0E0,0E0,0E0,0E0,0E0],"parents":[2147483647,0,0,1,1,2,2,3,3,4,4,5,5,6,6],"right_children":[2,4,6,8,10,12,14,-1,-1,-1,-1,-1,-1,-1,-1],"split_conditions":[3.13504E5,2.1388E5,4.71872E5,1.27696E5,2.10952E5,3.60592E5,-1.06112E5,-2.2493893E2,1.7151189E0,4.725944E2,2.6110505E3,8.686136E2,1.5197429E3,4.8030933E2,2.531087E3],"split_indices":[0,2,0,0,9,0,8,0,0,0,0,0,0,0,0],"split_type":[0,0,0,0,0,0,0,0,0,0,0,0,0,0,0],"sum_hessian":[1.0458E4,1.0004E4,4.54E2,9.481E3,5.23E2,3.24E2,1.3E2,4.272E3,5.209E3,5.03E2,2E1,2.04E2,1.2E2,1.4E1,1.16E2],"tree_param":{"num_deleted":"0","num_feature":"10","num_nodes":"15","size_leaf_vector":"1"}},{"base_weights":[4.2184536E1,-6.9749204E3,1.4282803E5,-1.7736291E4,1.062947E4,1.1748239E5,2.5294644E5,-2.3260481E2,-8.376084E1,4.36693E1,5.26127E2,-1.26824265E2,1.2766375E3,7.211981E2,2.7950083E3],"categories":[],"categories_nodes":[],"categories_segments":[],"categories_sizes":[],"default_left":[0,0,0,0,0,0,0,0,0,0,0,0,0,0,0],"id":53,"left_children":[1,3,5,7,9,11,13,-1,-1,-1,-1,-1,-1,-1,-1],"loss_changes":[1.0502363E13,1.8929572E12,1.3406736E12,3.204439E11,9.965061E11,5.3304623E11,4.1680162E11,0E0,0E0,0E0,0E0,0E0,0E0,0E0,0E0],"parents":[2147483647,0,0,1,1,2,2,3,3,4,4,5,5,6,6],"right_children":[2,4,6,8,10,12,14,-1,-1,-1,-1,-1,-1,-1,-1],"split_conditions":[2.62032E5,1.4652E5,5.60752E5,1.221056E5,2.1388E5,-1.568E4,-1.06112E5,-2.3260481E2,-8.376084E1,4.36693E1,5.26127E2,-1.26824265E2,1.2766375E3,7.211981E2,2.7950083E3],"split_indices":[5,5,0,5,0,8,8,0,0,0,0,0,0,0,0],"split_type":[0,0,0,0,0,0,0,0,0,0,0,0,0,0,0],"sum_hessian":[1.048E4,9.99E3,4.9E2,6.2E3,3.79E3,4E2,9E1,3.898E3,2.302E3,3.299E3,4.91E2,2.9E1,3.71E2,1.2E1,7.8E1],"tree_param":{"num_deleted":"0","num_feature":"10","num_nodes":"15","size_leaf_vector":"1"}},{"base_weights":[9.466786E1,-6.9712227E3,1.4003875E5,-1.8244219E4,9.262389E3,1.1554725E5,2.485771E5,-2.4419261E2,-1.0985255E2,3.567256E1,5.17247E2,-2.4358643E2,1.2549965E3,7.1483466E2,2.7717625E3],"categories":[],"categories_nodes":[],"categories_segments":[],"categories_sizes":[],"default_left":[0,0,0,0,0,0,0,0,0,0,0,0,0,0,0],"id":54,"left_children":[1,3,5,7,9,11,13,-1,-1,-1,-1,-1,-1,-1,-1],"loss_changes":[1.0266017E13,1.8087721E12,1.2977523E12,2.6119242E11,9.794625E11,5.725487E11,4.4107668E11,0E0,0E0,0E0,0E0,0E0,0E0,0E0,0E0],"parents":[2147483647,0,0,1,1,2,2,3,3,4,4,5,5,6,6],"right_children":[2,4,6,8,10,12,14,-1,-1,-1,-1,-1,-1,-1,-1],"split_conditions":[2.62032E5,1.443696E5,5.60752E5,1.15672E5,2.1388E5,-1.06112E5,-1.06112E5,-2.4419261E2,-1.0985255E2,3.567256E1,5.17247E2,-2.4358643E2,1.2549965E3,7.1483466E2,2.7717625E3],"split_indices":[5,5,0,5,0,8,8,0,0,0,0,0,0,0,0],"split_type":[0,0,0,0,0,0,0,0,0,0,0,0,0,0,0],"sum_hessian":[1.038E4,9.882E3,4.98E2,5.832E3,4.05E3,4.08E2,9E1,3.15E3,2.682E3,3.572E3,4.78E2,2.7E1,3.81E2,1.3E1,7.7E1],"tree_param":{"num_deleted":"0","num_feature":"10","num_nodes":"15","size_leaf_vector":"1"}},{"base_weights":[-2.0199414E2,-6.958388E3,1.402633E5,-1.7498416E4,1.0027077E4,1.1528819E5,2.5060844E5,-2.2686714E2,-8.161922E1,4.409342E1,5.246083E2,-1.5439394E2,1.2390267E3,5.566587E2,2.752027E3],"categories":[],"categories_nodes":[],"categories_segments":[],"categories_sizes":[],"default_left":[0,0,0,0,0,0,0,0,0,0,0,0,0,0,0],"id":55,"left_children":[1,3,5,7,9,11,13,-1,-1,-1,-1,-1,-1,-1,-1],"loss_changes":[9.843457E12,1.7718297E12,1.2829076E12,2.9564102E11,9.032349E11,4.4111233E11,4.0179964E11,0E0,0E0,0E0,0E0,0E0,0E0,0E0,0E0],"parents":[2147483647,0,0,1,1,2,2,3,3,4,4,5,5,6,6],"right_children":[2,4,6,8,10,12,14,-1,-1,-1,-1,-1,-1,-1,-1],"split_conditions":[2.62032E5,1.462544E5,5.60752E5,1.22704E5,2.24456E5,-1.06112E5,-1.06112E5,-2.2686714E2,-8.161922E1,4.409342E1,5.246083E2,-1.5439394E2,1.2390267E3,5.566587E2,2.752027E3],"split_indices":[5,5,0,5,5,8,8,0,0,0,0,0,0,0,0],"split_type":[0,0,0,0,0,0,0,0,0,0,0,0,0,0,0],"sum_hessian":[1.037E4,9.895E3,4.75E2,6.106E3,3.789E3,3.89E2,8.6E1,3.924E3,2.182E3,3.347E3,4.42E2,2.4E1,3.65E2,1E1,7.6E1],"tree_param":{"num_deleted":"0","num_feature":"10","num_nodes":"15","size_leaf_vector":"1"}},{"base_weights":[-9.0880455E1,-6.3909688E3,1.3773586E5,-9.68026E3,5.2466383E4,1.0701352E5,2.17106E5,-2.1589818E2,2.5938592E0,4.445857E2,1.6376313E3,-1.4804726E2,1.1408895E3,3.4373282E2,2.4148994E3],"categories":[],"categories_nodes":[],"categories_segments":[],"categories_sizes":[],"default_left":[0,0,0,0,0,0,0,0,0,0,0,0,0,0,0],"id":56,"left_children":[1,3,5,7,9,11,13,-1,-1,-1,-1,-1,-1,-1,-1],"loss_changes":[9.038362E12,1.927592E12,1.0862555E12,1.1160618E12,4.6240458E11,2.8612153E11,5.531228E11,0E0,0E0,0E0,0E0,0E0,0E0,0E0,0E0],"parents":[2147483647,0,0,1,1,2,2,3,3,4,4,5,5,6,6],"right_children":[2,4,6,8,10,12,14,-1,-1,-1,-1,-1,-1,-1,-1],"split_conditions":[3.13504E5,2.1388E5,4.71872E5,1.28264E5,8.3808E4,-1.06112E5,-1.06112E5,-2.1589818E2,2.5938592E0,4.445857E2,1.6376313E3,-1.4804726E2,1.1408895E3,3.4373282E2,2.4148994E3],"split_indices":[0,2,0,1,8,8,8,0,0,0,0,0,0,0,0],"split_type":[0,0,0,0,0,0,0,0,0,0,0,0,0,0,0],"sum_hessian":[1.0407E4,9.953E3,4.54E2,9.427E3,5.26E2,3.29E2,1.25E2,4.288E3,5.139E3,4.92E2,3.4E1,1.8E1,3.11E2,1.5E1,1.1E2],"tree_param":{"num_deleted":"0","num_feature":"10","num_nodes":"15","size_leaf_vector":"1"}},{"base_weights":[-8.8282455E1,-6.740172E3,1.3651969E5,-1.9532537E4,6.671422E3,1.05446484E5,2.2607328E5,-2.4499255E2,-1.3609071E2,1.96931E1,4.951314E2,8.658988E2,1.4227357E3,2.3969575E3,1.1291991E3],"categories":[],"categories_nodes":[],"categories_segments":[],"categories_sizes":[],"default_left":[0,0,0,0,0,0,0,0,0,0,0,0,0,0,0],"id":57,"left_children":[1,3,5,7,9,11,13,-1,-1,-1,-1,-1,-1,-1,-1],"loss_changes":[9.335098E12,1.6807907E12,1.3035184E12,1.4717957E11,9.6342154E11,2.3489885E11,1.6098787E11,0E0,0E0,0E0,0E0,0E0,0E0,0E0,0E0],"parents":[2147483647,0,0,1,1,2,2,3,3,4,4,5,5,6,6],"right_children":[2,4,6,8,10,12,14,-1,-1,-1,-1,-1,-1,-1,-1],"split_conditions":[2.62032E5,1.378144E5,4.71872E5,1.124752E5,1.946096E5,3.60592E5,1.0728E5,-2.4499255E2,-1.3609071E2,1.96931E1,4.951314E2,8.658988E2,1.4227357E3,2.3969575E3,1.1291991E3],"split_indices":[5,5,0,5,5,0,9,0,0,0,0,0,0,0,0],"split_type":[0,0,0,0,0,0,0,0,0,0,0,0,0,0,0],"sum_hessian":[1.0271E4,9.795E3,4.76E2,5.013E3,4.782E3,3.55E2,1.21E2,2.725E3,2.288E3,4.31E3,4.72E2,2.37E2,1.18E2,1.07E2,1.4E1],"tree_param":{"num_deleted":"0","num_feature":"10","num_nodes":"15","size_leaf_vector":"1"}},{"base_weights":[2.1739499E2,-6.6981333E3,1.3635686E5,-1.6892857E4,9.9827E3,1.10613375E5,2.0818181E5,-2.2148993E2,-8.058711E1,4.3126064E1,5.128375E2,1.9489303E3,9.7056647E2,5.401547E2,2.3089697E3],"categories":[],"categories_nodes":[],"categories_segments":[],"categories_sizes":[],"default_left":[0,0,0,0,0,0,0,0,0,0,0,0,0,0,0],"id":58,"left_children":[1,3,5,7,9,11,13,-1,-1,-1,-1,-1,-1,-1,-1],"loss_changes":[9.67929E12,1.6640012E12,8.9593794E11,2.8181214E11,8.690581E11,4.0154484E11,4.4277642E11,0E0,0E0,0E0,0E0,0E0,0E0,0E0,0E0],"parents":[2147483647,0,0,1,1,2,2,3,3,4,4,5,5,6,6],"right_children":[2,4,6,8,10,12,14,-1,-1,-1,-1,-1,-1,-1,-1],"split_conditions":[2.62032E5,1.4652E5,4.508256E5,1.221056E5,2.24456E5,3.13504E5,-1.06112E5,-2.2148993E2,-8.058711E1,4.3126064E1,5.128375E2,1.9489303E3,9.7056647E2,5.401547E2,2.3089697E3],"split_indices":[5,5,5,5,5,2,8,0,0,0,0,0,0,0,0],"split_type":[0,0,0,0,0,0,0,0,0,0,0,0,0,0,0],"sum_hessian":[1.0279E4,9.783E3,4.96E2,6.072E3,3.711E3,3.67E2,1.29E2,3.806E3,2.266E3,3.264E3,4.47E2,4.9E1,3.18E2,1.7E1,1.12E2],"tree_param":{"num_deleted":"0","num_feature":"10","num_nodes":"15","size_leaf_vector":"1"}},{"base_weights":[-7.768714E1,-6.4617217E3,1.3184589E5,-1.7018314E4,9.562362E3,1.0734176E5,2.4445516E5,-2.2699997E2,-9.2722084E1,3.9613636E1,4.945409E2,8.4036945E2,1.4459767E3,2.06599E3,2.73514E3],"categories":[],"categories_nodes":[],"categories_segments":[],"categories_sizes":[],"default_left":[0,0,0,0,0,0,0,0,0,0,0,0,0,0,0],"id":59,"left_children":[1,3,5,7,9,11,13,-1,-1,-1,-1,-1,-1,-1,-1],"loss_changes":[8.7580963E12,1.6780579E12,1.2982682E12,2.6297487E11,8.801321E11,3.3167245E11,3.6996383E10,0E0,0E0,0E0,0E0,0E0,0E0,0E0,0E0],"parents":[2147483647,0,0,1,1,2,2,3,3,4,4,5,5,6,6],"right_children":[2,4,6,8,10,12,14,-1,-1,-1,-1,-1,-1,-1,-1],"split_conditions":[2.62032E5,1.45688E5,5.60752E5,1.180752E5,2.1388E5,3.60592E5,6.18928E5,-2.2699997E2,-9.2722084E1,3.9613636E1,4.945409E2,8.4036945E2,1.4459767E3,2.06599E3,2.73514E3],"split_indices":[5,5,0,5,0,0,0,0,0,0,0,0,0,0,0],"split_type":[0,0,0,0,0,0,0,0,0,0,0,0,0,0,0],"sum_hessian":[1.0397E4,9.918E3,4.79E2,5.979E3,3.939E3,3.95E2,8.4E1,3.448E3,2.531E3,3.455E3,4.84E2,2.45E2,1.5E2,4E1,4.4E1],"tree_param":{"num_deleted":"0","num_feature":"10","num_nodes":"15","size_leaf_vector":"1"}},{"base_weights":[1.7078368E2,-6.482522E3,1.3673467E5,-1.7199414E4,8.908698E3,1.1070925E5,2.4670514E5,-2.3182747E2,-1.04603096E2,3.596285E1,4.8727753E2,-2.263576E2,1.1903693E3,1.0840658E3,2.641481E3],"categories":[],"categories_nodes":[],"categories_segments":[],"categories_sizes":[],"default_left":[0,0,0,0,0,0,0,0,0,0,0,0,0,0,0],"id":60,"left_children":[1,3,5,7,9,11,13,-1,-1,-1,-1,-1,-1,-1,-1],"loss_changes":[9.485776E12,1.642191E12,1.3607717E12,2.364092E11,8.643694E11,4.4021422E11,1.9329922E11,0E0,0E0,0E0,0E0,0E0,0E0,0E0,0E0],"parents":[2147483647,0,0,1,1,2,2,3,3,4,4,5,5,6,6],"right_children":[2,4,6,8,10,12,14,-1,-1,-1,-1,-1,-1,-1,-1],"split_conditions":[2.62032E5,1.443696E5,5.60752E5,1.149488E5,2.1388E5,-1.06112E5,-1.06112E5,-2.3182747E2,-1.04603096E2,3.596285E1,4.8727753E2,-2.263576E2,1.1903693E3,1.0840658E3,2.641481E3],"split_indices":[5,5,0,5,0,8,8,0,0,0,0,0,0,0,0],"split_type":[0,0,0,0,0,0,0,0,0,0,0,0,0,0,0],"sum_hessian":[1.0438E4,9.954E3,4.84E2,5.868E3,4.086E3,3.93E2,9.1E1,3.107E3,2.761E3,3.606E3,4.8E2,2.3E1,3.7E2,1.1E1,8E1],"tree_param":{"num_deleted":"0","num_feature":"10","num_nodes":"15","size_leaf_vector":"1"}},{"base_weights":[-2.6920897E1,-6.344811E3,1.2998041E5,-1.6991266E4,8.890883E3,1.06163266E5,2.356805E5,-2.306694E2,-1.0412427E2,3.4491783E1,4.839399E2,8.320739E2,1.4365918E3,2.553356E3,1.1355095E3],"categories":[],"categories_nodes":[],"categories_segments":[],"categories_sizes":[],"default_left":[0,0,0,0,0,0,0,0,0,0,0,0,0,0,0],"id":61,"left_children":[1,3,5,7,9,11,13,-1,-1,-1,-1,-1,-1,-1,-1],"loss_changes":[8.5603427E12,1.6123177E12,1.1909191E12,2.3362968E11,8.7882183E11,3.289042E11,1.8224775E11,0E0,0E0,0E0,0E0,0E0,0E0,0E0,0E0],"parents":[2147483647,0,0,1,1,2,2,3,3,4,4,5,5,6,6],"right_children":[2,4,6,8,10,12,14,-1,-1,-1,-1,-1,-1,-1,-1],"split_conditions":[2.62032E5,1.443696E5,5.60752E5,1.145184E5,1.946096E5,3.60592E5,1.0728E5,-2.306694E2,-1.0412427E2,3.4491783E1,4.839399E2,8.320739E2,1.4365918E3,2.553356E3,1.1355095E3],"split_indices":[5,5,0,5,5,0,9,0,0,0,0,0,0,0,0],"split_type":[0,0,0,0,0,0,0,0,0,0,0,0,0,0,0],"sum_hessian":[1.042E4,9.938E3,4.82E2,5.85E3,4.088E3,3.95E2,8.7E1,3.04E3,2.81E3,3.594E3,4.94E2,2.47E2,1.48E2,7.4E1,1.3E1],"tree_param":{"num_deleted":"0","num_feature":"10","num_nodes":"15","size_leaf_vector":"1"}},{"base_weights":[2.4139864E1,-6.3897646E3,1.3032624E5,-1.6288681E4,9.684895E3,1.00573305E5,2.1322064E5,-2.1324298E2,-7.679161E1,4.08422E1,4.8353812E2,-1.9296478E2,1.1071039E3,6.0132404E2,2.3149346E3],"categories":[],"categories_nodes":[],"categories_segments":[],"categories_sizes":[],"default_left":[0,0,0,0,0,0,0,0,0,0,0,0,0,0,0],"id":62,"left_children":[1,3,5,7,9,11,13,-1,-1,-1,-1,-1,-1,-1,-1],"loss_changes":[8.6934186E12,1.5776903E12,1.1821352E12,2.658578E11,8.182281E11,4.4079854E11,3.441416E11,0E0,0E0,0E0,0E0,0E0,0E0,0E0,0E0],"parents":[2147483647,0,0,1,1,2,2,3,3,4,4,5,5,6,6],"right_children":[2,4,6,8,10,12,14,-1,-1,-1,-1,-1,-1,-1,-1],"split_conditions":[2.62032E5,1.4652E5,4.71872E5,1.221056E5,2.1388E5,-1.568E4,-1.06112E5,-2.1324298E2,-7.679161E1,4.08422E1,4.8353812E2,-1.9296478E2,1.1071039E3,6.0132404E2,2.3149346E3],"split_indices":[5,5,0,5,0,8,8,0,0,0,0,0,0,0,0],"split_type":[0,0,0,0,0,0,0,0,0,0,0,0,0,0,0],"sum_hessian":[1.04E4,9.913E3,4.87E2,6.135E3,3.778E3,3.6E2,1.27E2,3.87E3,2.265E3,3.301E3,4.77E2,2.8E1,3.32E2,1.4E1,1.13E2],"tree_param":{"num_deleted":"0","num_feature":"10","num_nodes":"15","size_leaf_vector":"1"}},{"base_weights":[-2.1540883E2,-6.3495034E3,1.2810614E5,-1.5867638E4,9.893978E3,8.6577516E4,1.6944308E5,-2.0963261E2,-7.111019E1,4.214192E1,4.666981E2,2.078402E3,7.626248E2,2.8955188E2,1.8528551E3],"categories":[],"categories_nodes":[],"categories_segments":[],"categories_sizes":[],"default_left":[0,0,0,0,0,0,0,0,0,0,0,0,0,0,0],"id":63,"left_children":[1,3,5,7,9,11,13,-1,-1,-1,-1,-1,-1,-1,-1],"loss_changes":[8.126423E12,1.523506E12,7.9388004E11,2.7707782E11,7.603311E11,2.805958E11,5.176673E11,0E0,0E0,0E0,0E0,0E0,0E0,0E0,0E0],"parents":[2147483647,0,0,1,1,2,2,3,3,4,4,5,5,6,6],"right_children":[2,4,6,8,10,12,14,-1,-1,-1,-1,-1,-1,-1,-1],"split_conditions":[2.62032E5,1.473808E5,3.615184E5,1.234592E5,1.946096E5,2.1388E5,-1.06112E5,-2.0963261E2,-7.111019E1,4.214192E1,4.666981E2,2.078402E3,7.626248E2,2.8955188E2,1.8528551E3],"split_indices":[5,5,5,5,5,1,8,0,0,0,0,0,0,0,0],"split_type":[0,0,0,0,0,0,0,0,0,0,0,0,0,0,0],"sum_hessian":[1.0322E4,9.852E3,4.7E2,6.212E3,3.64E3,2.36E2,2.34E2,3.926E3,2.286E3,3.154E3,4.86E2,1.7E1,2.19E2,2.4E1,2.1E2],"tree_param":{"num_deleted":"0","num_feature":"10","num_nodes":"15","size_leaf_vector":"1"}},{"base_weights":[-3.0353708E2,-8.809045E3,8.6709055E4,-1.8803332E4,1.5660082E3,5.9148586E4,1.68431E5,-2.3231703E2,-1.3675156E2,1.3332687E1,9.9999347E2,5.488387E2,1.5908479E3,3.4079288E2,1.8291445E3],"categories":[],"categories_nodes":[],"categories_segments":[],"categories_sizes":[],"default_left":[0,0,0,0,0,0,0,0,0,0,0,0,0,0,0],"id":64,"left_children":[1,3,5,7,9,11,13,-1,-1,-1,-1,-1,-1,-1,-1],"loss_changes":[7.7294847E12,9.865481E11,2.0846713E12,1.0973243E11,1.06830275E11,2.8833035E11,4.4910196E11,0E0,0E0,0E0,0E0,0E0,0E0,0E0,0E0],"parents":[2147483647,0,0,1,1,2,2,3,3,4,4,5,5,6,6],"right_children":[2,4,6,8,10,12,14,-1,-1,-1,-1,-1,-1,-1,-1],"split_conditions":[2.24456E5,1.351904E5,3.92688E5,1.115568E5,8.3808E4,8.3808E4,-1.06112E5,-2.3231703E2,-1.3675156E2,1.3332687E1,9.9999347E2,5.488387E2,1.5908479E3,3.4079288E2,1.8291445E3],"split_indices":[5,5,0,5,8,8,8,0,0,0,0,0,0,0,0],"split_type":[0,0,0,0,0,0,0,0,0,0,0,0,0,0,0],"sum_hessian":[1.0442E4,9.513E3,9.29E2,4.845E3,4.668E3,6.96E2,2.33E2,2.598E3,2.247E3,4.658E3,1E1,6.69E2,2.7E1,2.3E1,2.1E2],"tree_param":{"num_deleted":"0","num_feature":"10","num_nodes":"15","size_leaf_vector":"1"}},{"base_weights":[3.0961157E2,-5.8776206E3,1.3208777E5,-8.905483E3,4.6811324E4,1.07440086E5,2.2927325E5,-1.8900677E2,1.09159565E1,-3.701925E2,5.0928668E2,8.0464014E2,1.4144911E3,7.2029584E2,2.514061E3],"categories":[],"categories_nodes":[],"categories_segments":[],"categories_sizes":[],"default_left":[0,0,0,0,0,0,0,0,0,0,0,0,0,0,0],"id":65,"left_children":[1,3,5,7,9,11,13,-1,-1,-1,-1,-1,-1,-1,-1],"loss_changes":[8.526807E12,1.5940109E12,1.09880803E12,9.439908E11,1.8930677E11,3.3357195E11,3.0903527E11,0E0,0E0,0E0,0E0,0E0,0E0,0E0,0E0],"parents":[2147483647,0,0,1,1,2,2,3,3,4,4,5,5,6,6],"right_children":[2,4,6,8,10,12,14,-1,-1,-1,-1,-1,-1,-1,-1],"split_conditions":[3.12648E5,1.946096E5,5.60752E5,1.339008E5,-1.568E4,3.60592E5,-1.06112E5,-1.8900677E2,1.09159565E1,-3.701925E2,5.0928668E2,8.0464014E2,1.4144911E3,7.2029584E2,2.514061E3],"split_indices":[5,5,0,5,8,0,8,0,0,0,0,0,0,0,0],"split_type":[0,0,0,0,0,0,0,0,0,0,0,0,0,0,0],"sum_hessian":[1.0456E4,9.988E3,4.68E2,9.446E3,5.42E2,3.75E2,9.3E1,4.723E3,4.723E3,2.5E1,5.17E2,2.11E2,1.64E2,1.2E1,8.1E1],"tree_param":{"num_deleted":"0","num_feature":"10","num_nodes":"15","size_leaf_vector":"1"}},{"base_weights":[-2.9495126E2,-6.1716426E3,1.2643615E5,-1.5297229E4,9.718868E3,1.0265299E5,2.2359931E5,-2.0323279E2,-6.8244675E1,4.296871E1,4.6132666E2,-1.2746145E2,1.1169496E3,6.0969586E2,2.5026445E3],"categories":[],"categories_nodes":[],"categories_segments":[],"categories_sizes":[],"default_left":[0,0,0,0,0,0,0,0,0,0,0,0,0,0,0],"id":66,"left_children":[1,3,5,7,9,11,13,-1,-1,-1,-1,-1,-1,-1,-1],"loss_changes":[7.7641537E12,1.4448856E12,1.044658E12,2.6937865E11,7.174798E11,3.9062523E11,3.7503002E11,0E0,0E0,0E0,0E0,0E0,0E0,0E0,0E0],"parents":[2147483647,0,0,1,1,2,2,3,3,4,4,5,5,6,6],"right_children":[2,4,6,8,10,12,14,-1,-1,-1,-1,-1,-1,-1,-1],"split_conditions":[2.62032E5,1.476384E5,5.60752E5,1.234592E5,2.1388E5,-1.568E4,-1.06112E5,-2.0323279E2,-6.8244675E1,4.296871E1,4.6132666E2,-1.2746145E2,1.1169496E3,6.0969586E2,2.5026445E3],"split_indices":[5,5,0,5,0,8,8,0,0,0,0,0,0,0,0],"split_type":[0,0,0,0,0,0,0,0,0,0,0,0,0,0,0],"sum_hessian":[1.0423E4,9.962E3,4.61E2,6.328E3,3.634E3,3.72E2,8.9E1,3.971E3,2.357E3,3.164E3,4.7E2,2.7E1,3.45E2,1.3E1,7.6E1],"tree_param":{"num_deleted":"0","num_feature":"10","num_nodes":"15","size_leaf_vector":"1"}},{"base_weights":[-1.4180475E2,-6.1329624E3,1.23704805E5,-1.5501053E4,9.145091E3,9.9212984E4,2.2348272E5,-2.1466754E2,-8.913341E1,4.0240643E1,4.655913E2,-2.603072E2,1.0865234E3,5.651706E2,2.4492976E3],"categories":[],"categories_nodes":[],"categories_segments":[],"categories_sizes":[],"default_left":[0,0,0,0,0,0,0,0,0,0,0,0,0,0,0],"id":67,"left_children":[1,3,5,7,9,11,13,-1,-1,-1,-1,-1,-1,-1,-1],"loss_changes":[7.7344633E12,1.4232453E12,1.1532679E12,2.420559E11,7.240541E11,4.6152994E11,3.2276428E11,0E0,0E0,0E0,0E0,0E0,0E0,0E0,0E0],"parents":[2147483647,0,0,1,1,2,2,3,3,4,4,5,5,6,6],"right_children":[2,4,6,8,10,12,14,-1,-1,-1,-1,-1,-1,-1,-1],"split_conditions":[2.62032E5,1.4652E5,5.60752E5,1.160592E5,2.24456E5,-1.568E4,-1.06112E5,-2.1466754E2,-8.913341E1,4.0240643E1,4.655913E2,-2.603072E2,1.0865234E3,5.651706E2,2.4492976E3],"split_indices":[5,5,0,5,5,8,8,0,0,0,0,0,0,0,0],"split_type":[0,0,0,0,0,0,0,0,0,0,0,0,0,0,0],"sum_hessian":[1.0422E4,9.942E3,4.8E2,6.163E3,3.779E3,3.87E2,9.3E1,3.233E3,2.93E3,3.325E3,4.54E2,2.7E1,3.6E2,1.1E1,8.2E1],"tree_param":{"num_deleted":"0","num_feature":"10","num_nodes":"15","size_leaf_vector":"1"}},{"base_weights":[-1.0548126E2,-6.118903E3,1.2074511E5,-1.5393706E4,9.172349E3,9.834883E4,2.2346481E5,-2.133344E2,-8.975068E1,3.8593662E1,4.577594E2,-1.9678961E2,1.084193E3,4.725455E2,2.4545002E3],"categories":[],"categories_nodes":[],"categories_segments":[],"categories_sizes":[],"default_left":[0,0,0,0,0,0,0,0,0,0,0,0,0,0,0],"id":68,"left_children":[1,3,5,7,9,11,13,-1,-1,-1,-1,-1,-1,-1,-1],"loss_changes":[7.604468E12,1.4138363E12,1.1190906E12,2.3637407E11,7.318244E11,4.8826915E11,3.29315E11,0E0,0E0,0E0,0E0,0E0,0E0,0E0,0E0],"parents":[2147483647,0,0,1,1,2,2,3,3,4,4,5,5,6,6],"right_children":[2,4,6,8,10,12,14,-1,-1,-1,-1,-1,-1,-1,-1],"split_conditions":[2.62032E5,1.4652E5,5.60752E5,1.15672E5,2.37552E5,-1.568E4,-1.06112E5,-2.133344E2,-8.975068E1,3.8593662E1,4.577594E2,-1.9678961E2,1.084193E3,4.725455E2,2.4545002E3],"split_indices":[5,5,0,5,0,8,8,0,0,0,0,0,0,0,0],"split_type":[0,0,0,0,0,0,0,0,0,0,0,0,0,0,0],"sum_hessian":[1.0462E4,9.967E3,4.95E2,6.204E3,3.763E3,4.08E2,8.7E1,3.221E3,2.983E3,3.287E3,4.76E2,3.2E1,3.76E2,1E1,7.7E1],"tree_param":{"num_deleted":"0","num_feature":"10","num_nodes":"15","size_leaf_vector":"1"}},{"base_weights":[-9.629001E1,-6.0006025E3,1.2059537E5,-1.4913289E4,9.319034E3,9.465848E4,1.9783808E5,-1.9772392E2,-6.748191E1,4.323827E1,4.5344543E2,-2.6135757E2,1.0323677E3,3.0430487E2,2.143022E3],"categories":[],"categories_nodes":[],"categories_segments":[],"categories_sizes":[],"default_left":[0,0,0,0,0,0,0,0,0,0,0,0,0,0,0],"id":69,"left_children":[1,3,5,7,9,11,13,-1,-1,-1,-1,-1,-1,-1,-1],"loss_changes":[7.4103516E12,1.3537879E12,9.5293905E11,2.4854974E11,6.560994E11,3.8091384E11,3.2698112E11,0E0,0E0,0E0,0E0,0E0,0E0,0E0,0E0],"parents":[2147483647,0,0,1,1,2,2,3,3,4,4,5,5,6,6],"right_children":[2,4,6,8,10,12,14,-1,-1,-1,-1,-1,-1,-1,-1],"split_conditions":[2.62032E5,1.476384E5,4.71872E5,1.234592E5,2.24456E5,-1.06112E5,-1.06112E5,-1.9772392E2,-6.748191E1,4.323827E1,4.5344543E2,-2.6135757E2,1.0323677E3,3.0430487E2,2.143022E3],"split_indices":[5,5,0,5,5,8,8,0,0,0,0,0,0,0,0],"split_type":[0,0,0,0,0,0,0,0,0,0,0,0,0,0,0],"sum_hessian":[1.0397E4,9.913E3,4.84E2,6.267E3,3.646E3,3.64E2,1.2E2,3.928E3,2.339E3,3.203E3,4.43E2,2.4E1,3.4E2,1.1E1,1.09E2],"tree_param":{"num_deleted":"0","num_feature":"10","num_nodes":"15","size_leaf_vector":"1"}},{"base_weights":[1.0015828E2,-5.692274E3,1.27061375E5,-1.4459189E4,1.0420774E4,9.706954E4,2.0186973E5,-1.9547874E2,-6.256612E1,4.7201252E1,4.576213E2,-2.624284E2,1.0310146E3,6.560417E2,2.178881E3],"categories":[],"categories_nodes":[],"categories_segments":[],"categories_sizes":[],"default_left":[0,0,0,0,0,0,0,0,0,0,0,0,0,0,0],"id":70,"left_children":[1,3,5,7,9,11,13,-1,-1,-1,-1,-1,-1,-1,-1],"loss_changes":[7.6519734E12,1.4058462E12,9.990177E11,2.688942E11,7.063347E11,2.45188E11,2.6728097E11,0E0,0E0,0E0,0E0,0E0,0E0,0E0,0E0],"parents":[2147483647,0,0,1,1,2,2,3,3,4,4,5,5,6,6],"right_children":[2,4,6,8,10,12,14,-1,-1,-1,-1,-1,-1,-1,-1],"split_conditions":[3.12648E5,1.48792E5,4.71872E5,1.239296E5,2.24456E5,-1.06112E5,-1.06112E5,-1.9547874E2,-6.256612E1,4.7201252E1,4.576213E2,-2.624284E2,1.0310146E3,6.560417E2,2.178881E3],"split_indices":[5,5,0,5,5,8,8,0,0,0,0,0,0,0,0],"split_type":[0,0,0,0,0,0,0,0,0,0,0,0,0,0,0],"sum_hessian":[1.0403E4,9.95E3,