{"learner":{"attributes":{"best_iteration":"305","best_score":"3427984.040299278","scikit_learn":"{\"_estimator_type\": \"regressor\"}"},"feature_names":["throughput_bps","is_burst","consecutive_steady_sec","lag_1","lag_5","lag_10","lag_15","lag_30","lag_60","lag_120","lag_300","lag_450","lag_600","delta_1s","delta_5s","delta_10s","roll_mean_10s","roll_std_10s","roll_max_10s","roll_mean_30s","roll_std_30s","roll_mean_60s","roll_std_60s","ema_5s","ema_15s","ema_cross","hour_sin","hour_cos","min_sin","min_cos","dow_sin","dow_cos"],"feature_types":["float","int","int","float","float","float","float","float","float","float","float","float","float","float","float","float","float","float","float","float","float","float","float","float","float","float","float","float","float","float","float","float"],"gradient_booster":{"model":{"gbtree_model_param":{"num_parallel_tree":"1","num_trees":"346"},"iteration_indptr":[0,1,2,3,4,5,6,7,8,9,10,11,12,13,14,15,16,17,18,19,20,21,22,23,24,25,26,27,28,29,30,31,32,33,34,35,36,37,38,39,40,41,42,43,44,45,46,47,48,49,50,51,52,53,54,55,56,57,58,59,60,61,62,63,64,65,66,67,68,69,70,71,72,73,74,75,76,77,78,79,80,81,82,83,84,85,86,87,88,89,90,91,92,93,94,95,96,97,98,99,100,101,102,103,104,105,106,107,108,109,110,111,112,113,114,115,116,117,118,119,120,121,122,123,124,125,126,127,128,129,130,131,132,133,134,135,136,137,138,139,140,141,142,143,144,145,146,147,148,149,150,151,152,153,154,155,156,157,158,159,160,161,162,163,164,165,166,167,168,169,170,171,172,173,174,175,176,177,178,179,180,181,182,183,184,185,186,187,188,189,190,191,192,193,194,195,196,197,198,199,200,201,202,203,204,205,206,207,208,209,210,211,212,213,214,215,216,217,218,219,220,221,222,223,224,225,226,227,228,229,230,231,232,233,234,235,236,237,238,239,240,241,242,243,244,245,246,247,248,249,250,251,252,253,254,255,256,257,258,259,260,261,262,263,264,265,266,267,268,269,270,271,272,273,274,275,276,277,278,279,280,281,282,283,284,285,286,287,288,289,290,291,292,293,294,295,296,297,298,299,300,301,302,303,304,305,306,307,308,309,310,311,312,313,314,315,316,317,318,319,320,321,322,323,324,325,326,327,328,329,330,331,332,333,334,335,336,337,338,339,340,341,342,343,344,345,346],"tree_info":[0,0,0,0,0,0,0,0,0,0,0,0,0,0,0,0,0,0,0,0,0,0,0,0,0,0,0,0,0,0,0,0,0,0,0,0,0,0,0,0,0,0,0,0,0,0,0,0,0,0,0,0,0,0,0,0,0,0,0,0,0,0,0,0,0,0,0,0,0,0,0,0,0,0,0,0,0,0,0,0,0,0,0,0,0,0,0,0,0,0,0,0,0,0,0,0,0,0,0,0,0,0,0,0,0,0,0,0,0,0,0,0,0,0,0,0,0,0,0,0,0,0,0,0,0,0,0,0,0,0,0,0,0,0,0,0,0,0,0,0,0,0,0,0,0,0,0,0,0,0,0,0,0,0,0,0,0,0,0,0,0,0,0,0,0,0,0,0,0,0,0,0,0,0,0,0,0,0,0,0,0,0,0,0,0,0,0,0,0,0,0,0,0,0,0,0,0,0,0,0,0,0,0,0,0,0,0,0,0,0,0,0,0,0,0,0,0,0,0,0,0,0,0,0,0,0,0,0,0,0,0,0,0,0,0,0,0,0,0,0,0,0,0,0,0,0,0,0,0,0,0,0,0,0,0,0,0,0,0,0,0,0,0,0,0,0,0,0,0,0,0,0,0,0,0,0,0,0,0,0,0,0,0,0,0,0,0,0,0,0,0,0,0,0,0,0,0,0,0,0,0,0,0,0,0,0,0,0,0,0,0,0,0,0,0,0,0,0,0,0,0,0,0,0,0,0,0,0,0,0,0,0,0,0,0,0,0,0,0,0,0,0,0,0,0,0],"trees":[{"base_weights":[3.0671244E4,-7.260684E6,1.5958963E7,-7.8262465E6,-3.207428E6,1.2130333E7,1.7026544E7,-8.592167E6,-7.069831E6,-3.595333E6,1.9795875E5,1.4194002E7,7.4609595E6,1.5255153E7,1.7589744E7,-8.670337E6,6.645452E4,-7.1213135E6,-2.3673525E6,-4.4258615E6,-2.6882478E6,1.2473586E7,1.4630976E7,-3.481591E4,1.2604009E7,1.6210053E7,1.1366099E7,1.3010317E7,1.7751244E7,-3.013459E6,-8.7465E6,-7.3212345E6,-5.826653E6,8.9147195E4,-1.0051513E5,-4.714027E6,-3.7203648E6,-2.9058018E6,9.523256E5,9.463245E6,1.7497603E5,1.3784144E7,2.0515883E5,-2.4143362E6,1.4687125E5,4.255703E4,1.3578674E7,1.2758863E7,1.6483092E7,2.1057566E4,1.3034252E7,1.60574E7,7.396803E4,1.6837922E7,1.8269916E7,6.847208E4,-9.976333E4,-7.3577415E6,-8.962928E6,-6.958601E6,-8.0127825E6,-1.225415E4,-5.961923E6,-4.527815E6,-9.759525E4,-5.6805996E4,-4.334143E4,-2.7511452E6,-9.103991E4,4.884611E4,-2.5069004E4,9.818616E4,1.5148856E5,1.246327E5,1.4069062E7,-5.20108E6,6.1728414E4,1.0307952E5,1.8479183E5,2.0473225E5,6.1197332E4,2.334621E5,1.5969524E7,9.623464E4,1.3799623E7,2.4316823E5,1.2882202E7,1.4242878E7,1.7317882E7,2.2383314E5,1.8680692E7,-3.4619387E4,-9.744617E4,-9.5677336E4,-1.179398E5,-7.796728E4,-9.444957E4,-1.0779095E5,-8.5713055E4,-5.1532633E4,-7.822242E4,-5.597144E4,-7.076716E4,-3.83862E4,-1.4435241E4,1.2929155E5,1.8472342E5,-8.9976414E4,-3.1384469E4,1.2540135E5,2.0867017E5,1.9168281E5,1.346555E5,1.9756811E5,1.27668445E5,6.878811E4,1.9641467E5,2.1511477E5,2.3333412E5,2.4217047E5,1.8428427E5],"categories":[],"categories_nodes":[],"categories_segments":[],"categories_sizes":[],"default_left":[0,0,0,0,0,0,0,0,0,0,0,0,0,0,0,0,0,0,0,0,0,0,0,0,0,0,0,0,0,0,0,0,0,0,0,0,0,0,0,0,0,0,0,0,0,0,0,0,0,0,0,0,0,0,0,0,0,0,0,0,0,0,0,0,0,0,0,0,0,0,0,0,0,0,0,0,0,0,0,0,0,0,0,0,0,0,0,0,0,0,0,0,0,0,0,0,0,0,0,0,0,0,0,0,0,0,0,0,0,0,0,0,0,0,0,0,0,0,0,0,0],"id":0,"left_children":[1,3,5,7,9,11,13,15,17,19,-1,21,23,25,27,29,-1,31,33,35,37,39,41,43,45,47,49,51,53,55,57,59,61,-1,-1,63,65,67,69,71,-1,73,-1,75,-1,-1,77,79,81,-1,83,85,-1,87,89,-1,-1,91,93,95,97,-1,99,101,-1,-1,-1,103,-1,-1,-1,-1,-1,-1,105,107,-1,-1,-1,-1,-1,-1,109,-1,111,-1,113,115,117,-1,119,-1,-1,-1,-1,-1,-1,-1,-1,-1,-1,-1,-1,-1,-1,-1,-1,-1,-1,-1,-1,-1,-1,-1,-1,-1,-1,-1,-1,-1,-1],"loss_changes":[1.0487767E18,1.4183219E16,1.1448734E16,3.1074947E15,5.5059473E15,5.9082687E15,2.0263312E15,2.9290646E15,6.5146064E14,5.5285034E14,0E0,1.9777465E14,7.390028E15,1.8777683E15,1.0815415E15,1.137754E15,0E0,6.718188E14,1.5819217E15,6.6779762E13,2.8519442E14,2.1347813E14,2.153153E14,2.1574852E15,1.00024205E15,2.6243968E14,1.7501219E15,1.2599727E15,5.5525337E14,1.4696856E15,7.502621E14,5.4948094E14,2.3733775E14,0E0,0E0,1.2134142E14,1.8327028E13,2.0355004E14,1.7487761E14,5.1337744E13,0E0,1.517326E14,0E0,1.3351001E15,0E0,0E0,3.508881E14,8.1406864E14,1.32018705E14,0E0,3.2467913E14,2.0339355E14,0E0,5.7140245E14,1.6259028E14,0E0,0E0,3.1895716E14,5.935301E14,4.8304638E14,3.394742E14,0E0,5.5294483E13,3.0169998E13,0E0,0E0,0E0,1.1767969E14,0E0,0E0,0E0,0E0,0E0,0E0,9.963036E13,2.2262117E14,0E0,0E0,0E0,0E0,0E0,0E0,2.939905E14,0E0,1.8137325E14,0E0,5.354643E13,7.932654E14,3.946216E13,0E0,1.0799266E14,0E0,0E0,0E0,0E0,0E0,0E0,0E0,0E0,0E0,0E0,0E0,0E0,0E0,0E0,0E0,0E0,0E0,0E0,0E0,0E0,0E0,0E0,0E0,0E0,0E0,0E0,0E0,0E0,0E0,0E0],"parents":[2147483647,0,0,1,1,2,2,3,3,4,4,5,5,6,6,7,7,8,8,9,9,11,11,12,12,13,13,14,14,15,15,17,17,18,18,19,19,20,20,21,21,22,22,23,23,24,24,25,25,26,26,27,27,28,28,29,29,30,30,31,31,32,32,35,35,36,36,37,37,38,38,39,39,41,41,43,43,46,46,47,47,48,48,50,50,51,51,53,53,54,54,57,57,58,58,59,59,60,60,62,62,63,63,67,67,74,74,75,75,82,82,84,84,86,86,87,87,88,88,90,90],"right_children":[2,4,6,8,10,12,14,16,18,20,-1,22,24,26,28,30,-1,32,34,36,38,40,42,44,46,48,50,52,54,56,58,60,62,-1,-1,64,66,68,70,72,-1,74,-1,76,-1,-1,78,80,82,-1,84,86,-1,88,90,-1,-1,92,94,96,98,-1,100,102,-1,-1,-1,104,-1,-1,-1,-1,-1,-1,106,108,-1,-1,-1,-1,-1,-1,110,-1,112,-1,114,116,118,-1,120,-1,-1,-1,-1,-1,-1,-1,-1,-1,-1,-1,-1,-1,-1,-1,-1,-1,-1,-1,-1,-1,-1,-1,-1,-1,-1,-1,-1,-1,-1],"split_conditions":[1.0603056E7,5.37592E6,2.7617184E7,1.738144E6,2.3967414E7,2.5506096E7,2.633647E7,8.98E2,9.945219E-1,6.810782E6,1.9795875E5,3.100021E6,2.6521264E7,2.7617184E7,2.2188038E6,4.348476E5,6.645452E4,3.52832E6,8.300719E5,9.5384706E5,1.3058752E7,2.128832E6,9.87456E5,2.6175184E7,2.5931656E7,4.57216E5,2.6061244E7,2.5881904E-1,1.05504375E5,1.4078042E5,1.322496E6,2.1503058E6,7.65272E5,8.9147195E4,-1.0051513E5,2.889768E7,5.765623E6,4.03E2,2.3810304E7,3.193248E6,1.7497603E5,4.39168E5,2.0515883E5,2.5774098E6,1.4687125E5,4.255703E4,2.0684048E7,4.15296E5,-1.1949352E6,2.1057566E4,-9.5105654E-1,9.945219E-1,7.396803E4,6.67296E5,2.8412792E7,6.847208E4,-9.976333E4,4.36128E5,-8.09017E-1,5.0161738E5,6.856619E5,-1.225415E4,-9.135454E-1,2.43E2,-9.759525E4,-5.6805996E4,-4.334143E4,3.12E2,-9.103991E4,4.884611E4,-2.5069004E4,9.818616E4,1.5148856E5,1.246327E5,5.49472E5,2.612904E7,6.1728414E4,1.0307952E5,1.8479183E5,2.0473225E5,6.1197332E4,2.334621E5,2.3020832E7,9.623464E4,1.741936E6,2.4316823E5,-6.3448E5,3.34048E5,2.9497552E7,2.2383314E5,3.2370016E7,-3.4619387E4,-9.744617E4,-9.5677336E4,-1.179398E5,-7.796728E4,-9.444957E4,-1.0779095E5,-8.5713055E4,-5.1532633E4,-7.822242E4,-5.597144E4,-7.076716E4,-3.83862E4,-1.4435241E4,1.2929155E5,1.8472342E5,-8.9976414E4,-3.1384469E4,1.2540135E5,2.0867017E5,1.9168281E5,1.346555E5,1.9756811E5,1.27668445E5,6.878811E4,1.9641467E5,2.1511477E5,2.3333412E5,2.4217047E5,1.8428427E5],"split_indices":[0,3,18,0,24,8,24,2,28,23,0,20,18,9,22,19,0,0,22,22,3,11,9,5,21,12,21,26,25,20,8,21,6,0,0,11,23,2,3,8,0,6,0,17,0,0,9,12,25,0,28,29,0,12,23,0,0,10,28,20,17,0,28,2,0,0,0,2,0,0,0,0,0,0,8,18,0,0,0,0,0,0,23,0,13,0,13,11,5,0,3,0,0,0,0,0,0,0,0,0,0,0,0,0,0,0,0,0,0,0,0,0,0,0,0,0,0,0,0,0,0],"split_type":[0,0,0,0,0,0,0,0,0,0,0,0,0,0,0,0,0,0,0,0,0,0,0,0,0,0,0,0,0,0,0,0,0,0,0,0,0,0,0,0,0,0,0,0,0,0,0,0,0,0,0,0,0,0,0,0,0,0,0,0,0,0,0,0,0,0,0,0,0,0,0,0,0,0,0,0,0,0,0,0,0,0,0,0,0,0,0,0,0,0,0,0,0,0,0,0,0,0,0,0,0,0,0,0,0,0,0,0,0,0,0,0,0,0,0,0,0,0,0,0,0],"sum_hessian":[9.029E3,6.194E3,2.835E3,5.435E3,7.59E2,6.2E2,2.215E3,2.697E3,2.738E3,7.44E2,1.5E1,4.29E2,1.91E2,5.39E2,1.676E3,2.682E3,1.5E1,2.708E3,3E1,3.87E2,3.57E2,9.1E1,3.38E2,7.8E1,1.13E2,4.31E2,1.08E2,5.9E1,1.617E3,3.6E1,2.646E3,2.343E3,3.65E2,1.1E1,1.9E1,2.72E2,1.15E2,3.37E2,2E1,2.6E1,6.5E1,2.08E2,1.3E2,6.5E1,1.3E1,1.1E1,1.02E2,3.4E1,3.97E2,1.6E1,9.2E1,4.1E1,1.8E1,5.94E2,1.023E3,1.3E1,2.3E1,3.6E2,2.286E3,1.542E3,8.01E2,1E1,3.55E2,2.57E2,1.5E1,3.7E1,7.8E1,3.26E2,1.1E1,1E1,1E1,1.6E1,1E1,1.5E1,1.93E2,4.7E1,1.8E1,1.3E1,8.9E1,2.4E1,1E1,9E1,3.07E2,1.2E1,8E1,2E1,2.1E1,9.6E1,4.98E2,3.26E2,6.97E2,1.5E1,3.45E2,2.43E2,2.043E3,4.43E2,1.099E3,6.37E2,1.64E2,1.9E1,3.36E2,2.18E2,3.9E1,2.86E2,4E1,1.3E1,1.8E2,2.8E1,1.9E1,1.1E1,2.96E2,5.9E1,2.1E1,1E1,1.1E1,1E1,8.6E1,2.81E2,2.17E2,6.8E2,1.7E1],"tree_param":{"num_deleted":"0","num_feature":"32","num_nodes":"121","size_leaf_vector":"1"}},{"base_weights":[-8.565256E3,-7.1805115E6,1.5758988E7,-7.7383495E6,-3.1685068E6,1.194378E7,1.680927E7,-8.495659E6,-6.985466E6,-3.5521555E6,1.9551722E5,1.3942524E7,7.4122485E6,1.5056247E7,1.7370748E7,-8.572487E6,6.56349E4,-7.0364135E6,-2.337073E6,-4.3658815E6,-2.6560795E6,1.2111864E7,1.4411369E7,-2.8385437E3,1.2413287E7,1.5985588E7,1.1252864E7,1.2931873E7,1.753059E7,-2.9751775E6,-8.647425E6,-7.234271E6,-5.7486365E6,8.8064914E4,-9.92639E4,-4.652085E6,-3.6628902E6,-2.872305E6,9.408315E5,8.51176E6,1.7274278E5,1.3557565E7,2.0292231E5,-2.4205778E6,1.4507192E5,4.2040375E4,1.3381508E7,1.2912247E7,1.6336222E7,2.0797133E4,1.2905104E7,1.5905685E7,7.304904E4,1.6617093E7,1.804886E7,6.763322E4,-9.851388E4,-7.1065335E6,-8.827253E6,-6.883463E6,-7.9052495E6,-1.210625E4,-5.882812E6,-4.4599915E6,-9.363183E4,-5.608937E4,-4.276412E4,-2.7186452E6,-8.993465E4,4.8256562E4,-2.4766434E4,1.3082348E5,7.184884E4,1.19137305E5,1.3885132E7,-4.939006E6,8.013213E4,1.0181668E5,1.8217981E5,1.5578661E7,1.05787945E5,1.3487242E7,1.6575869E7,1.3754789E7,7.0961305E4,2.3966397E5,1.2726342E7,1.3907965E7,1.7084072E7,2.2138411E5,1.8442014E7,-2.1797416E4,-9.498367E4,-9.611087E4,-1.1587575E5,-7.687205E4,-9.348235E4,-1.0732355E5,-8.773517E4,-5.0891137E4,-7.71898E4,-5.509231E4,-6.9870195E4,-3.7954133E4,-1.42559795E4,1.2770757E5,1.8233638E5,-9.7883586E4,-4.216549E4,2.273809E5,1.3930242E5,1.3521584E5,2.0375697E5,1.9915895E5,2.2689556E5,1.0628654E5,1.8730328E5,1.9518355E5,1.2611851E5,6.795786E4,1.9261489E5,2.1237036E5,2.2992561E5,2.3907628E5,1.8199962E5],"categories":[],"categories_nodes":[],"categories_segments":[],"categories_sizes":[],"default_left":[0,0,0,0,0,0,0,0,0,0,0,0,0,0,0,0,0,0,0,0,0,0,0,0,0,0,0,0,0,0,0,0,0,0,0,0,0,0,0,0,0,0,0,0,0,0,0,0,0,0,0,0,0,0,0,0,0,0,0,0,0,0,0,0,0,0,0,0,0,0,0,0,0,0,0,0,0,0,0,0,0,0,0,0,0,0,0,0,0,0,0,0,0,0,0,0,0,0,0,0,0,0,0,0,0,0,0,0,0,0,0,0,0,0,0,0,0,0,0,0,0,0,0,0,0],"id":1,"left_children":[1,3,5,7,9,11,13,15,17,19,-1,21,23,25,27,29,-1,31,33,35,37,39,41,43,45,47,49,51,53,55,57,59,61,-1,-1,63,65,67,69,71,-1,73,-1,75,-1,-1,77,79,81,-1,83,85,-1,87,89,-1,-1,91,93,95,97,-1,99,101,-1,-1,-1,103,-1,-1,-1,-1,-1,-1,105,107,-1,-1,-1,109,-1,111,113,115,-1,-1,117,119,121,-1,123,-1,-1,-1,-1,-1,-1,-1,-1,-1,-1,-1,-1,-1,-1,-1,-1,-1,-1,-1,-1,-1,-1,-1,-1,-1,-1,-1,-1,-1,-1,-1,-1,-1,-1],"loss_changes":[1.020965E18,1.3871782E16,1.1172894E16,3.0653353E15,5.371487E15,5.469349E15,1.997469E15,2.861101E15,6.3659146E14,5.343079E14,0E0,2.4385106E14,6.997105E15,1.7912075E15,1.0297957E15,1.1138912E15,0E0,6.60858E14,1.5432383E15,6.6508105E13,2.7848729E14,3.4006585E14,2.3014582E14,2.1046259E15,9.687932E14,3.225864E14,1.7169046E15,1.2498688E15,5.5673084E14,1.4334291E15,6.9446185E14,5.14099E14,2.309275E14,0E0,0E0,1.1485816E14,1.7659563E13,1.9850077E14,1.7068172E14,8.446013E13,0E0,2.0591362E14,0E0,1.4057643E15,0E0,0E0,3.3822653E14,5.1122566E14,1.1057823E14,0E0,5.3110384E14,2.0087347E14,0E0,5.8547276E14,1.3737023E14,0E0,0E0,3.847303E14,4.676704E14,4.8982384E14,3.278735E14,0E0,5.3593676E13,3.0450781E13,0E0,0E0,0E0,1.151164E14,0E0,0E0,0E0,0E0,0E0,0E0,9.620727E13,2.0284607E14,0E0,0E0,0E0,1.6020819E14,0E0,1.201152E14,2.2124236E14,2.6768598E14,0E0,0E0,5.2310017E13,7.4971446E14,2.896526E13,0E0,1.04367705E14,0E0,0E0,0E0,0E0,0E0,0E0,0E0,0E0,0E0,0E0,0E0,0E0,0E0,0E0,0E0,0E0,0E0,0E0,0E0,0E0,0E0,0E0,0E0,0E0,0E0,0E0,0E0,0E0,0E0,0E0,0E0,0E0,0E0,0E0],"parents":[2147483647,0,0,1,1,2,2,3,3,4,4,5,5,6,6,7,7,8,8,9,9,11,11,12,12,13,13,14,14,15,15,17,17,18,18,19,19,20,20,21,21,22,22,23,23,24,24,25,25,26,26,27,27,28,28,29,29,30,30,31,31,32,32,35,35,36,36,37,37,38,38,39,39,41,41,43,43,46,46,47,47,48,48,50,50,51,51,53,53,54,54,57,57,58,58,59,59,60,60,62,62,63,63,67,67,74,74,75,75,79,79,81,81,82,82,83,83,86,86,87,87,88,88,90,90],"right_children":[2,4,6,8,10,12,14,16,18,20,-1,22,24,26,28,30,-1,32,34,36,38,40,42,44,46,48,50,52,54,56,58,60,62,-1,-1,64,66,68,70,72,-1,74,-1,76,-1,-1,78,80,82,-1,84,86,-1,88,90,-1,-1,92,94,96,98,-1,100,102,-1,-1,-1,104,-1,-1,-1,-1,-1,-1,106,108,-1,-1,-1,110,-1,112,114,116,-1,-1,118,120,122,-1,124,-1,-1,-1,-1,-1,-1,-1,-1,-1,-1,-1,-1,-1,-1,-1,-1,-1,-1,-1,-1,-1,-1,-1,-1,-1,-1,-1,-1,-1,-1,-1,-1,-1,-1],"split_conditions":[1.0603056E7,5.37592E6,2.7617184E7,1.738144E6,2.4564758E7,2.5506096E7,2.633647E7,8.98E2,9.945219E-1,6.810782E6,1.9551722E5,3.100021E6,2.6521264E7,2.7617184E7,2.2188038E6,4.348476E5,6.56349E4,3.52832E6,8.300719E5,9.5384706E5,1.3058752E7,2.128832E6,9.87456E5,2.6175184E7,2.5931656E7,5.05648E5,2.6061244E7,2.5881904E-1,1.05504375E5,1.4078042E5,1.0504E6,2.1503058E6,7.65272E5,8.8064914E4,-9.92639E4,2.889768E7,5.765623E6,4.03E2,2.3810304E7,1.65312E5,1.7274278E5,4.39168E5,2.0292231E5,4.0673664E-1,1.4507192E5,4.2040375E4,2.0684048E7,2.9509088E7,9.863237E6,2.0797133E4,8.808752E6,9.945219E-1,7.304904E4,6.67296E5,2.8412792E7,6.763322E4,-9.851388E4,4.36128E5,-8.09017E-1,5.0161738E5,3.213312E6,-1.210625E4,-9.135454E-1,2.43E2,-9.363183E4,-5.608937E4,-4.276412E4,3.12E2,-8.993465E4,4.8256562E4,-2.4766434E4,1.3082348E5,7.184884E4,1.19137305E5,5.49472E5,2.5931656E7,8.013213E4,1.0181668E5,1.8217981E5,8.7392944E5,1.05787945E5,2.5214456E7,4.3079055E6,-9.5105654E-1,7.0961305E4,2.3966397E5,-6.3448E5,3.34048E5,2.9497552E7,2.2138411E5,3.2370016E7,-2.1797416E4,-9.498367E4,-9.611087E4,-1.1587575E5,-7.687205E4,-9.348235E4,-1.0732355E5,-8.773517E4,-5.0891137E4,-7.71898E4,-5.509231E4,-6.9870195E4,-3.7954133E4,-1.42559795E4,1.2770757E5,1.8233638E5,-9.7883586E4,-4.216549E4,2.273809E5,1.3930242E5,1.3521584E5,2.0375697E5,1.9915895E5,2.2689556E5,1.0628654E5,1.8730328E5,1.9518355E5,1.2611851E5,6.795786E4,1.9261489E5,2.1237036E5,2.2992561E5,2.3907628E5,1.8199962E5],"split_indices":[0,3,18,0,16,8,24,2,28,23,0,20,18,9,22,19,0,0,22,22,3,11,9,5,21,12,21,26,25,20,8,21,6,0,0,11,23,2,3,15,0,6,0,28,0,0,9,18,21,0,13,29,0,12,23,0,0,10,28,20,18,0,28,2,0,0,0,2,0,0,0,0,0,0,8,21,0,0,0,25,0,16,20,28,0,0,13,11,5,0,3,0,0,0,0,0,0,0,0,0,0,0,0,0,0,0,0,0,0,0,0,0,0,0,0,0,0,0,0,0,0,0,0,0,0],"split_type":[0,0,0,0,0,0,0,0,0,0,0,0,0,0,0,0,0,0,0,0,0,0,0,0,0,0,0,0,0,0,0,0,0,0,0,0,0,0,0,0,0,0,0,0,0,0,0,0,0,0,0,0,0,0,0,0,0,0,0,0,0,0,0,0,0,0,0,0,0,0,0,0,0,0,0,0,0,0,0,0,0,0,0,0,0,0,0,0,0,0,0,0,0,0,0,0,0,0,0,0,0,0,0,0,0,0,0,0,0,0,0,0,0,0,0,0,0,0,0,0,0,0,0,0,0],"sum_hessian":[9.027E3,6.205E3,2.822E3,5.447E3,7.58E2,6.11E2,2.211E3,2.712E3,2.735E3,7.43E2,1.5E1,4.23E2,1.88E2,5.41E2,1.67E3,2.697E3,1.5E1,2.705E3,3E1,3.88E2,3.55E2,9E1,3.33E2,7.6E1,1.12E2,4.33E2,1.08E2,6E1,1.61E3,3.6E1,2.661E3,2.342E3,3.63E2,1.1E1,1.9E1,2.73E2,1.15E2,3.35E2,2E1,2.5E1,6.5E1,2.07E2,1.26E2,6.3E1,1.3E1,1.1E1,1.01E2,4.7E1,3.86E2,1.6E1,9.2E1,4.2E1,1.8E1,5.91E2,1.019E3,1.3E1,2.3E1,2.81E2,2.38E3,1.543E3,7.99E2,1E1,3.53E2,2.56E2,1.7E1,3.6E1,7.9E1,3.24E2,1.1E1,1E1,1E1,1.5E1,1E1,1.6E1,1.91E2,4.9E1,1.4E1,1.3E1,8.8E1,2.9E1,1.8E1,3.3E1,3.53E2,8.2E1,1E1,2.1E1,2.1E1,9E1,5.01E2,3.23E2,6.96E2,1.3E1,2.68E2,2.47E2,2.133E3,4.4E2,1.103E3,5.77E2,2.22E2,1.9E1,3.34E2,2.17E2,3.9E1,2.84E2,4E1,1.3E1,1.78E2,1.8E1,3.1E1,1.9E1,1E1,1.6E1,1.7E1,1.72E2,1.81E2,1.1E1,7.1E1,1E1,1.1E1,1E1,8E1,2.82E2,2.19E2,6.79E2,1.7E1],"tree_param":{"num_deleted":"0","num_feature":"32","num_nodes":"125","size_leaf_vector":"1"}},{"base_weights":[-6.238992E3,-7.0785425E6,1.5555785E7,-7.6300405E6,-3.11347E6,1.2800744E7,1.7031024E7,-8.3726735E6,-6.8898435E6,-3.492575E6,1.931058E5,1.4160613E7,7.603233E6,1.2030604E7,1.720447E7,-8.448482E6,6.4825383E4,-6.9402185E6,-2.30718E6,-4.316695E6,-2.59242E6,5.3821254E4,1.4326231E7,-1.483454E6,1.1441233E7,1.5709555E7,4.4083985E6,1.6522306E7,1.7935588E7,-2.5712572E6,-8.522865E6,-7.13735E6,-5.6697075E6,8.699577E4,-9.8028234E4,-4.6041845E6,-3.6159242E6,-2.8182768E6,1.769797E4,1.3525141E7,1.5890938E7,-4.569275E6,1.546147E5,4.865992E6,1.2990405E7,2.3667062E5,1.2572367E7,-7.055173E4,1.9254084E5,1.3175797E7,1.6679412E7,1.624256E7,1.8165736E7,6.680464E4,-9.520465E4,-7.250812E6,-8.722132E6,-6.792016E6,-7.7947805E6,-1.1960136E4,-5.8012495E6,-4.413635E6,-9.247103E4,-5.5299855E4,-4.2248176E4,-2.6807495E6,-8.8407586E4,1.380828E7,8.0242415E6,1.4647869E7,2.2154919E5,-6.32578E6,6.4041323E3,1.6637764E5,-7.6921375E4,9.197734E4,1.3741573E7,1.9243984E5,1.2494211E5,8.651597E6,2.1411281E5,1.6271997E7,2.2840456E5,1.4157336E5,1.6886008E7,2.3533647E5,1.9049753E5,-6.96316E4,-9.707661E4,-9.304006E4,-1.1474479E5,-7.639721E4,-9.200158E4,-1.0487924E5,-8.324781E4,-4.3930938E4,-7.581471E4,-5.452669E4,-6.898461E4,-3.747472E4,-1.4071414E4,1.5666944E5,1.8289848E5,1.5352475E5,3.9980586E4,2.0003972E5,1.1259079E5,-9.301409E4,-5.6890336E4,1.3586412E5,1.8611664E5,5.7167758E4,1.5884022E5,2.0211878E5,2.167667E5,2.2483505E5,1.724945E5],"categories":[],"categories_nodes":[],"categories_segments":[],"categories_sizes":[],"default_left":[0,0,0,0,0,0,0,0,0,0,0,0,0,0,0,0,0,0,0,0,0,0,0,0,0,0,0,0,0,0,0,0,0,0,0,0,0,0,0,0,0,0,0,0,0,0,0,0,0,0,0,0,0,0,0,0,0,0,0,0,0,0,0,0,0,0,0,0,0,0,0,0,0,0,0,0,0,0,0,0,0,0,0,0,0,0,0,0,0,0,0,0,0,0,0,0,0,0,0,0,0,0,0,0,0,0,0,0,0,0,0,0,0,0,0,0,0],"id":2,"left_children":[1,3,5,7,9,11,13,15,17,19,-1,21,23,25,27,29,-1,31,33,35,37,-1,39,41,43,45,47,49,51,53,55,57,59,-1,-1,61,63,65,-1,67,69,71,-1,73,75,-1,77,-1,-1,79,81,83,85,-1,-1,87,89,91,93,-1,95,97,-1,-1,-1,99,-1,101,103,105,-1,107,-1,-1,-1,-1,109,-1,-1,111,-1,113,-1,-1,115,-1,-1,-1,-1,-1,-1,-1,-1,-1,-1,-1,-1,-1,-1,-1,-1,-1,-1,-1,-1,-1,-1,-1,-1,-1,-1,-1,-1,-1,-1,-1,-1],"loss_changes":[9.9178595E17,1.353193E16,1.1294321E16,2.950024E15,5.230776E15,6.885812E15,1.446545E15,2.7834996E15,6.187072E14,5.432715E14,0E0,1.2487016E15,7.184896E15,1.738344E15,6.787766E14,1.1638674E15,0E0,6.4787864E14,1.5055009E15,6.6477504E13,3.2204094E14,0E0,8.1351835E14,2.6018482E15,1.4304174E15,1.9520948E14,2.309642E15,3.3485283E14,1.2702795E14,1.3194291E15,6.315148E14,4.932684E14,2.2443352E14,0E0,0E0,1.1108772E14,1.680312E13,1.7483201E14,0E0,7.2091026E14,2.36133E14,4.531677E14,0E0,2.5485965E15,4.4631367E14,0E0,4.771977E13,0E0,0E0,5.938281E14,1.7112868E14,2.3768134E14,1.6767552E13,0E0,0E0,1.5836403E14,5.6028707E14,4.2574722E14,3.244676E14,0E0,5.1711406E13,2.8784334E13,0E0,0E0,0E0,1.149046E14,0E0,1.8213238E14,4.8442037E14,5.939231E14,0E0,4.209511E13,0E0,0E0,0E0,0E0,1.2244737E14,0E0,0E0,2.8230216E14,0E0,2.4464134E13,0E0,0E0,2.1549998E13,0E0,0E0,0E0,0E0,0E0,0E0,0E0,0E0,0E0,0E0,0E0,0E0,0E0,0E0,0E0,0E0,0E0,0E0,0E0,0E0,0E0,0E0,0E0,0E0,0E0,0E0,0E0,0E0,0E0,0E0,0E0,0E0],"parents":[2147483647,0,0,1,1,2,2,3,3,4,4,5,5,6,6,7,7,8,8,9,9,11,11,12,12,13,13,14,14,15,15,17,17,18,18,19,19,20,20,22,22,23,23,24,24,25,25,26,26,27,27,28,28,29,29,30,30,31,31,32,32,35,35,36,36,37,37,39,39,40,40,41,41,43,43,44,44,46,46,49,49,50,50,51,51,52,52,55,55,56,56,57,57,58,58,60,60,61,61,65,65,67,67,68,68,69,69,71,71,76,76,79,79,81,81,84,84],"right_children":[2,4,6,8,10,12,14,16,18,20,-1,22,24,26,28,30,-1,32,34,36,38,-1,40,42,44,46,48,50,52,54,56,58,60,-1,-1,62,64,66,-1,68,70,72,-1,74,76,-1,78,-1,-1,80,82,84,86,-1,-1,88,90,92,94,-1,96,98,-1,-1,-1,100,-1,102,104,106,-1,108,-1,-1,-1,-1,110,-1,-1,112,-1,114,-1,-1,116,-1,-1,-1,-1,-1,-1,-1,-1,-1,-1,-1,-1,-1,-1,-1,-1,-1,-1,-1,-1,-1,-1,-1,-1,-1,-1,-1,-1,-1,-1,-1,-1],"split_conditions":[1.0603056E7,5.37592E6,2.590373E7,1.738144E6,2.4564758E7,2.6925024E7,2.2188038E6,8.98E2,9.945219E-1,6.810782E6,1.931058E5,1.8767E5,2.6521264E7,2.5881904E-1,2.8412792E7,4.348476E5,6.4825383E4,3.52832E6,8.300719E5,9.5384706E5,1.3058752E7,5.3821254E4,2.832088E7,2.6175184E7,2.6061244E7,9.945219E-1,2.8951972E7,3.34048E5,1.0770043E4,1.4078042E5,1.322496E6,2.1503058E6,7.65272E5,8.699577E4,-9.8028234E4,2.889768E7,5.765623E6,4.03E2,1.769797E4,2.8655424E7,2.6175184E7,4.0890412E6,1.546147E5,8.35824E5,-9.5105654E-1,2.3667062E5,6.55872E5,-7.055173E4,1.9254084E5,6.67296E5,4.303707E6,7.29472E5,3.2370016E7,6.680464E4,-9.520465E4,-9.5105654E-1,-8.09017E-1,5.0161738E5,6.856619E5,-1.1960136E4,-9.5105654E-1,2.43E2,-9.247103E4,-5.5299855E4,-4.2248176E4,3.12E2,-8.8407586E4,3.100021E6,2.4883152E7,2.7201888E7,2.2154919E5,2.5632992E7,6.4041323E3,1.6637764E5,-7.6921375E4,9.197734E4,-8.660254E-1,1.9243984E5,1.2494211E5,2.137808E6,2.1411281E5,2.9866704E7,2.2840456E5,1.4157336E5,-4.8021926E4,2.3533647E5,1.9049753E5,-6.96316E4,-9.707661E4,-9.304006E4,-1.1474479E5,-7.639721E4,-9.200158E4,-1.0487924E5,-8.324781E4,-4.3930938E4,-7.581471E4,-5.452669E4,-6.898461E4,-3.747472E4,-1.4071414E4,1.5666944E5,1.8289848E5,1.5352475E5,3.9980586E4,2.0003972E5,1.1259079E5,-9.301409E4,-5.6890336E4,1.3586412E5,1.8611664E5,5.7167758E4,1.5884022E5,2.0211878E5,2.167667E5,2.2483505E5,1.724945E5],"split_indices":[0,3,24,0,16,9,22,2,28,23,0,11,18,26,23,19,0,0,22,22,3,0,18,5,21,29,21,11,25,20,8,21,6,0,0,11,23,2,0,8,6,20,0,10,28,0,15,0,0,12,22,12,3,0,0,29,28,20,17,0,28,2,0,0,0,2,0,20,0,8,0,4,0,0,0,0,29,0,0,10,0,18,0,0,25,0,0,0,0,0,0,0,0,0,0,0,0,0,0,0,0,0,0,0,0,0,0,0,0,0,0,0,0,0,0,0,0],"split_type":[0,0,0,0,0,0,0,0,0,0,0,0,0,0,0,0,0,0,0,0,0,0,0,0,0,0,0,0,0,0,0,0,0,0,0,0,0,0,0,0,0,0,0,0,0,0,0,0,0,0,0,0,0,0,0,0,0,0,0,0,0,0,0,0,0,0,0,0,0,0,0,0,0,0,0,0,0,0,0,0,0,0,0,0,0,0,0,0,0,0,0,0,0,0,0,0,0,0,0,0,0,0,0,0,0,0,0,0,0,0,0,0,0,0,0,0,0],"sum_hessian":[9.01E3,6.195E3,2.815E3,5.438E3,7.57E2,9.84E2,1.831E3,2.711E3,2.727E3,7.42E2,1.5E1,7.79E2,2.05E2,6.3E1,1.768E3,2.696E3,1.5E1,2.697E3,3E1,3.86E2,3.56E2,1.3E1,7.66E2,6.1E1,1.44E2,4.2E1,2.1E1,9.23E2,8.45E2,3.4E1,2.662E3,2.332E3,3.65E2,1.1E1,1.9E1,2.71E2,1.15E2,3.37E2,1.9E1,5.11E2,2.55E2,5E1,1.1E1,2.8E1,1.16E2,2.1E1,2.1E1,1.1E1,1E1,4.4E1,8.79E2,1.07E2,7.38E2,1.3E1,2.1E1,3.64E2,2.298E3,1.534E3,7.98E2,1E1,3.55E2,2.54E2,1.7E1,3.6E1,7.9E1,3.27E2,1E1,4.85E2,2.6E1,1.34E2,1.21E2,3.7E1,1.3E1,1.6E1,1.2E1,1.4E1,1.02E2,1E1,1.1E1,2E1,2.4E1,6.38E2,2.41E2,1.3E1,9.4E1,7.18E2,2E1,4.9E1,3.15E2,2.41E2,2.057E3,4.36E2,1.098E3,6.35E2,1.63E2,1.2E1,3.43E2,2.15E2,3.9E1,2.86E2,4.1E1,9.3E1,3.92E2,1.4E1,1.2E1,1.16E2,1.8E1,2.4E1,1.3E1,2E1,8.2E1,1E1,1E1,3.1E2,3.28E2,7.9E1,1.5E1],"tree_param":{"num_deleted":"0","num_feature":"32","num_nodes":"117","size_leaf_vector":"1"}},{"base_weights":[-2.369838E4,-6.984852E6,1.5340215E7,-7.5287905E6,-3.082522E6,1.1078476E7,1.6261199E7,-8.2695125E6,-6.795629E6,-3.455095E6,1.9072411E5,1.3352316E7,3.9609528E6,1.452568E7,1.6912792E7,-8.3444135E6,6.402586E4,-6.844963E6,-2.2776692E6,-4.2484945E6,-2.588726E6,1.1907808E7,1.3872838E7,-1.8435622E5,1.0950253E7,6.909844E3,1.474833E7,1.2719957E7,1.7054782E7,-2.9013668E6,-8.417339E6,-7.0376805E6,-5.605052E6,8.593961E4,-9.680796E4,-4.5299685E6,-3.5739175E6,2.1596643E4,-2.8710242E6,8.2007465E6,1.6988403E5,1.2171074E5,1.4121234E7,-2.5396588E6,1.4132047E5,8.988259E4,1.7239325E5,6.5481258E4,1.49798E7,1.5485542E7,6.820017E4,1.6155145E7,1.7583438E7,6.59862E4,-9.608771E4,-7.075446E6,-8.627316E6,-6.692196E6,-7.696943E6,-1.1815784E4,-5.734025E6,-4.333992E6,-8.5797055E4,-5.4663906E4,-4.1702008E4,-2.4216332E6,7.600612E4,-2.6717972E6,-3.9856638E6,1.2811863E5,5.990377E4,1.3414301E7,1.9781647E5,1.1381277E5,-4.980839E6,1.5723919E7,1.2185521E7,2.3371467E5,1.5747728E5,1.3824252E7,1.662778E7,2.1573269E5,1.7964114E7,-6.3057785E4,-9.561527E4,-9.337276E4,-1.1338049E5,-7.492073E4,-9.084615E4,-1.035572E5,-8.171986E4,-4.9564547E4,-7.522096E4,-5.3864625E4,-6.750394E4,-5.2414395E4,-1.5438172E4,-1.5185925E4,-3.584124E4,-8.63077E4,-2.1722582E4,1.2107779E5,1.7679489E5,-8.7650016E4,-2.960481E4,1.9258097E5,2.134027E5,3.588545E4,1.7138581E5,7.600086E4,1.9071788E5,1.5474505E5,2.1545961E5,2.3285981E5,1.7509189E5],"categories":[],"categories_nodes":[],"categories_segments":[],"categories_sizes":[],"default_left":[0,0,0,0,0,0,0,0,0,0,0,0,0,0,0,0,0,0,0,0,0,0,0,0,0,0,0,0,0,0,0,0,0,0,0,0,0,0,0,0,0,0,0,0,0,0,0,0,0,0,0,0,0,0,0,0,0,0,0,0,0,0,0,0,0,0,0,0,0,0,0,0,0,0,0,0,0,0,0,0,0,0,0,0,0,0,0,0,0,0,0,0,0,0,0,0,0,0,0,0,0,0,0,0,0,0,0,0,0,0,0,0,0,0,0],"id":3,"left_children":[1,3,5,7,9,11,13,15,17,19,-1,21,23,25,27,29,-1,31,33,35,37,39,41,43,45,-1,47,49,51,53,55,57,59,-1,-1,61,63,65,67,69,-1,-1,71,73,-1,-1,-1,-1,75,77,-1,79,81,-1,-1,83,85,87,89,-1,91,93,-1,-1,-1,95,-1,97,99,-1,-1,101,-1,-1,103,105,107,-1,-1,109,111,-1,113,-1,-1,-1,-1,-1,-1,-1,-1,-1,-1,-1,-1,-1,-1,-1,-1,-1,-1,-1,-1,-1,-1,-1,-1,-1,-1,-1,-1,-1,-1,-1,-1],"loss_changes":[9.661244E17,1.3179812E16,1.0931826E16,2.92422E15,5.106215E15,8.0992346E15,2.448956E15,2.7152955E15,6.0127824E14,5.0570717E14,0E0,1.7285955E14,3.555952E15,1.9777723E15,8.505066E14,1.0532634E15,0E0,6.2185113E14,1.4686863E15,6.2690953E13,2.643547E14,4.2095404E14,2.1234748E14,2.0576623E15,3.7549718E14,0E0,1.3507329E15,1.1295173E15,5.7635025E14,1.3640116E15,7.075357E14,4.9938444E14,2.1935579E14,0E0,0E0,9.320133E13,1.7228456E13,5.217135E14,6.4571344E13,1.4508762E14,0E0,0E0,8.2016695E13,1.8246338E15,0E0,0E0,0E0,0E0,1.1403654E15,2.0798701E14,0E0,5.128191E14,1.2458841E14,0E0,0E0,2.4374584E14,4.7691317E14,4.516244E14,3.278692E14,0E0,5.110689E13,2.058041E13,0E0,0E0,0E0,4.8320093E13,0E0,4.2017933E13,2.8923967E14,0E0,0E0,1.11886046E14,0E0,0E0,2.5095199E14,1.435378E14,1.3396905E15,0E0,0E0,7.54688E14,4.227107E13,0E0,1.0543286E14,0E0,0E0,0E0,0E0,0E0,0E0,0E0,0E0,0E0,0E0,0E0,0E0,0E0,0E0,0E0,0E0,0E0,0E0,0E0,0E0,0E0,0E0,0E0,0E0,0E0,0E0,0E0,0E0,0E0,0E0,0E0,0E0],"parents":[2147483647,0,0,1,1,2,2,3,3,4,4,5,5,6,6,7,7,8,8,9,9,11,11,12,12,13,13,14,14,15,15,17,17,18,18,19,19,20,20,21,21,22,22,23,23,24,24,26,26,27,27,28,28,29,29,30,30,31,31,32,32,35,35,36,36,37,37,38,38,39,39,42,42,43,43,48,48,49,49,51,51,52,52,55,55,56,56,57,57,58,58,60,60,61,61,65,65,67,67,68,68,71,71,74,74,75,75,76,76,79,79,80,80,82,82],"right_children":[2,4,6,8,10,12,14,16,18,20,-1,22,24,26,28,30,-1,32,34,36,38,40,42,44,46,-1,48,50,52,54,56,58,60,-1,-1,62,64,66,68,70,-1,-1,72,74,-1,-1,-1,-1,76,78,-1,80,82,-1,-1,84,86,88,90,-1,92,94,-1,-1,-1,96,-1,98,100,-1,-1,102,-1,-1,104,106,108,-1,-1,110,112,-1,114,-1,-1,-1,-1,-1,-1,-1,-1,-1,-1,-1,-1,-1,-1,-1,-1,-1,-1,-1,-1,-1,-1,-1,-1,-1,-1,-1,-1,-1,-1,-1,-1],"split_conditions":[1.0603056E7,5.37592E6,2.6971168E7,1.738144E6,2.4564758E7,2.5506096E7,2.633647E7,8.98E2,9.945219E-1,6.810782E6,1.9072411E5,3.510186E6,2.6521264E7,1.56512E5,2.2188038E6,4.348476E5,6.402586E4,3.52832E6,8.300719E5,9.5384706E5,2.190448E6,2.098872E6,4.23776E5,2.6175184E7,2.895536E7,6.909844E3,2.0814972E6,2.5881904E-1,1.05504375E5,1.4078042E5,1.322496E6,2.1503058E6,7.65272E5,8.593961E4,-9.680796E4,2.8390096E7,5.765623E6,2.5774098E6,1.6347525E6,5.42192E5,1.6988403E5,1.2171074E5,9.87456E5,2.3193276E7,1.4132047E5,8.988259E4,1.7239325E5,6.5481258E4,2.7617184E7,9.945219E-1,6.820017E4,7.29472E5,2.8412792E7,6.59862E4,-9.608771E4,-9.5105654E-1,-8.09017E-1,5.0161738E5,6.856619E5,-1.1815784E4,-9.135454E-1,2.43E2,-8.5797055E4,-5.4663906E4,-4.1702008E4,5.1127344E4,7.600612E4,6.5607795E6,2.53792E7,1.2811863E5,5.990377E4,5.49472E5,1.9781647E5,1.1381277E5,2.612904E7,2.6048288E7,2.6061244E7,2.3371467E5,1.5747728E5,3.61504E5,5.0531762E5,2.1573269E5,3.2370016E7,-6.3057785E4,-9.561527E4,-9.337276E4,-1.1338049E5,-7.492073E4,-9.084615E4,-1.035572E5,-8.171986E4,-4.9564547E4,-7.522096E4,-5.3864625E4,-6.750394E4,-5.2414395E4,-1.5438172E4,-1.5185925E4,-3.584124E4,-8.63077E4,-2.1722582E4,1.2107779E5,1.7679489E5,-8.7650016E4,-2.960481E4,1.9258097E5,2.134027E5,3.588545E4,1.7138581E5,7.600086E4,1.9071788E5,1.5474505E5,2.1545961E5,2.3285981E5,1.7509189E5],"split_indices":[0,3,18,0,16,8,24,2,28,23,0,20,18,11,22,19,0,0,22,22,9,11,6,5,9,0,20,26,25,20,8,21,6,0,0,11,23,17,17,14,0,0,9,16,0,0,0,0,9,29,0,12,23,0,0,29,28,20,17,0,28,2,0,0,0,25,0,21,6,0,0,8,0,0,18,6,21,0,0,11,17,0,3,0,0,0,0,0,0,0,0,0,0,0,0,0,0,0,0,0,0,0,0,0,0,0,0,0,0,0,0,0,0,0,0],"split_type":[0,0,0,0,0,0,0,0,0,0,0,0,0,0,0,0,0,0,0,0,0,0,0,0,0,0,0,0,0,0,0,0,0,0,0,0,0,0,0,0,0,0,0,0,0,0,0,0,0,0,0,0,0,0,0,0,0,0,0,0,0,0,0,0,0,0,0,0,0,0,0,0,0,0,0,0,0,0,0,0,0,0,0,0,0,0,0,0,0,0,0,0,0,0,0,0,0,0,0,0,0,0,0,0,0,0,0,0,0,0,0,0,0,0,0],"sum_hessian":[9.032E3,6.216E3,2.816E3,5.455E3,7.61E2,5.02E2,2.314E3,2.71E3,2.745E3,7.46E2,1.5E1,3.8E2,1.22E2,6.36E2,1.678E3,2.695E3,1.5E1,2.715E3,3E1,3.88E2,3.58E2,1.05E2,2.75E2,7.7E1,4.5E1,1E1,6.26E2,5.7E1,1.621E3,3.6E1,2.659E3,2.347E3,3.68E2,1.1E1,1.9E1,2.71E2,1.17E2,3.5E1,3.23E2,2.8E1,7.7E1,1.6E1,2.59E2,6.4E1,1.3E1,1.8E1,2.7E1,1.5E1,6.11E2,4.1E1,1.6E1,6.08E2,1.013E3,1.3E1,2.3E1,3.63E2,2.296E3,1.545E3,8.02E2,1E1,3.58E2,2.5E2,2.1E1,3.7E1,8E1,2.5E1,1E1,2.76E2,4.7E1,1.8E1,1E1,1.69E2,9E1,1.1E1,5.3E1,4.8E2,1.31E2,2.1E1,2E1,1.06E2,5.02E2,3.21E2,6.92E2,5E1,3.13E2,2.45E2,2.051E3,4.43E2,1.102E3,6.42E2,1.6E2,1.9E1,3.39E2,2.16E2,3.4E1,1E1,1.5E1,1.9E1,2.57E2,2.1E1,2.6E1,1.3E1,1.56E2,3.1E1,2.2E1,2.51E2,2.29E2,1.4E1,1.17E2,1.2E1,9.4E1,1E1,4.92E2,6.76E2,1.6E1],"tree_param":{"num_deleted":"0","num_feature":"32","num_nodes":"115","size_leaf_vector":"1"}},{"base_weights":[-8.888158E3,-6.9004925E6,1.5155028E7,-7.435918E6,-3.0533295E6,1.0908405E7,1.6066359E7,-8.1531155E6,-6.7254915E6,-3.4224732E6,1.883718E5,1.3178285E7,3.8411205E6,1.433898E7,1.6709439E7,-8.2270675E6,6.3236188E4,-6.774452E6,-2.2485355E6,-4.1352408E6,-2.5166532E6,1.1701839E7,1.3715381E7,-4.5651176E4,1.0626186E7,6.826444E3,1.4559465E7,1.245797E7,1.6860904E7,-2.7361062E6,-8.2986465E6,-6.9661475E6,-5.5393895E6,8.489626E4,-9.5602875E4,-9.3236875E3,-4.218131E6,3.7065973E4,-2.6914398E6,8.176919E6,1.6799323E5,1.2329118E5,1.3965093E7,-2.3096772E6,1.3958912E5,7.981284E4,1.7022486E5,1.5011105E7,8.610155E6,1.5323391E7,7.0354734E4,1.6003928E7,1.7357134E7,6.5177805E4,-9.483306E4,-7.0367155E6,-8.496719E6,-6.636483E6,-7.597367E6,-1.1673171E4,-5.667217E6,-7.959273E4,-4.1165365E6,-2.5486595E6,-8.585236E4,8.078707E4,1.4084252E5,1.3258976E7,1.9522977E5,1.1243104E5,-4.6370645E6,1.5514757E7,1.2479157E7,1.2338758E7,1.2115892E4,2.3079564E5,1.2267762E7,1.3475116E7,1.6456239E7,1.6901742E7,1.7994208E7,-3.5488754E4,-9.3224984E4,-9.131968E4,-1.1176283E5,-9.043047E4,-7.6799234E4,-1.0221985E5,-8.0865016E4,-6.0440953E4,-7.565959E4,-5.1502223E4,-6.930754E4,-3.569814E4,-1.4117319E4,1.1944427E5,1.7450577E5,-7.605185E4,1.1957548E4,1.9029914E5,2.1314128E5,6.3060457E4,1.7644416E5,1.7764402E5,1.2328442E5,1.8884884E5,1.209352E5,6.5060344E4,1.8596977E5,1.5287734E5,2.1322684E5,2.3572367E5,2.1456134E5,2.3421069E5,1.7521094E5],"categories":[],"categories_nodes":[],"categories_segments":[],"categories_sizes":[],"default_left":[0,0,0,0,0,0,0,0,0,0,0,0,0,0,0,0,0,0,0,0,0,0,0,0,0,0,0,0,0,0,0,0,0,0,0,0,0,0,0,0,0,0,0,0,0,0,0,0,0,0,0,0,0,0,0,0,0,0,0,0,0,0,0,0,0,0,0,0,0,0,0,0,0,0,0,0,0,0,0,0,0,0,0,0,0,0,0,0,0,0,0,0,0,0,0,0,0,0,0,0,0,0,0,0,0,0,0,0,0,0,0,0,0,0,0],"id":4,"left_children":[1,3,5,7,9,11,13,15,17,19,-1,21,23,25,27,29,-1,31,33,35,37,39,41,43,45,-1,47,49,51,53,55,57,59,-1,-1,-1,61,-1,63,65,-1,-1,67,69,-1,-1,-1,71,73,75,-1,77,79,-1,-1,81,83,85,87,-1,89,-1,91,93,-1,-1,-1,95,-1,-1,97,99,101,103,-1,-1,105,107,109,111,113,-1,-1,-1,-1,-1,-1,-1,-1,-1,-1,-1,-1,-1,-1,-1,-1,-1,-1,-1,-1,-1,-1,-1,-1,-1,-1,-1,-1,-1,-1,-1,-1,-1,-1],"loss_changes":[9.437075E17,1.2773508E16,1.0799953E16,2.7390896E15,4.9862573E15,7.997212E15,2.414665E15,2.6429683E15,5.9051505E14,4.7365597E14,0E0,1.901468E14,3.2358155E15,1.9272291E15,9.426594E14,1.04316166E15,0E0,6.1552894E14,1.4327721E15,1.1548469E14,3.1593216E14,4.1978366E14,1.924403E14,1.9533186E15,4.5398126E14,0E0,1.5897993E15,1.1604368E15,5.015491E14,1.3087857E15,6.23509E14,4.5330803E14,2.1429632E14,0E0,0E0,0E0,6.305388E13,0E0,1.6933311E14,1.1410198E14,0E0,0E0,7.45907E13,1.7134748E15,0E0,0E0,0E0,6.063463E14,1.2987337E15,1.8464601E14,0E0,5.4059894E14,8.799529E13,0E0,0E0,2.8517724E14,5.055692E14,3.6648097E14,3.1411673E14,0E0,5.090932E13,0E0,4.543968E13,9.658294E13,0E0,0E0,0E0,9.341769E13,0E0,0E0,3.8696555E14,2.0206103E14,8.627408E14,3.2020592E13,0E0,0E0,5.464326E13,7.112348E14,4.345648E13,1.3795435E13,1.3252551E14,0E0,0E0,0E0,0E0,0E0,0E0,0E0,0E0,0E0,0E0,0E0,0E0,0E0,0E0,0E0,0E0,0E0,0E0,0E0,0E0,0E0,0E0,0E0,0E0,0E0,0E0,0E0,0E0,0E0,0E0,0E0,0E0,0E0,0E0],"parents":[2147483647,0,0,1,1,2,2,3,3,4,4,5,5,6,6,7,7,8,8,9,9,11,11,12,12,13,13,14,14,15,15,17,17,18,18,19,19,20,20,21,21,22,22,23,23,24,24,26,26,27,27,28,28,29,29,30,30,31,31,32,32,36,36,38,38,39,39,42,42,43,43,47,47,48,48,49,49,51,51,52,52,55,55,56,56,57,57,58,58,60,60,62,62,63,63,67,67,70,70,71,71,72,72,73,73,76,76,77,77,78,78,79,79,80,80],"right_children":[2,4,6,8,10,12,14,16,18,20,-1,22,24,26,28,30,-1,32,34,36,38,40,42,44,46,-1,48,50,52,54,56,58,60,-1,-1,-1,62,-1,64,66,-1,-1,68,70,-1,-1,-1,72,74,76,-1,78,80,-1,-1,82,84,86,88,-1,90,-1,92,94,-1,-1,-1,96,-1,-1,98,100,102,104,-1,-1,106,108,110,112,114,-1,-1,-1,-1,-1,-1,-1,-1,-1,-1,-1,-1,-1,-1,-1,-1,-1,-1,-1,-1,-1,-1,-1,-1,-1,-1,-1,-1,-1,-1,-1,-1,-1,-1],"split_conditions":[1.0603056E7,5.37592E6,2.6971168E7,1.738144E6,2.4564758E7,2.5506096E7,2.633647E7,8.98E2,9.945219E-1,6.88976E6,1.883718E5,3.510186E6,2.6521264E7,1.56512E5,2.2188038E6,4.348476E5,6.3236188E4,3.52832E6,8.300719E5,-1.5608208E7,-1.069696E6,2.128832E6,4.23776E5,2.6175184E7,2.895536E7,6.826444E3,3.222288E6,2.5881904E-1,1.05504375E5,1.4078042E5,1.322496E6,2.1503058E6,7.65272E5,8.489626E4,-9.5602875E4,-9.3236875E3,3.52832E6,3.7065973E4,4.03E2,2.3793E7,1.6799323E5,1.2329118E5,9.87456E5,2.3193276E7,1.3958912E5,7.981284E4,1.7022486E5,2.7617184E7,2.5881904E-1,9.945219E-1,7.0354734E4,6.67296E5,3.1297168E7,6.5177805E4,-9.483306E4,4.36128E5,-8.09017E-1,2.455232E6,6.856619E5,-1.1673171E4,3.219648E6,-7.959273E4,3.59E2,3.15E2,-8.585236E4,8.078707E4,1.4084252E5,5.49472E5,1.9522977E5,1.1243104E5,4.0673664E-1,2.6336688E7,2.617718E7,2.7559504E7,1.2115892E4,2.3079564E5,-6.3448E5,3.34048E5,5.0531762E5,1.8794352E7,3.2370016E7,-3.5488754E4,-9.3224984E4,-9.131968E4,-1.1176283E5,-9.043047E4,-7.6799234E4,-1.0221985E5,-8.0865016E4,-6.0440953E4,-7.565959E4,-5.1502223E4,-6.930754E4,-3.569814E4,-1.4117319E4,1.1944427E5,1.7450577E5,-7.605185E4,1.1957548E4,1.9029914E5,2.1314128E5,6.3060457E4,1.7644416E5,1.7764402E5,1.2328442E5,1.8884884E5,1.209352E5,6.5060344E4,1.8596977E5,1.5287734E5,2.1322684E5,2.3572367E5,2.1456134E5,2.3421069E5,1.7521094E5],"split_indices":[0,3,18,0,16,8,24,2,28,0,0,20,18,11,22,19,0,0,22,13,13,11,6,5,9,0,10,26,25,20,8,21,6,0,0,0,0,0,2,16,0,0,9,16,0,0,0,9,26,29,0,12,18,0,0,10,28,19,17,0,8,0,2,2,0,0,0,8,0,0,28,6,21,5,0,0,13,11,17,8,3,0,0,0,0,0,0,0,0,0,0,0,0,0,0,0,0,0,0,0,0,0,0,0,0,0,0,0,0,0,0,0,0,0,0],"split_type":[0,0,0,0,0,0,0,0,0,0,0,0,0,0,0,0,0,0,0,0,0,0,0,0,0,0,0,0,0,0,0,0,0,0,0,0,0,0,0,0,0,0,0,0,0,0,0,0,0,0,0,0,0,0,0,0,0,0,0,0,0,0,0,0,0,0,0,0,0,0,0,0,0,0,0,0,0,0,0,0,0,0,0,0,0,0,0,0,0,0,0,0,0,0,0,0,0,0,0,0,0,0,0,0,0,0,0,0,0,0,0,0,0,0,0],"sum_hessian":[9.029E3,6.208E3,2.821E3,5.449E3,7.59E2,5E2,2.321E3,2.708E3,2.741E3,7.44E2,1.5E1,3.78E2,1.22E2,6.34E2,1.687E3,2.693E3,1.5E1,2.711E3,3E1,4.15E2,3.29E2,1.05E2,2.73E2,7.8E1,4.4E1,1E1,6.24E2,6E1,1.627E3,3.5E1,2.658E3,2.344E3,3.67E2,1.1E1,1.9E1,1E1,4.05E2,1E1,3.19E2,3E1,7.5E1,1.7E1,2.56E2,6.5E1,1.3E1,1.7E1,2.7E1,5.79E2,4.5E1,4.2E1,1.8E1,6.05E2,1.022E3,1.3E1,2.2E1,3.64E2,2.294E3,1.545E3,7.99E2,1E1,3.57E2,1.8E1,3.87E2,3.09E2,1E1,1.9E1,1.1E1,1.65E2,9.1E1,1.1E1,5.4E1,4.8E2,9.9E1,3E1,1.5E1,2.1E1,2.1E1,9.5E1,5.1E2,6.07E2,4.15E2,1.6E1,3.48E2,2.47E2,2.047E3,9.93E2,5.52E2,6.38E2,1.61E2,6.3E1,2.94E2,3.55E2,3.2E1,2.68E2,4.1E1,1.2E1,1.53E2,4.4E1,1E1,2.8E2,2E2,1.4E1,8.5E1,1.8E1,1.2E1,1E1,1.1E1,1E1,8.5E1,1E1,5E2,9.1E1,5.16E2,3.98E2,1.7E1],"tree_param":{"num_deleted":"0","num_feature":"32","num_nodes":"115","size_leaf_vector":"1"}},{"base_weights":[1.5224451E4,-6.8061645E6,1.49808E7,-7.3315125E6,-2.9698155E6,1.0859771E7,1.5873825E7,-8.0561565E6,-6.6364525E6,-3.2882742E6,2.0260828E5,1.3018704E7,3.9557558E6,1.4230898E7,1.6483417E7,-8.1307975E6,7.522948E4,-6.669215E6,2.0050229E4,3.365551E4,-3.4215085E6,1.1590101E7,1.3538665E7,-8.6196734E4,1.0680911E7,6.744057E3,1.4449762E7,1.2288551E7,1.6627095E7,-2.82815E6,-8.2028435E6,-6.738755E6,-1.026647E6,-4.1487752E6,-2.7213332E6,7.9975895E6,1.278355E7,1.217627E5,1.3780135E7,-2.4011048E6,1.3787902E5,8.7774266E4,1.6808373E5,1.4847835E7,8.922384E6,1.5251E7,6.948064E4,1.5755322E7,1.7135512E7,6.43793E4,-9.3696586E4,-6.9693235E6,-8.436541E6,-6.900583E6,-5.6223115E6,1.601171E5,-9.838927E4,-4.2876965E6,-3.9232293E4,-2.601619E6,-8.4816164E4,1.2519154E5,5.7988242E4,1.26027E5,1.316835E7,1.3077157E7,1.9275786E5,1.11066086E5,-4.8124555E6,1.5358234E7,1.2242984E7,1.2186344E7,1.49200625E4,2.2791308E5,1.554699E5,1.3343713E7,1.6187345E7,2.1054377E5,1.7501536E7,-3.1777209E4,-9.1979234E4,-8.954369E4,-1.1112868E5,-8.420127E4,-9.75569E4,-7.5552375E4,-6.397114E4,-5.3523223E4,-8.877675E4,-1.3861693E4,-3.6557684E4,1.3198738E5,1.8150039E5,1.18131125E5,1.7236666E5,-8.579928E4,-2.5435441E4,1.9008155E5,2.1381508E5,6.2285125E4,1.7321181E5,1.7543694E5,1.21780336E5,7.403405E4,1.8540228E5,2.0117819E5,2.1828712E5,2.2687588E5,1.730388E5],"categories":[],"categories_nodes":[],"categories_segments":[],"categories_sizes":[],"default_left":[0,0,0,0,0,0,0,0,0,0,0,0,0,0,0,0,0,0,0,0,0,0,0,0,0,0,0,0,0,0,0,0,0,0,0,0,0,0,0,0,0,0,0,0,0,0,0,0,0,0,0,0,0,0,0,0,0,0,0,0,0,0,0,0,0,0,0,0,0,0,0,0,0,0,0,0,0,0,0,0,0,0,0,0,0,0,0,0,0,0,0,0,0,0,0,0,0,0,0,0,0,0,0,0,0,0,0,0,0],"id":5,"left_children":[1,3,5,7,9,11,13,15,17,19,-1,21,23,25,27,29,-1,31,-1,-1,33,35,37,39,41,-1,43,45,47,49,51,53,55,57,59,61,63,-1,65,67,-1,-1,-1,69,71,73,-1,75,77,-1,-1,79,81,83,85,-1,-1,87,-1,89,-1,-1,-1,-1,91,93,-1,-1,95,97,99,101,-1,-1,-1,103,105,-1,107,-1,-1,-1,-1,-1,-1,-1,-1,-1,-1,-1,-1,-1,-1,-1,-1,-1,-1,-1,-1,-1,-1,-1,-1,-1,-1,-1,-1,-1,-1],"loss_changes":[9.2361004E17,1.2510226E16,1.0306547E16,2.7162404E15,4.494825E15,7.51697E15,2.1693364E15,2.8032736E15,7.568334E14,5.857793E14,0E0,1.7879949E14,3.3084012E15,1.898994E15,8.7998726E14,9.997825E14,0E0,1.08712494E15,0E0,0E0,3.597443E14,3.9153566E14,1.8649607E14,1.9306352E15,3.5540156E14,0E0,1.2835939E15,1.1434883E15,5.3924173E14,1.2975531E15,7.15679E14,4.699811E14,3.142791E15,4.5288283E13,1.5885232E14,1.4169513E14,4.0641128E12,0E0,8.014409E13,1.7196E15,0E0,0E0,0E0,6.443224E14,1.0976248E15,1.685517E14,0E0,4.8802854E14,1.08336255E14,0E0,0E0,2.9577507E14,5.494122E14,5.5810523E14,3.4910568E13,0E0,0E0,9.197028E13,0E0,1.2575074E14,0E0,0E0,0E0,0E0,8.336639E13,1.0555312E14,0E0,0E0,2.6631414E14,1.9845326E14,8.235911E14,3.1081068E13,0E0,0E0,0E0,7.0127797E14,4.2434277E13,0E0,9.033175E13,0E0,0E0,0E0,0E0,0E0,0E0,0E0,0E0,0E0,0E0,0E0,0E0,0E0,0E0,0E0,0E0,0E0,0E0,0E0,0E0,0E0,0E0,0E0,0E0,0E0,0E0,0E0,0E0,0E0,0E0],"parents":[2147483647,0,0,1,1,2,2,3,3,4,4,5,5,6,6,7,7,8,8,9,9,11,11,12,12,13,13,14,14,15,15,17,17,20,20,21,21,22,22,23,23,24,24,26,26,27,27,28,28,29,29,30,30,31,31,32,32,33,33,34,34,35,35,36,36,38,38,39,39,43,43,44,44,45,45,47,47,48,48,51,51,52,52,53,53,54,54,57,57,59,59,64,64,65,65,68,68,69,69,70,70,71,71,75,75,76,76,78,78],"right_children":[2,4,6,8,10,12,14,16,18,20,-1,22,24,26,28,30,-1,32,-1,-1,34,36,38,40,42,-1,44,46,48,50,52,54,56,58,60,62,64,-1,66,68,-1,-1,-1,70,72,74,-1,76,78,-1,-1,80,82,84,86,-1,-1,88,-1,90,-1,-1,-1,-1,92,94,-1,-1,96,98,100,102,-1,-1,-1,104,106,-1,108,-1,-1,-1,-1,-1,-1,-1,-1,-1,-1,-1,-1,-1,-1,-1,-1,-1,-1,-1,-1,-1,-1,-1,-1,-1,-1,-1,-1,-1,-1],"split_conditions":[1.0603056E7,5.37592E6,2.6971168E7,1.6466682E6,2.4564758E7,2.5506096E7,2.633647E7,8.98E2,1.0603056E7,4.63008E5,2.0260828E5,3.510186E6,2.6521264E7,1.56512E5,2.2188038E6,4.348476E5,7.522948E4,9.945219E-1,2.0050229E4,3.365551E4,6.62752E6,2.098872E6,4.23776E5,2.6175184E7,2.895536E7,6.744057E3,3.222288E6,2.5881904E-1,1.05504375E5,1.4078042E5,1.90816E6,3.52832E6,1.064416E6,1.1918769E6,4.03E2,5.42192E5,1.9970288E7,1.217627E5,9.87456E5,2.3193276E7,1.3787902E5,8.7774266E4,1.6808373E5,2.7617184E7,2.5881904E-1,9.945219E-1,6.948064E4,6.67296E5,2.8412792E7,6.43793E4,-9.3696586E4,4.36128E5,-8.09017E-1,2.1844352E6,4.734917E6,1.601171E5,-9.838927E4,2.889768E7,-3.9232293E4,1.0504E6,-8.4816164E4,1.2519154E5,5.7988242E4,1.26027E5,1.4157473E7,5.49472E5,1.9275786E5,1.11066086E5,2.612904E7,2.9866704E7,2.617718E7,2.7559504E7,1.49200625E4,2.2791308E5,1.554699E5,3.61504E5,2.9497552E7,2.1054377E5,3.2370016E7,-3.1777209E4,-9.1979234E4,-8.954369E4,-1.1112868E5,-8.420127E4,-9.75569E4,-7.5552375E4,-6.397114E4,-5.3523223E4,-8.877675E4,-1.3861693E4,-3.6557684E4,1.3198738E5,1.8150039E5,1.18131125E5,1.7236666E5,-8.579928E4,-2.5435441E4,1.9008155E5,2.1381508E5,6.2285125E4,1.7321181E5,1.7543694E5,1.21780336E5,7.403405E4,1.8540228E5,2.0117819E5,2.1828712E5,2.2687588E5,1.730388E5],"split_indices":[0,0,18,23,16,8,24,2,3,9,0,20,18,11,22,19,0,28,0,0,4,11,6,5,9,0,10,26,25,20,8,0,9,22,2,14,6,0,9,16,0,0,0,9,26,29,0,12,23,0,0,10,28,21,23,0,0,11,0,8,0,0,0,0,21,8,0,0,18,18,21,5,0,0,0,11,5,0,3,0,0,0,0,0,0,0,0,0,0,0,0,0,0,0,0,0,0,0,0,0,0,0,0,0,0,0,0,0,0],"split_type":[0,0,0,0,0,0,0,0,0,0,0,0,0,0,0,0,0,0,0,0,0,0,0,0,0,0,0,0,0,0,0,0,0,0,0,0,0,0,0,0,0,0,0,0,0,0,0,0,0,0,0,0,0,0,0,0,0,0,0,0,0,0,0,0,0,0,0,0,0,0,0,0,0,0,0,0,0,0,0,0,0,0,0,0,0,0,0,0,0,0,0,0,0,0,0,0,0,0,0,0,0,0,0,0,0,0,0,0,0],"sum_hessian":[9.046E3,6.214E3,2.832E3,5.465E3,7.49E2,5.06E2,2.326E3,2.672E3,2.793E3,7.37E2,1.2E1,3.85E2,1.21E2,6.34E2,1.692E3,2.658E3,1.4E1,2.782E3,1.1E1,1.6E1,7.21E2,1.07E2,2.78E2,7.6E1,4.5E1,1E1,6.24E2,5.8E1,1.634E3,3.6E1,2.622E3,2.748E3,3.4E1,3.52E2,3.69E2,2.8E1,7.9E1,1.7E1,2.61E2,6.3E1,1.3E1,1.8E1,2.7E1,5.81E2,4.3E1,4E1,1.8E1,6.1E2,1.024E3,1.3E1,2.3E1,4.21E2,2.201E3,2.397E3,3.51E2,1.1E1,2.3E1,3.11E2,4.1E1,3.59E2,1E1,1.8E1,1E1,1.1E1,6.8E1,1.68E2,9.3E1,1.1E1,5.2E1,4.83E2,9.8E1,3E1,1.3E1,2.1E1,1.9E1,9.6E1,5.14E2,3.28E2,6.96E2,1.5E1,4.06E2,2.39E2,1.962E3,1.54E3,8.57E2,2.55E2,9.6E1,2.97E2,1.4E1,4.8E1,3.11E2,1.8E1,5E1,1.3E1,1.55E2,3.1E1,2.1E1,3.26E2,1.57E2,1.4E1,8.4E1,1.8E1,1.2E1,1.2E1,8.4E1,2.94E2,2.2E2,6.79E2,1.7E1],"tree_param":{"num_deleted":"0","num_feature":"32","num_nodes":"109","size_leaf_vector":"1"}},{"base_weights":[5.5424453E3,-6.720415E6,1.478024E7,-7.2360875E6,-2.920836E6,1.0657436E7,1.567309E7,-7.9532535E6,-6.5454105E6,-3.2878198E6,1.702955E5,1.2807642E7,3.7998922E6,1.401993E7,1.6289033E7,-8.0267355E6,7.430453E4,-6.5777685E6,1.9806814E4,3.3239273E4,-3.4221592E6,1.1304541E7,1.3329715E7,-1.2984425E6,1.120578E7,6.66266E3,1.4235181E7,1.240058E7,1.6422118E7,-2.6172418E6,-8.097996E6,-6.6365915E6,-1.927115E6,-4.0932725E6,-2.7686252E6,7.854463E6,1.6134816E5,1.2025315E5,1.3562848E7,-3.9199555E6,1.4590194E5,6.7868086E4,1.2802488E7,1.467762E7,8.397799E6,1.544333E7,6.861739E4,1.5588019E7,1.6899842E7,6.3590582E4,-9.14639E4,-6.956195E6,-8.3338445E6,-6.7954855E6,-5.542157E6,1.52429E5,-9.794756E4,-4.235177E6,-3.8753004E4,-2.6502808E6,-8.379247E4,5.7058688E4,1.3077956E5,1.2873411E7,1.8896723E5,-5.8102075E6,-7.9887325E5,1.23717336E5,1.8516831E5,1.5140747E7,1.2366563E7,1.2035814E7,1.1782441E4,2.1629016E5,1.4973497E5,1.3104629E7,1.601779E7,2.0718338E5,1.7275672E7,-5.8262516E4,-9.5053516E4,-8.859352E4,-1.0974331E5,-8.272815E4,-9.603393E4,-7.444019E4,-6.3151906E4,-5.096856E4,-7.019705E4,-3.6020035E4,-1.3362429E4,1.7759802E5,1.4925619E5,-9.529867E4,-4.8218625E4,-4.4514273E4,2.7439254E4,1.8368166E5,2.0741306E5,6.1519312E4,1.748398E5,1.7325728E5,1.202946E5,6.3381543E4,1.8127186E5,1.990037E5,2.1610784E5,2.2393911E5,1.7089356E5],"categories":[],"categories_nodes":[],"categories_segments":[],"categories_sizes":[],"default_left":[0,0,0,0,0,0,0,0,0,0,0,0,0,0,0,0,0,0,0,0,0,0,0,0,0,0,0,0,0,0,0,0,0,0,0,0,0,0,0,0,0,0,0,0,0,0,0,0,0,0,0,0,0,0,0,0,0,0,0,0,0,0,0,0,0,0,0,0,0,0,0,0,0,0,0,0,0,0,0,0,0,0,0,0,0,0,0,0,0,0,0,0,0,0,0,0,0,0,0,0,0,0,0,0,0,0,0,0,0],"id":6,"left_children":[1,3,5,7,9,11,13,15,17,19,-1,21,23,25,27,29,-1,31,-1,-1,33,35,37,39,41,-1,43,45,47,49,51,53,55,57,59,61,-1,-1,63,65,-1,-1,67,69,71,73,-1,75,77,-1,-1,79,81,83,85,-1,-1,87,-1,89,-1,-1,-1,91,-1,93,95,-1,-1,97,99,101,-1,-1,-1,103,105,-1,107,-1,-1,-1,-1,-1,-1,-1,-1,-1,-1,-1,-1,-1,-1,-1,-1,-1,-1,-1,-1,-1,-1,-1,-1,-1,-1,-1,-1,-1,-1],"loss_changes":[8.985766E17,1.2160203E16,1.0297957E16,2.674081E15,4.430424E15,7.423009E15,2.2094343E15,2.733197E15,7.366728E14,5.793911E14,0E0,1.9845326E14,4.60458E15,1.842644E15,7.341302E14,1.0134233E15,0E0,7.5165364E14,0E0,0E0,3.0436447E14,3.636699E14,1.7629982E14,2.4333457E15,4.2531558E14,0E0,1.5313706E15,1.2079681E15,4.6901043E14,1.2290826E15,6.689154E14,4.51444E14,2.8413429E15,4.5289356E13,1.481957E14,1.9409856E14,0E0,0E0,6.9131794E13,3.548412E14,0E0,0E0,9.849595E13,4.930107E14,1.2363973E15,7.3252815E13,0E0,4.9917828E14,1.3293783E14,0E0,0E0,4.3572014E14,5.1752638E14,5.608626E14,3.269866E13,0E0,0E0,9.05465E13,0E0,7.910363E13,0E0,0E0,0E0,8.618281E13,0E0,1.0428436E14,1.8888635E14,0E0,0E0,2.494517E14,8.6519647E14,3.0168119E13,0E0,0E0,0E0,6.736141E14,4.4263933E13,0E0,8.699886E13,0E0,0E0,0E0,0E0,0E0,0E0,0E0,0E0,0E0,0E0,0E0,0E0,0E0,0E0,0E0,0E0,0E0,0E0,0E0,0E0,0E0,0E0,0E0,0E0,0E0,0E0,0E0,0E0,0E0,0E0],"parents":[2147483647,0,0,1,1,2,2,3,3,4,4,5,5,6,6,7,7,8,8,9,9,11,11,12,12,13,13,14,14,15,15,17,17,20,20,21,21,22,22,23,23,24,24,26,26,27,27,28,28,29,29,30,30,31,31,32,32,33,33,34,34,35,35,38,38,39,39,42,42,43,43,44,44,45,45,47,47,48,48,51,51,52,52,53,53,54,54,57,57,59,59,63,63,65,65,66,66,69,69,70,70,71,71,75,75,76,76,78,78],"right_children":[2,4,6,8,10,12,14,16,18,20,-1,22,24,26,28,30,-1,32,-1,-1,34,36,38,40,42,-1,44,46,48,50,52,54,56,58,60,62,-1,-1,64,66,-1,-1,68,70,72,74,-1,76,78,-1,-1,80,82,84,86,-1,-1,88,-1,90,-1,-1,-1,92,-1,94,96,-1,-1,98,100,102,-1,-1,-1,104,106,-1,108,-1,-1,-1,-1,-1,-1,-1,-1,-1,-1,-1,-1,-1,-1,-1,-1,-1,-1,-1,-1,-1,-1,-1,-1,-1,-1,-1,-1,-1,-1],"split_conditions":[1.0603056E7,5.37592E6,2.6971168E7,1.6466682E6,2.3793E7,3.52832E6,2.633647E7,8.98E2,1.0603056E7,4.63008E5,1.702955E5,3.510186E6,2.6521264E7,1.56512E5,2.2188038E6,4.348476E5,7.430453E4,9.945219E-1,1.9806814E4,3.3239273E4,6.62752E6,2.098872E6,4.23776E5,2.6175184E7,2.4306352E7,6.66266E3,3.222288E6,2.5881904E-1,1.05504375E5,1.4078042E5,6.609013E5,3.52832E6,1.064416E6,1.1918769E6,4.03E2,2.3565888E7,1.6134816E5,1.2025315E5,9.87456E5,2.6280428E7,1.4590194E5,6.7868086E4,2.5150092E7,2.7617184E7,2.5881904E-1,6.610149E5,6.861739E4,6.67296E5,2.8412792E7,6.3590582E4,-9.14639E4,-9.5105654E-1,-8.09017E-1,2.1674298E6,4.734917E6,1.52429E5,-9.794756E4,4.0673664E-1,-3.8753004E4,3.74E2,-8.379247E4,5.7058688E4,1.3077956E5,2.8282682E6,1.8896723E5,2.7421072E7,2.1537195E6,1.23717336E5,1.8516831E5,2.6048288E7,2.617718E7,2.7559504E7,1.1782441E4,2.1629016E5,1.4973497E5,3.34048E5,2.9497552E7,2.0718338E5,3.2370016E7,-5.8262516E4,-9.5053516E4,-8.859352E4,-1.0974331E5,-8.272815E4,-9.603393E4,-7.444019E4,-6.3151906E4,-5.096856E4,-7.019705E4,-3.6020035E4,-1.3362429E4,1.7759802E5,1.4925619E5,-9.529867E4,-4.8218625E4,-4.4514273E4,2.7439254E4,1.8368166E5,2.0741306E5,6.1519312E4,1.748398E5,1.7325728E5,1.202946E5,6.3381543E4,1.8127186E5,1.990037E5,2.1610784E5,2.2393911E5,1.7089356E5],"split_indices":[0,0,18,23,16,9,24,2,3,9,0,20,18,11,22,19,0,28,0,0,4,11,6,5,6,0,10,26,25,20,21,0,9,22,2,16,0,0,9,21,0,0,19,9,26,25,0,12,23,0,0,29,28,21,23,0,0,29,0,2,0,0,0,25,0,7,20,0,0,6,21,5,0,0,0,11,5,0,3,0,0,0,0,0,0,0,0,0,0,0,0,0,0,0,0,0,0,0,0,0,0,0,0,0,0,0,0,0,0],"split_type":[0,0,0,0,0,0,0,0,0,0,0,0,0,0,0,0,0,0,0,0,0,0,0,0,0,0,0,0,0,0,0,0,0,0,0,0,0,0,0,0,0,0,0,0,0,0,0,0,0,0,0,0,0,0,0,0,0,0,0,0,0,0,0,0,0,0,0,0,0,0,0,0,0,0,0,0,0,0,0,0,0,0,0,0,0,0,0,0,0,0,0,0,0,0,0,0,0,0,0,0,0,0,0,0,0,0,0,0,0],"sum_hessian":[9.041E3,6.213E3,2.828E3,5.47E3,7.43E2,5.05E2,2.323E3,2.68E3,2.79E3,7.27E2,1.6E1,3.84E2,1.21E2,6.35E2,1.688E3,2.666E3,1.4E1,2.779E3,1.1E1,1.6E1,7.11E2,1.03E2,2.81E2,7.2E1,4.9E1,1E1,6.25E2,5.8E1,1.63E3,3.5E1,2.631E3,2.744E3,3.5E1,3.49E2,3.62E2,2.8E1,7.5E1,1.7E1,2.64E2,6E1,1.2E1,1.1E1,3.8E1,5.8E2,4.5E1,4E1,1.8E1,6.02E2,1.028E3,1.3E1,2.2E1,4.54E2,2.177E3,2.393E3,3.51E2,1E1,2.5E1,3.07E2,4.2E1,3.52E2,1E1,1.2E1,1.6E1,1.67E2,9.7E1,3.7E1,2.3E1,1.4E1,2.4E1,4.8E2,1E2,3E1,1.5E1,2.8E1,1.2E1,9.2E1,5.1E2,3.28E2,7E2,6.7E1,3.87E2,2.35E2,1.942E3,1.513E3,8.8E2,2.55E2,9.6E1,2.51E2,5.6E1,3.23E2,2.9E1,9.5E1,7.2E1,2E1,1.7E1,1.2E1,1.1E1,2.51E2,2.29E2,1.4E1,8.6E1,1.8E1,1.2E1,1E1,8.2E1,2.92E2,2.18E2,6.83E2,1.7E1],"tree_param":{"num_deleted":"0","num_feature":"32","num_nodes":"109","size_leaf_vector":"1"}},{"base_weights":[-2.0238936E4,-6.6409595E6,1.4598079E7,-7.15353E6,-2.888368E6,1.0601586E7,1.5462192E7,-7.8706965E6,-6.466214E6,-3.2007058E6,1.980588E5,1.270271E7,3.8226352E6,1.3831404E7,1.6079274E7,-7.9437105E6,7.339094E4,-6.4968415E6,2.4746008E4,3.2828195E4,-3.3310575E6,1.1313847E7,1.3213594E7,-6.584017E4,1.0349933E7,1.4583935E7,1.0941096E7,1.1928058E7,1.6226161E7,-3.2441135E6,-8.003855E6,-6.5636895E6,-1.2286585E6,-3.9798765E6,-2.5742788E6,7.8086665E6,1.2478237E7,1.134752E5,1.3444508E7,-2.35323E6,1.3432122E5,5.7429758E4,1.1962008E7,7.1242625E4,1.4759425E7,1.8253746E4,1.2217083E7,1.4723413E7,6.7764875E4,1.5714555E7,1.7011004E7,6.101562E4,-9.13776E4,-6.7801045E6,-8.2380495E6,-6.720954E6,-5.480041E6,1.5632266E5,-9.691034E4,-4.137292E6,-3.8094105E4,-2.6982685E6,3.1598113E3,1.22343305E5,5.6427656E4,1.3328756E7,1.0822024E7,1.2779145E7,1.8774016E5,1.0098909E5,-4.3880095E6,1.7512511E5,1.0298311E5,1.129441E7,1.4998327E7,9.895203E6,1.3400186E7,1.3902661E5,2.0725136E5,1.5846649E7,1.2382416E7,1.6677139E5,1.7110072E7,-3.0321854E4,-8.948977E4,-8.793518E4,-1.08407664E5,-8.198738E4,-9.505581E4,-6.0329125E4,-7.306116E4,-5.1334906E4,-8.223696E4,-3.2175828E4,-6.067192E4,1.5043855E5,1.929189E5,1.0461149E5,1.6844381E5,1.14801914E5,1.6849466E5,-8.37663E4,-2.0903326E4,8.198787E4,1.7688056E5,1.8617925E5,2.0726945E5,1.573147E5,6.367513E4,1.8160633E5,1.2334674E5,1.9930812E5,2.2092392E5,7.230293E4,1.945397E5,2.2209655E5,1.8257066E5],"categories":[],"categories_nodes":[],"categories_segments":[],"categories_sizes":[],"default_left":[0,0,0,0,0,0,0,0,0,0,0,0,0,0,0,0,0,0,0,0,0,0,0,0,0,0,0,0,0,0,0,0,0,0,0,0,0,0,0,0,0,0,0,0,0,0,0,0,0,0,0,0,0,0,0,0,0,0,0,0,0,0,0,0,0,0,0,0,0,0,0,0,0,0,0,0,0,0,0,0,0,0,0,0,0,0,0,0,0,0,0,0,0,0,0,0,0,0,0,0,0,0,0,0,0,0,0,0,0,0,0,0,0,0,0,0,0],"id":7,"left_children":[1,3,5,7,9,11,13,15,17,19,-1,21,23,25,27,29,-1,31,-1,-1,33,35,37,39,41,43,45,47,49,51,53,55,57,59,61,63,65,-1,67,69,-1,-1,71,-1,73,-1,75,77,-1,79,81,-1,-1,83,85,87,89,-1,-1,91,-1,93,-1,-1,-1,95,97,99,-1,-1,101,-1,-1,103,105,107,109,-1,-1,111,113,-1,115,-1,-1,-1,-1,-1,-1,-1,-1,-1,-1,-1,-1,-1,-1,-1,-1,-1,-1,-1,-1,-1,-1,-1,-1,-1,-1,-1,-1,-1,-1,-1,-1,-1,-1],"loss_changes":[8.723485E17,1.1918414E16,9.59049E15,2.6552519E15,4.288637E15,7.1124014E15,2.1706765E15,2.6723974E15,7.252224E14,5.5609358E14,0E0,1.6892965E14,3.0382545E15,1.2796597E15,8.8589713E14,7.3225756E14,0E0,9.737292E14,0E0,0E0,3.4585278E14,3.726378E14,1.9991355E14,1.8311687E15,3.882715E14,7.464911E14,1.6252274E15,1.0604457E15,4.6368467E14,1.08536924E15,7.1246635E14,4.4263933E14,3.0564595E15,5.3927072E13,1.1709718E14,1.3669176E14,1.3252122E13,0E0,6.510741E13,1.3224669E15,0E0,0E0,1.4852212E14,0E0,2.932432E14,0E0,2.3503027E14,1.0232008E14,0E0,2.9875793E14,1.0192816E14,0E0,0E0,2.864378E14,4.8155173E14,5.3395892E14,3.3905546E13,0E0,0E0,9.9654516E13,0E0,1.2250213E14,0E0,0E0,0E0,1.4996415E13,1.1348404E14,1.0638849E14,0E0,0E0,2.9991515E14,0E0,0E0,3.5456512E14,1.1898777E14,4.4584445E14,1.0770704E14,0E0,0E0,2.9539067E14,6.8658596E14,0E0,3.0408368E13,0E0,0E0,0E0,0E0,0E0,0E0,0E0,0E0,0E0,0E0,0E0,0E0,0E0,0E0,0E0,0E0,0E0,0E0,0E0,0E0,0E0,0E0,0E0,0E0,0E0,0E0,0E0,0E0,0E0,0E0,0E0,0E0,0E0,0E0],"parents":[2147483647,0,0,1,1,2,2,3,3,4,4,5,5,6,6,7,7,8,8,9,9,11,11,12,12,13,13,14,14,15,15,17,17,20,20,21,21,22,22,23,23,24,24,25,25,26,26,27,27,28,28,29,29,30,30,31,31,32,32,33,33,34,34,35,35,36,36,38,38,39,39,42,42,44,44,46,46,47,47,49,49,50,50,53,53,54,54,55,55,56,56,59,59,61,61,65,65,66,66,67,67,70,70,73,73,74,74,75,75,76,76,79,79,80,80,82,82],"right_children":[2,4,6,8,10,12,14,16,18,20,-1,22,24,26,28,30,-1,32,-1,-1,34,36,38,40,42,44,46,48,50,52,54,56,58,60,62,64,66,-1,68,70,-1,-1,72,-1,74,-1,76,78,-1,80,82,-1,-1,84,86,88,90,-1,-1,92,-1,94,-1,-1,-1,96,98,100,-1,-1,102,-1,-1,104,106,108,110,-1,-1,112,114,-1,116,-1,-1,-1,-1,-1,-1,-1,-1,-1,-1,-1,-1,-1,-1,-1,-1,-1,-1,-1,-1,-1,-1,-1,-1,-1,-1,-1,-1,-1,-1,-1,-1,-1,-1],"split_conditions":[1.0603056E7,5.37592E6,2.6971168E7,1.6466682E6,2.4564758E7,2.5506096E7,2.633647E7,8.98E2,1.0603056E7,4.63008E5,1.980588E5,3.510186E6,2.6521264E7,2.7709472E7,2.2188038E6,4.348476E5,7.339094E4,9.945219E-1,2.4746008E4,3.2828195E4,6.88976E6,2.098872E6,4.23776E5,2.6175184E7,2.4306352E7,2.0814972E6,2.6061244E7,2.5881904E-1,3.1297168E7,1.4078042E5,1.90816E6,3.52832E6,1.064416E6,1.1918769E6,2.6048288E7,5.42192E5,4.2045703E5,1.134752E5,9.87456E5,2.3193276E7,1.3432122E5,5.7429758E4,-9.659258E-1,7.1242625E4,4.57216E5,1.8253746E4,2.6578944E7,9.2184E5,6.7764875E4,2.9481934E7,1.8418246E6,6.101562E4,-9.13776E4,4.36128E5,-8.09017E-1,2.1844352E6,3.219648E6,1.5632266E5,-9.691034E4,2.8390096E7,-3.8094105E4,1.5970078E6,3.1598113E3,1.22343305E5,5.6427656E4,-1.4161867E5,-4.0673664E-1,5.49472E5,1.8774016E5,1.0098909E5,2.612904E7,1.7512511E5,1.0298311E5,4.124916E6,2.9866704E7,2.832088E7,2.8124768E7,1.3902661E5,2.0725136E5,4.454039E6,2.135696E6,1.6677139E5,3.2370016E7,-3.0321854E4,-8.948977E4,-8.793518E4,-1.08407664E5,-8.198738E4,-9.505581E4,-6.0329125E4,-7.306116E4,-5.1334906E4,-8.223696E4,-3.2175828E4,-6.067192E4,1.5043855E5,1.929189E5,1.0461149E5,1.6844381E5,1.14801914E5,1.6849466E5,-8.37663E4,-2.0903326E4,8.198787E4,1.7688056E5,1.8617925E5,2.0726945E5,1.573147E5,6.367513E4,1.8160633E5,1.2334674E5,1.9930812E5,2.2092392E5,7.230293E4,1.945397E5,2.2209655E5,1.8257066E5],"split_indices":[0,0,18,23,16,8,24,2,3,9,0,20,18,9,22,19,0,28,0,0,4,11,6,5,6,20,21,26,18,20,8,0,9,22,6,14,25,0,9,16,0,0,27,0,12,0,6,11,0,19,20,0,0,10,28,21,8,0,0,11,0,17,0,0,0,14,28,8,0,0,18,0,0,20,18,18,4,0,0,22,12,0,3,0,0,0,0,0,0,0,0,0,0,0,0,0,0,0,0,0,0,0,0,0,0,0,0,0,0,0,0,0,0,0,0,0,0],"split_type":[0,0,0,0,0,0,0,0,0,0,0,0,0,0,0,0,0,0,0,0,0,0,0,0,0,0,0,0,0,0,0,0,0,0,0,0,0,0,0,0,0,0,0,0,0,0,0,0,0,0,0,0,0,0,0,0,0,0,0,0,0,0,0,0,0,0,0,0,0,0,0,0,0,0,0,0,0,0,0,0,0,0,0,0,0,0,0,0,0,0,0,0,0,0,0,0,0,0,0,0,0,0,0,0,0,0,0,0,0,0,0,0,0,0,0,0,0],"sum_hessian":[9.012E3,6.203E3,2.809E3,5.457E3,7.46E2,5.01E2,2.308E3,2.667E3,2.79E3,7.34E2,1.2E1,3.82E2,1.19E2,6.38E2,1.67E3,2.653E3,1.4E1,2.78E3,1E1,1.6E1,7.18E2,1.07E2,2.75E2,7.5E1,4.4E1,5.04E2,1.34E2,5.9E1,1.611E3,3.4E1,2.619E3,2.745E3,3.5E1,3.85E2,3.33E2,2.8E1,7.9E1,1.5E1,2.6E2,6.2E1,1.3E1,1E1,3.4E1,1E1,4.94E2,1.6E1,1.18E2,4.1E1,1.8E1,9.84E2,6.27E2,1.1E1,2.3E1,4.24E2,2.195E3,2.394E3,3.51E2,1.1E1,2.4E1,3.32E2,5.3E1,3.19E2,1.4E1,1.8E1,1E1,4.9E1,3E1,1.68E2,9.2E1,1E1,5.2E1,2.3E1,1.1E1,3.4E1,4.6E2,4.2E1,7.6E1,1.2E1,2.9E1,9.44E2,4E1,1.7E1,6.1E2,1.5E1,4.09E2,2.34E2,1.961E3,1.538E3,8.56E2,6.9E1,2.82E2,3.12E2,2E1,2.91E2,2.8E1,2.7E1,2.2E1,1.5E1,1.5E1,1.3E1,1.55E2,2.9E1,2.3E1,1.2E1,2.2E1,3.08E2,1.52E2,2.8E1,1.4E1,6.3E1,1.3E1,7.29E2,2.15E2,1.2E1,2.8E1,5.85E2,2.5E1],"tree_param":{"num_deleted":"0","num_feature":"32","num_nodes":"117","size_leaf_vector":"1"}},{"base_weights":[-3.0138171E3,-6.556017E6,1.4392219E7,-7.057591E6,-2.91182E6,1.0869697E7,1.5355742E7,-7.7476205E6,-6.3710815E6,-3.2455122E6,1.8067566E5,1.2713172E7,6.678281E6,1.3788226E7,1.5862995E7,-7.8176255E6,6.0127438E4,-6.4184255E6,-1.8991705E6,-3.9996312E6,-2.4168658E6,1.1024212E7,1.3147336E7,-5.8770094E4,1.1263053E7,1.4837278E7,1.1451173E7,1.1880215E7,1.5998541E7,-3.174823E6,-7.8741565E6,-6.596704E6,-5.262328E6,8.069671E4,-8.9382055E4,-4.268438E6,-3.3548395E6,7.678316E4,-2.6908982E6,7.805644E6,1.2235066E7,1.2348273E7,1.8546848E5,-2.281382E6,1.3267564E5,3.2712145E4,1.2199171E7,1.3013777E7,1.5732595E7,4.7319485E6,1.2898372E7,1.4384851E7,7.2969016E4,1.5261974E7,1.6628462E7,5.7053668E4,-9.019316E4,-6.6490805E6,-8.069107E6,-6.2726645E6,-7.221738E6,-5.4121325E6,-1.8432588E4,-4.0870702E6,-8.6338664E4,-5.1213656E4,-3.8987535E4,-2.2791175E6,7.39648E4,-2.484482E6,-3.8281992E6,6.30243E4,1.20648625E5,1.082177E7,1.7376745E5,1.07789164E5,1.2653082E7,1.0954177E5,-4.3968695E6,9.0770086E4,1.2909321E7,8.3576025E6,1.409151E7,1.4041343E7,2.0919481E5,-3.5868523E4,2.080984E5,1.3973923E7,9.304033E6,2.1775008E5,1.4716255E5,1.5536932E7,1.0666973E7,1.5280211E7,1.6939422E7,-3.3137746E4,-8.8068664E4,-8.682653E4,-1.0613756E5,-6.983233E4,-8.5288734E4,-9.7245875E4,-7.649872E4,-5.9105043E4,-7.213496E4,-5.0459996E4,-6.4657684E4,-4.981041E4,-1.420217E4,-1.400821E4,-3.3362688E4,-8.3459695E4,-2.0407818E4,1.6660322E5,1.1455051E5,1.1191867E5,1.6682634E5,-7.29534E4,1.3334703E4,1.2279328E5,1.7104447E5,2.4460697E4,1.6906964E5,1.6150986E5,2.0032897E5,1.9919245E5,1.3951731E5,1.22189766E5,1.8801266E5,1.4620855E5,6.6646914E4,1.9317316E5,2.0815525E5,8.6015445E4,2.0617055E5,1.3915948E5,2.0090883E5,1.7889828E5,2.198381E5],"categories":[],"categories_nodes":[],"categories_segments":[],"categories_sizes":[],"default_left":[0,0,0,0,0,0,0,0,0,0,0,0,0,0,0,0,0,0,0,0,0,0,0,0,0,0,0,0,0,0,0,0,0,0,0,0,0,0,0,0,0,0,0,0,0,0,0,0,0,0,0,0,0,0,0,0,0,0,0,0,0,0,0,0,0,0,0,0,0,0,0,0,0,0,0,0,0,0,0,0,0,0,0,0,0,0,0,0,0,0,0,0,0,0,0,0,0,0,0,0,0,0,0,0,0,0,0,0,0,0,0,0,0,0,0,0,0,0,0,0,0,0,0,0,0,0,0,0,0,0,0,0,0,0,0,0,0,0,0],"id":8,"left_children":[1,3,5,7,9,11,13,15,17,19,-1,21,23,25,27,29,-1,31,33,35,37,39,41,43,45,47,49,51,53,55,57,59,61,-1,-1,63,65,67,69,71,73,75,-1,77,-1,-1,79,81,83,85,87,89,-1,91,93,-1,-1,95,97,99,101,103,-1,105,-1,-1,-1,107,-1,109,111,-1,-1,113,-1,-1,115,-1,117,-1,119,121,123,125,-1,-1,-1,127,129,-1,-1,131,133,135,137,-1,-1,-1,-1,-1,-1,-1,-1,-1,-1,-1,-1,-1,-1,-1,-1,-1,-1,-1,-1,-1,-1,-1,-1,-1,-1,-1,-1,-1,-1,-1,-1,-1,-1,-1,-1,-1,-1,-1,-1,-1,-1,-1,-1],"loss_changes":[8.527022E17,1.133983E16,9.482738E15,2.5524475E15,4.2809206E15,4.652635E15,1.6140487E15,2.3876582E15,5.718921E14,4.5496964E14,0E0,2.1047487E14,5.797679E15,1.226153E15,7.7202896E14,6.927095E14,0E0,5.350756E14,1.2477887E15,5.702106E13,2.4183015E14,2.8787877E14,2.057547E14,1.7794157E15,8.911681E14,4.7283295E14,1.637321E15,8.4323254E14,5.750102E14,9.984933E14,6.0126106E14,4.442027E14,2.0467989E14,0E0,0E0,9.986443E13,1.5624688E13,4.8464602E14,6.828649E13,8.926392E13,1.3071733E13,1.7886606E14,0E0,1.4772363E15,0E0,0E0,3.0671435E14,5.5991556E14,4.8408576E13,2.7452006E15,4.5851353E14,1.70136E14,0E0,8.3724374E14,1.8404794E14,0E0,0E0,2.5877715E14,4.54356E14,4.2795054E14,2.962239E14,3.5114579E13,0E0,2.743974E13,0E0,0E0,0E0,4.4974037E13,0E0,3.6899675E13,2.7599802E14,0E0,0E0,5.822875E13,0E0,0E0,1.3624925E14,0E0,3.7118866E14,0E0,1.7987323E13,7.7137975E14,9.863607E13,1.5976741E14,0E0,0E0,0E0,1.9749763E14,2.513439E14,0E0,0E0,7.2859825E13,8.769099E14,1.094057E14,6.181317E13,0E0,0E0,0E0,0E0,0E0,0E0,0E0,0E0,0E0,0E0,0E0,0E0,0E0,0E0,0E0,0E0,0E0,0E0,0E0,0E0,0E0,0E0,0E0,0E0,0E0,0E0,0E0,0E0,0E0,0E0,0E0,0E0,0E0,0E0,0E0,0E0,0E0,0E0,0E0,0E0,0E0,0E0,0E0,0E0],"parents":[2147483647,0,0,1,1,2,2,3,3,4,4,5,5,6,6,7,7,8,8,9,9,11,11,12,12,13,13,14,14,15,15,17,17,18,18,19,19,20,20,21,21,22,22,23,23,24,24,25,25,26,26,27,27,28,28,29,29,30,30,31,31,32,32,35,35,36,36,37,37,38,38,39,39,40,40,41,41,43,43,46,46,47,47,48,48,49,49,50,50,51,51,53,53,54,54,57,57,58,58,59,59,60,60,61,61,63,63,67,67,69,69,70,70,73,73,76,76,78,78,80,80,81,81,82,82,83,83,87,87,88,88,91,91,92,92,93,93,94,94],"right_children":[2,4,6,8,10,12,14,16,18,20,-1,22,24,26,28,30,-1,32,34,36,38,40,42,44,46,48,50,52,54,56,58,60,62,-1,-1,64,66,68,70,72,74,76,-1,78,-1,-1,80,82,84,86,88,90,-1,92,94,-1,-1,96,98,100,102,104,-1,106,-1,-1,-1,108,-1,110,112,-1,-1,114,-1,-1,116,-1,118,-1,120,122,124,126,-1,-1,-1,128,130,-1,-1,132,134,136,138,-1,-1,-1,-1,-1,-1,-1,-1,-1,-1,-1,-1,-1,-1,-1,-1,-1,-1,-1,-1,-1,-1,-1,-1,-1,-1,-1,-1,-1,-1,-1,-1,-1,-1,-1,-1,-1,-1,-1,-1,-1,-1,-1,-1],"split_conditions":[1.0603056E7,5.37592E6,2.7617184E7,1.738144E6,2.4564758E7,2.5506096E7,2.634707E7,8.98E2,9.945219E-1,6.810782E6,1.8067566E5,3.100021E6,2.6521264E7,2.6336688E7,2.2188038E6,4.348476E5,6.0127438E4,3.52832E6,8.300719E5,9.5384706E5,2.190448E6,2.128832E6,9.87456E5,2.6175184E7,2.5931656E7,2.53792E7,2.617718E7,2.5881904E-1,3.074344E7,1.4078042E5,1.322496E6,2.1503058E6,1.9692092E6,8.069671E4,-8.9382055E4,2.889768E7,5.765623E6,2.5774098E6,1.6347525E6,2.3565888E7,1.17304E5,4.39168E5,1.8546848E5,2.3193276E7,1.3267564E5,3.2712145E4,2.0684048E7,6.83184E5,4.636016E6,2.0791169E-1,3.222288E6,9.945219E-1,7.2969016E4,2.881193E7,3.2851318E6,5.7053668E4,-9.019316E4,4.36128E5,-8.09017E-1,5.0161738E5,6.856619E5,3.219648E6,-1.8432588E4,2.43E2,-8.6338664E4,-5.1213656E4,-3.8987535E4,5.1127344E4,7.39648E4,6.5607795E6,2.53792E7,6.30243E4,1.20648625E5,2.3260538E7,1.7376745E5,1.07789164E5,5.49472E5,1.0954177E5,4.0673664E-1,9.0770086E4,5.16256E5,4.7413935E6,2.13728E6,2.7201888E7,2.0919481E5,-3.5868523E4,2.080984E5,6.43808E5,2.129888E6,2.1775008E5,1.4716255E5,2.7882768E7,2.5881904E-1,6.0756E5,1.8418246E6,-3.3137746E4,-8.8068664E4,-8.682653E4,-1.0613756E5,-6.983233E4,-8.5288734E4,-9.7245875E4,-7.649872E4,-5.9105043E4,-7.213496E4,-5.0459996E4,-6.4657684E4,-4.981041E4,-1.420217E4,-1.400821E4,-3.3362688E4,-8.3459695E4,-2.0407818E4,1.6660322E5,1.1455051E5,1.1191867E5,1.6682634E5,-7.29534E4,1.3334703E4,1.2279328E5,1.7104447E5,2.4460697E4,1.6906964E5,1.6150986E5,2.0032897E5,1.9919245E5,1.3951731E5,1.22189766E5,1.8801266E5,1.4620855E5,6.6646914E4,1.9317316E5,2.0815525E5,8.6015445E4,2.0617055E5,1.3915948E5,2.0090883E5,1.7889828E5,2.198381E5],"split_indices":[0,3,18,0,16,8,16,2,28,23,0,20,18,9,22,19,0,0,22,22,9,11,9,5,21,6,21,26,18,20,8,21,17,0,0,11,23,17,17,16,14,6,0,16,0,0,9,12,17,29,10,29,0,19,22,0,0,10,28,20,17,8,0,2,0,0,0,25,0,21,6,0,0,23,0,0,8,0,28,0,10,20,9,5,0,0,0,12,12,0,0,23,26,9,20,0,0,0,0,0,0,0,0,0,0,0,0,0,0,0,0,0,0,0,0,0,0,0,0,0,0,0,0,0,0,0,0,0,0,0,0,0,0,0,0,0,0,0,0],"split_type":[0,0,0,0,0,0,0,0,0,0,0,0,0,0,0,0,0,0,0,0,0,0,0,0,0,0,0,0,0,0,0,0,0,0,0,0,0,0,0,0,0,0,0,0,0,0,0,0,0,0,0,0,0,0,0,0,0,0,0,0,0,0,0,0,0,0,0,0,0,0,0,0,0,0,0,0,0,0,0,0,0,0,0,0,0,0,0,0,0,0,0,0,0,0,0,0,0,0,0,0,0,0,0,0,0,0,0,0,0,0,0,0,0,0,0,0,0,0,0,0,0,0,0,0,0,0,0,0,0,0,0,0,0,0,0,0,0,0,0],"sum_hessian":[9.038E3,6.211E3,2.827E3,5.459E3,7.52E2,6.09E2,2.218E3,2.719E3,2.74E3,7.38E2,1.4E1,4.22E2,1.87E2,5.47E2,1.671E3,2.704E3,1.5E1,2.711E3,2.9E1,3.85E2,3.53E2,9E1,3.32E2,7.6E1,1.11E2,3.75E2,1.72E2,5.7E1,1.614E3,3.3E1,2.671E3,2.346E3,3.65E2,1.1E1,1.8E1,2.69E2,1.16E2,3.5E1,3.18E2,2.6E1,6.4E1,2.06E2,1.26E2,6.3E1,1.3E1,1.1E1,1E2,1.27E2,2.48E2,3.1E1,1.41E2,4E1,1.7E1,7.52E2,8.62E2,1.1E1,2.2E1,3.7E2,2.301E3,1.55E3,7.96E2,3.51E2,1.4E1,2.52E2,1.7E1,3.8E1,7.8E1,2.5E1,1E1,2.71E2,4.7E1,1E1,1.6E1,3.3E1,3.1E1,1.6E1,1.9E2,1E1,5.3E1,1.3E1,8.7E1,2.5E1,1.02E2,6E1,1.88E2,1.9E1,1.2E1,1.07E2,3.4E1,2E1,2E1,7.08E2,4.4E1,1.68E2,6.94E2,1.6E1,3.54E2,2.49E2,2.052E3,4.43E2,1.107E3,6.36E2,1.6E2,6.6E1,2.85E2,2.15E2,3.7E1,1E1,1.5E1,1.9E1,2.52E2,2.1E1,2.6E1,1.4E1,1.9E1,1.4E1,1.76E2,4.3E1,1E1,1E1,7.7E1,1.1E1,1.4E1,5.2E1,5E1,4E1,2E1,1.4E1,9.3E1,2.2E1,1.2E1,3.76E2,3.32E2,2.6E1,1.8E1,1.2E1,1.56E2,2.6E1,6.68E2],"tree_param":{"num_deleted":"0","num_feature":"32","num_nodes":"139","size_leaf_vector":"1"}},{"base_weights":[-5.7990894E2,-6.465846E6,1.4195058E7,-6.964626E6,-2.8108768E6,1.0251748E7,1.5047321E7,-7.644945E6,-6.2924595E6,-3.115763E6,1.9343819E5,1.2351945E7,3.6434135E6,1.3367618E7,1.5629312E7,-7.714904E6,7.174931E4,-6.3239805E6,1.8952502E4,3.22991E4,-3.243271E6,1.0988277E7,1.2847117E7,-2.1876428E5,1.015604E7,1.4155273E7,1.02068E7,1.1452148E7,1.5778014E7,-2.6854178E6,-7.7822365E6,-6.3754365E6,-2.0591209E6,-3.9355575E6,-2.5860668E6,7.4272315E6,1.2130893E7,1.7620355E5,1.1615096E7,-2.4125065E6,1.3105021E5,8.224546E4,1.6064428E5,1.3044446E7,1.5097769E7,1.7528713E4,1.1524977E7,1.4387469E7,6.0467492E4,1.5323246E7,1.6637396E7,6.1365035E4,-8.910357E4,-6.63256E6,-7.9937865E6,-6.525167E6,-5.3496085E6,8.602374E4,-9.1577336E4,-4.0681058E6,-3.7306164E4,-2.4696082E6,-8.191072E4,1.17923664E5,5.302019E4,1.0921658E7,1.7127925E5,1.0632432E7,1.8292964E5,9.973536E4,-4.364714E6,1.3477114E7,7.30875E4,1.2706358E7,2.0301177E5,5.572478E4,1.2322212E7,2.1729548E5,1.1472233E7,1.3401421E7,1.5528594E7,1.5009264E5,1.6722008E7,-5.958817E4,-8.92877E4,-8.557793E4,-1.0522064E5,-7.984873E4,-9.185835E4,-7.20224E4,-6.048691E4,-4.904276E4,-6.705122E4,-1.2774587E4,-3.4753316E4,1.5299306E5,9.4726766E4,9.512799E4,1.4244867E5,-7.204387E4,1.3173757E4,1.8584639E5,1.443525E5,1.16156305E5,1.8029189E5,1.2118986E5,1.7040536E5,1.7829295E5,1.1154713E5,6.968306E4,1.9105972E5,1.901339E5,2.0590225E5,1.672162E5,2.1671906E5],"categories":[],"categories_nodes":[],"categories_segments":[],"categories_sizes":[],"default_left":[0,0,0,0,0,0,0,0,0,0,0,0,0,0,0,0,0,0,0,0,0,0,0,0,0,0,0,0,0,0,0,0,0,0,0,0,0,0,0,0,0,0,0,0,0,0,0,0,0,0,0,0,0,0,0,0,0,0,0,0,0,0,0,0,0,0,0,0,0,0,0,0,0,0,0,0,0,0,0,0,0,0,0,0,0,0,0,0,0,0,0,0,0,0,0,0,0,0,0,0,0,0,0,0,0,0,0,0,0,0,0,0,0,0,0],"id":9,"left_children":[1,3,5,7,9,11,13,15,17,19,-1,21,23,25,27,29,-1,31,-1,-1,33,35,37,39,41,43,45,47,49,51,53,55,57,59,61,63,65,-1,67,69,-1,-1,-1,71,73,-1,75,77,-1,79,81,-1,-1,83,85,87,89,-1,-1,91,-1,93,-1,-1,-1,95,-1,97,-1,-1,99,101,-1,103,-1,-1,105,-1,107,109,111,-1,113,-1,-1,-1,-1,-1,-1,-1,-1,-1,-1,-1,-1,-1,-1,-1,-1,-1,-1,-1,-1,-1,-1,-1,-1,-1,-1,-1,-1,-1,-1,-1,-1],"loss_changes":[8.293455E17,1.1305144E16,9.397251E15,2.4649848E15,4.0862652E15,6.973558E15,2.1281735E15,2.5350615E15,6.7961845E14,5.320455E14,0E0,1.6152513E14,3.0874437E15,1.4013104E15,9.4544256E14,8.992459E14,0E0,5.924478E14,0E0,0E0,3.1999815E14,3.72262E14,1.6868914E14,1.7857135E15,3.4245975E14,3.680873E14,1.420131E15,1.1784542E15,4.7402695E14,1.1756947E15,6.109505E14,3.9194154E14,1.514768E15,4.0135396E13,1.5175462E14,1.3173698E14,1.115403E13,0E0,1.8589585E14,1.304311E15,0E0,0E0,0E0,6.6801344E14,2.5539164E14,0E0,5.7623643E14,1.7346621E14,0E0,2.8918874E14,1.0620595E14,0E0,0E0,2.2191667E14,4.6364172E14,4.4056057E14,3.5974646E13,0E0,0E0,7.8861505E13,0E0,1.1815093E14,0E0,0E0,0E0,8.3783E13,0E0,5.905258E13,0E0,0E0,3.6355657E14,3.4227024E14,0E0,1.8514745E14,0E0,0E0,1.6390025E14,0E0,6.1930207E13,1.1950532E15,1.7600776E14,0E0,1.8966576E13,0E0,0E0,0E0,0E0,0E0,0E0,0E0,0E0,0E0,0E0,0E0,0E0,0E0,0E0,0E0,0E0,0E0,0E0,0E0,0E0,0E0,0E0,0E0,0E0,0E0,0E0,0E0,0E0,0E0,0E0,0E0,0E0],"parents":[2147483647,0,0,1,1,2,2,3,3,4,4,5,5,6,6,7,7,8,8,9,9,11,11,12,12,13,13,14,14,15,15,17,17,20,20,21,21,22,22,23,23,24,24,25,25,26,26,27,27,28,28,29,29,30,30,31,31,32,32,33,33,34,34,35,35,36,36,38,38,39,39,43,43,44,44,46,46,47,47,49,49,50,50,53,53,54,54,55,55,56,56,59,59,61,61,65,65,67,67,70,70,71,71,73,73,76,76,78,78,79,79,80,80,82,82],"right_children":[2,4,6,8,10,12,14,16,18,20,-1,22,24,26,28,30,-1,32,-1,-1,34,36,38,40,42,44,46,48,50,52,54,56,58,60,62,64,66,-1,68,70,-1,-1,-1,72,74,-1,76,78,-1,80,82,-1,-1,84,86,88,90,-1,-1,92,-1,94,-1,-1,-1,96,-1,98,-1,-1,100,102,-1,104,-1,-1,106,-1,108,110,112,-1,114,-1,-1,-1,-1,-1,-1,-1,-1,-1,-1,-1,-1,-1,-1,-1,-1,-1,-1,-1,-1,-1,-1,-1,-1,-1,-1,-1,-1,-1,-1,-1,-1],"split_conditions":[1.0603056E7,5.37592E6,2.6971168E7,1.76009E6,2.4564758E7,2.5506096E7,2.6234294E7,8.98E2,1.0603056E7,4.63008E5,1.9343819E5,3.510186E6,2.6521264E7,2.7709472E7,2.2188038E6,4.348476E5,7.174931E4,9.945219E-1,1.8952502E4,3.22991E4,6.62752E6,2.098872E6,2.8282682E6,2.6175184E7,2.895536E7,4.3079055E6,2.6061244E7,2.5881904E-1,4.454039E6,1.4078042E5,1.90816E6,3.52832E6,8.300719E5,1.1918769E6,4.03E2,3.21552E5,1.17304E5,1.7620355E5,9.87456E5,2.3193276E7,1.3105021E5,8.224546E4,1.6064428E5,6.6593115E6,9.863237E6,1.7528713E4,-9.5105654E-1,9.945219E-1,6.0467492E4,-9.781476E-1,2.444255E7,6.1365035E4,-8.910357E4,-9.5105654E-1,-8.09017E-1,2.1674298E6,4.734917E6,8.602374E4,-9.1577336E4,4.0673664E-1,-3.7306164E4,1.0504E6,-8.191072E4,1.17923664E5,5.302019E4,4.2045703E5,1.7127925E5,5.49472E5,1.8292964E5,9.973536E4,4.0673664E-1,2.780176E7,7.30875E4,1.649648E6,2.0301177E5,5.572478E4,-8.660254E-1,2.1729548E5,-6.3448E5,6.67296E5,2.7677994E7,1.5009264E5,5.0531762E5,-5.958817E4,-8.92877E4,-8.557793E4,-1.0522064E5,-7.984873E4,-9.185835E4,-7.20224E4,-6.048691E4,-4.904276E4,-6.705122E4,-1.2774587E4,-3.4753316E4,1.5299306E5,9.4726766E4,9.512799E4,1.4244867E5,-7.204387E4,1.3173757E4,1.8584639E5,1.443525E5,1.16156305E5,1.8029189E5,1.2118986E5,1.7040536E5,1.7829295E5,1.1154713E5,6.968306E4,1.9105972E5,1.901339E5,2.0590225E5,1.672162E5,2.1671906E5],"split_indices":[0,0,18,3,16,8,24,2,3,9,0,20,18,9,22,19,0,28,0,0,4,11,25,5,9,20,21,26,22,20,8,0,22,22,2,15,14,0,9,16,0,0,0,17,21,0,28,29,0,28,19,0,0,29,28,21,23,0,0,29,0,8,0,0,0,25,0,8,0,0,28,8,0,15,0,0,29,0,13,12,24,0,17,0,0,0,0,0,0,0,0,0,0,0,0,0,0,0,0,0,0,0,0,0,0,0,0,0,0,0,0,0,0,0,0],"split_type":[0,0,0,0,0,0,0,0,0,0,0,0,0,0,0,0,0,0,0,0,0,0,0,0,0,0,0,0,0,0,0,0,0,0,0,0,0,0,0,0,0,0,0,0,0,0,0,0,0,0,0,0,0,0,0,0,0,0,0,0,0,0,0,0,0,0,0,0,0,0,0,0,0,0,0,0,0,0,0,0,0,0,0,0,0,0,0,0,0,0,0,0,0,0,0,0,0,0,0,0,0,0,0,0,0,0,0,0,0,0,0,0,0,0,0],"sum_hessian":[9.035E3,6.208E3,2.827E3,5.462E3,7.46E2,5.04E2,2.323E3,2.711E3,2.751E3,7.34E2,1.2E1,3.82E2,1.22E2,6.02E2,1.721E3,2.697E3,1.4E1,2.74E3,1.1E1,1.6E1,7.18E2,1.06E2,2.76E2,7.7E1,4.5E1,4.8E2,1.22E2,6.1E1,1.66E3,3.6E1,2.661E3,2.707E3,3.3E1,3.48E2,3.7E2,2.7E1,7.9E1,1.62E2,1.14E2,6.4E1,1.3E1,1.8E1,2.7E1,2.25E2,2.55E2,1.6E1,1.06E2,4.2E1,1.9E1,1.094E3,5.66E2,1.3E1,2.3E1,4.17E2,2.244E3,2.359E3,3.48E2,1.2E1,2.1E1,3.07E2,4.1E1,3.6E2,1E1,1.7E1,1E1,4.2E1,3.7E1,8.5E1,2.9E1,1E1,5.4E1,2.12E2,1.3E1,5.7E1,1.98E2,1.1E1,9.5E1,2.1E1,2.1E1,1.1E2,9.84E2,1.1E1,5.55E2,5.4E1,3.63E2,2.45E2,1.999E3,1.517E3,8.42E2,2.53E2,9.5E1,2.51E2,5.6E1,4.8E1,3.12E2,3.2E1,1E1,1.1E1,7.4E1,4.4E1,1E1,1.48E2,6.4E1,1.6E1,4.1E1,2.4E1,7.1E1,1E1,1.1E1,1.7E1,9.3E1,3.59E2,6.25E2,1.4E1,5.41E2],"tree_param":{"num_deleted":"0","num_feature":"32","num_nodes":"115","size_leaf_vector":"1"}},{"base_weights":[-6.7914097E3,-6.3856185E6,1.4028833E7,-6.8750795E6,-2.834973E6,1.0577324E7,1.49873E7,-7.5539775E6,-6.218639E6,-3.1898535E6,1.9598947E5,1.2391586E7,6.448431E6,1.4288201E7,1.6026015E7,-7.623158E6,5.8635457E4,-6.2775845E6,-1.1275699E6,-3.885333E6,-2.3195028E6,1.0768089E7,1.2808437E7,-3.88352E4,1.0979277E7,1.4463564E7,1.0710793E7,1.1701638E7,1.6158133E7,-2.7241848E6,-7.6875525E6,-6.4545505E6,-5.1186095E6,1.5024806E5,-9.172768E4,-2.845931E6,-4.0305732E6,3.430352E4,-2.4804592E6,7.551994E6,1.196218E7,1.2011845E7,1.8098219E5,1.14661266E5,-2.415136E6,3.0856068E4,1.1901095E7,9.232079E6,1.4572657E7,1.250506E7,3.4563152E4,9.513586E4,2.0730116E5,1.4585667E7,1.6405964E7,6.5442254E4,-8.798762E4,-6.4741145E6,-7.87958E6,-6.1163515E6,-7.0829365E6,-8.674248E3,-5.24162E6,-4.0445586E4,-2.2728969E4,-3.7248585E6,-5.3553245E6,-2.344496E6,-8.0922086E4,5.6666836E4,1.2804299E5,1.0317982E7,1.6672644E5,1.04694375E5,1.2306333E7,-5.4348035E6,1.2939032E6,8.04947E4,1.2618667E7,1.9133628E5,-8.169968E3,1.0050658E7,1.4667885E7,1.7127369E5,1.11045445E5,9.0543836E4,1.9717845E5,1.6481274E7,1.6403047E5,-3.1730074E4,-8.582218E4,-8.40061E4,-1.0371347E5,-8.401165E4,-6.946823E4,-9.640613E4,-7.720264E4,-3.8918207E4,-6.852435E4,-2.509938E4,-4.9129637E4,-5.1991797E4,-8.627392E4,-6.8240215E3,-3.3194703E4,1.6050275E5,9.197318E4,1.09212125E5,1.6218545E5,-8.735795E4,-2.572222E4,1.2846126E5,-4.7844773E4,1.19372164E5,1.6722611E5,1.904193E5,6.692617E4,1.722302E5,1.937018E5,2.133983E5,1.6637577E5],"categories":[],"categories_nodes":[],"categories_segments":[],"categories_sizes":[],"default_left":[0,0,0,0,0,0,0,0,0,0,0,0,0,0,0,0,0,0,0,0,0,0,0,0,0,0,0,0,0,0,0,0,0,0,0,0,0,0,0,0,0,0,0,0,0,0,0,0,0,0,0,0,0,0,0,0,0,0,0,0,0,0,0,0,0,0,0,0,0,0,0,0,0,0,0,0,0,0,0,0,0,0,0,0,0,0,0,0,0,0,0,0,0,0,0,0,0,0,0,0,0,0,0,0,0,0,0,0,0,0,0,0,0,0,0,0,0,0,0,0,0],"id":10,"left_children":[1,3,5,7,9,11,13,15,17,19,-1,21,23,25,27,29,-1,31,33,35,37,39,41,43,45,47,49,51,53,55,57,59,61,-1,-1,63,65,-1,67,69,71,73,-1,-1,75,-1,77,79,81,83,-1,-1,-1,85,87,-1,-1,89,91,93,95,-1,97,-1,-1,99,101,103,-1,-1,-1,105,-1,-1,107,109,111,-1,113,-1,-1,115,117,-1,-1,-1,-1,119,-1,-1,-1,-1,-1,-1,-1,-1,-1,-1,-1,-1,-1,-1,-1,-1,-1,-1,-1,-1,-1,-1,-1,-1,-1,-1,-1,-1,-1,-1,-1,-1,-1],"loss_changes":[8.099292E17,1.0795813E16,9.242357E15,2.403584E15,4.8622466E15,4.5646955E15,1.4481599E15,2.2703025E15,8.302172E14,4.4216044E14,0E0,1.9478106E14,5.575704E15,7.266054E14,3.7512244E14,8.274856E14,0E0,5.414923E14,2.5560142E15,5.4125715E13,2.6954758E14,2.9010357E14,2.1246774E14,1.6842573E15,8.645243E14,6.288691E14,9.091195E14,4.609912E14,1.6925607E14,1.1640755E15,5.7866953E14,4.7685304E14,1.986723E14,0E0,0E0,1.2759777E13,1.3157579E14,0E0,1.5531192E14,1.7028901E14,1.262613E13,1.7078937E14,0E0,0E0,7.0691685E14,0E0,3.5489637E14,1.5367503E15,4.3135216E14,8.042165E13,0E0,0E0,0E0,5.779394E14,5.9940564E13,0E0,0E0,2.5133719E14,4.652824E14,4.2697988E14,3.258334E14,0E0,4.565765E13,0E0,0E0,3.8935758E13,9.750824E13,1.2831765E14,0E0,0E0,0E0,1.2670744E14,0E0,0E0,1.25352916E14,1.5043385E14,1.2691783E15,0E0,2.1073257E13,0E0,0E0,5.8180325E14,4.192919E14,0E0,0E0,0E0,0E0,1.7678085E13,0E0,0E0,0E0,0E0,0E0,0E0,0E0,0E0,0E0,0E0,0E0,0E0,0E0,0E0,0E0,0E0,0E0,0E0,0E0,0E0,0E0,0E0,0E0,0E0,0E0,0E0,0E0,0E0,0E0,0E0,0E0,0E0,0E0],"parents":[2147483647,0,0,1,1,2,2,3,3,4,4,5,5,6,6,7,7,8,8,9,9,11,11,12,12,13,13,14,14,15,15,17,17,18,18,19,19,20,20,21,21,22,22,23,23,24,24,25,25,26,26,27,27,28,28,29,29,30,30,31,31,32,32,35,35,36,36,38,38,39,39,40,40,41,41,44,44,46,46,47,47,48,48,49,49,53,53,54,54,57,57,58,58,59,59,60,60,62,62,65,65,66,66,67,67,71,71,74,74,75,75,76,76,78,78,81,81,82,82,87,87],"right_children":[2,4,6,8,10,12,14,16,18,20,-1,22,24,26,28,30,-1,32,34,36,38,40,42,44,46,48,50,52,54,56,58,60,62,-1,-1,64,66,-1,68,70,72,74,-1,-1,76,-1,78,80,82,84,-1,-1,-1,86,88,-1,-1,90,92,94,96,-1,98,-1,-1,100,102,104,-1,-1,-1,106,-1,-1,108,110,112,-1,114,-1,-1,116,118,-1,-1,-1,-1,120,-1,-1,-1,-1,-1,-1,-1,-1,-1,-1,-1,-1,-1,-1,-1,-1,-1,-1,-1,-1,-1,-1,-1,-1,-1,-1,-1,-1,-1,-1,-1,-1,-1],"split_conditions":[1.0603056E7,5.37592E6,2.7617184E7,1.24888E6,2.4564758E7,2.5506096E7,2.8412792E7,8.98E2,9.945219E-1,6.88976E6,1.9598947E5,3.100021E6,2.6521264E7,1.2357264E7,2.1447862E6,4.348476E5,5.8635457E4,3.52832E6,1.064416E6,3.221232E6,4.63008E5,2.128832E6,9.87456E5,2.3193276E7,2.5931656E7,1.8767E5,2.5881904E-1,2.9312976E7,3.7387492E4,1.4078042E5,1.322496E6,2.1503058E6,7.65272E5,1.5024806E5,-9.172768E4,2.673615E6,4.0673664E-1,3.430352E4,4.03E2,2.4075632E7,1.4768556E7,4.39168E5,1.8098219E5,1.14661266E5,2.612904E7,3.0856068E4,2.0684048E7,2.5956E7,1.7741095E6,1.661184E6,3.4563152E4,9.513586E4,2.0730116E5,5.05648E5,3.2370016E7,6.5442254E4,-8.798762E4,4.36128E5,-8.09017E-1,2.455232E6,3.213312E6,-8.674248E3,-9.5105654E-1,-4.0445586E4,-2.2728969E4,2.09824E5,5.57856E6,6.8876E5,-8.0922086E4,5.6666836E4,1.2804299E5,1.0977011E7,1.6672644E5,1.04694375E5,5.49472E5,1.5970078E6,4.55344E6,8.04947E4,5.16256E5,1.9133628E5,-8.169968E3,2.8020944E7,2.5321594E7,1.7127369E5,1.11045445E5,9.0543836E4,1.9717845E5,3.0198172E7,1.6403047E5,-3.1730074E4,-8.582218E4,-8.40061E4,-1.0371347E5,-8.401165E4,-6.946823E4,-9.640613E4,-7.720264E4,-3.8918207E4,-6.852435E4,-2.509938E4,-4.9129637E4,-5.1991797E4,-8.627392E4,-6.8240215E3,-3.3194703E4,1.6050275E5,9.197318E4,1.09212125E5,1.6218545E5,-8.735795E4,-2.572222E4,1.2846126E5,-4.7844773E4,1.19372164E5,1.6722611E5,1.904193E5,6.692617E4,1.722302E5,1.937018E5,2.133983E5,1.6637577E5],"split_indices":[0,3,18,0,16,8,23,2,28,0,0,20,18,10,22,19,0,0,9,8,9,11,9,16,21,11,26,4,25,20,8,21,6,0,0,22,29,0,2,5,21,6,0,0,18,0,9,8,20,14,0,0,0,12,3,0,0,10,28,19,18,0,28,0,0,12,3,8,0,0,0,22,0,0,8,17,12,0,10,0,0,4,19,0,0,0,0,19,0,0,0,0,0,0,0,0,0,0,0,0,0,0,0,0,0,0,0,0,0,0,0,0,0,0,0,0,0,0,0,0,0],"split_type":[0,0,0,0,0,0,0,0,0,0,0,0,0,0,0,0,0,0,0,0,0,0,0,0,0,0,0,0,0,0,0,0,0,0,0,0,0,0,0,0,0,0,0,0,0,0,0,0,0,0,0,0,0,0,0,0,0,0,0,0,0,0,0,0,0,0,0,0,0,0,0,0,0,0,0,0,0,0,0,0,0,0,0,0,0,0,0,0,0,0,0,0,0,0,0,0,0,0,0,0,0,0,0,0,0,0,0,0,0,0,0,0,0,0,0,0,0,0,0,0,0],"sum_hessian":[9.045E3,6.219E3,2.826E3,5.465E3,7.54E2,6.16E2,2.21E3,2.683E3,2.782E3,7.4E2,1.4E1,4.27E2,1.89E2,1.327E3,8.83E2,2.668E3,1.5E1,2.75E3,3.2E1,4.1E2,3.3E2,9.1E1,3.36E2,7.8E1,1.11E2,1.263E3,6.4E1,2.8E1,8.55E2,3.5E1,2.633E3,2.383E3,3.67E2,1E1,2.2E1,5.2E1,3.58E2,1E1,3.2E2,2.6E1,6.5E1,2.08E2,1.28E2,1.6E1,6.2E1,1.1E1,1E2,2.7E1,1.236E3,5.2E1,1.2E1,1.5E1,1.3E1,1.22E2,7.33E2,1.2E1,2.3E1,3.63E2,2.27E3,1.554E3,8.29E2,1E1,3.57E2,4E1,1.2E1,2.93E2,6.5E1,3.1E2,1E1,1.2E1,1.4E1,2.7E1,3.8E1,1.6E1,1.92E2,3.4E1,2.8E1,1.2E1,8.8E1,1.7E1,1E1,2.7E1,1.209E3,4.2E1,1E1,1.1E1,1.11E2,7.16E2,1.7E1,1.6E1,3.47E2,2.43E2,2.027E3,1.003E3,5.51E2,6.08E2,2.21E2,1.2E1,3.45E2,1.4E1,2.79E2,3.4E1,3.1E1,3.5E1,2.75E2,1.5E1,1.2E1,1.4E1,1.78E2,2.4E1,1E1,1E1,1.8E1,1E1,7.8E1,1.3E1,1.4E1,2.6E2,9.49E2,7.01E2,1.5E1],"tree_param":{"num_deleted":"0","num_feature":"32","num_nodes":"121","size_leaf_vector":"1"}},{"base_weights":[-8.730719E3,-6.3053955E6,1.3855918E7,-6.7899E6,-2.7315675E6,1.0528174E7,1.4774982E7,-7.475068E6,-6.1329245E6,-3.030016E6,1.8868712E5,1.2228015E7,6.595245E6,1.308188E7,1.5204777E7,-7.5443415E6,7.014623E4,-6.1631155E6,1.8466074E4,3.1779662E4,-3.1552028E6,1.0630423E7,1.2638145E7,-1.8766633E4,1.1238412E7,1.3948668E7,9.611934E6,1.1633137E7,1.532399E7,-2.619327E6,-7.6111315E6,-6.3354985E6,-5.1456875E6,-3.779266E6,-2.4166762E6,7.679203E6,1.1780785E7,1.1869566E7,1.7840827E5,-2.132057E6,1.2859608E5,9.479487E6,1.687858E5,1.2045789E7,1.4794523E7,2.6459158E2,1.1463705E7,1.404076E7,6.9272766E4,1.4822321E7,1.613811E7,5.981151E4,-8.688565E4,-6.4487195E6,-7.831522E6,-6.526961E6,-5.213871E6,-5.6509925E6,1.404986E5,-4.0638725E6,-3.238314E6,-2.2850768E6,-7.99454E4,1.1571921E5,6.5088543E4,1.2704256E7,1.003922E7,1.03399586E5,1.2159429E7,1.03720375E5,-4.3193925E6,7.692172E6,1.6796783E5,7.1813075E6,1.3346807E7,1.2447933E7,1.9892727E5,7.119984E4,1.2387269E7,2.1221117E5,1.1183986E7,1.4950028E7,1.1368541E7,1.4544406E7,1.6438931E7,-2.815203E4,-8.515185E4,-1.0140169E5,-4.5457117E4,-7.9112836E4,-8.8373445E4,-5.7195727E4,-6.957081E4,-7.893532E4,1.501322E5,-4.991525E4,-7.8556336E4,-4.9999043E4,-3.8006953E4,-3.2515525E4,-8.058021E3,1.3558028E5,1.853323E5,9.194017E4,1.5779277E5,1.0786936E5,1.6023358E5,-8.066841E4,-1.9167234E4,3.1344088E4,1.2062857E5,3.3475203E4,1.6151652E5,1.4927778E5,1.9192662E5,1.87613E5,7.623769E4,1.22518984E5,1.7622697E5,1.7419694E5,1.0839358E5,1.875884E5,2.03699E5,7.217177E4,1.8383578E5,1.9442194E5,1.3093303E5,1.9806727E5,2.1769328E5],"categories":[],"categories_nodes":[],"categories_segments":[],"categories_sizes":[],"default_left":[0,0,0,0,0,0,0,0,0,0,0,0,0,0,0,0,0,0,0,0,0,0,0,0,0,0,0,0,0,0,0,0,0,0,0,0,0,0,0,0,0,0,0,0,0,0,0,0,0,0,0,0,0,0,0,0,0,0,0,0,0,0,0,0,0,0,0,0,0,0,0,0,0,0,0,0,0,0,0,0,0,0,0,0,0,0,0,0,0,0,0,0,0,0,0,0,0,0,0,0,0,0,0,0,0,0,0,0,0,0,0,0,0,0,0,0,0,0,0,0,0,0,0,0,0,0,0,0,0],"id":11,"left_children":[1,3,5,7,9,11,13,15,17,19,-1,21,23,25,27,29,-1,31,-1,-1,33,35,37,39,41,43,45,47,49,51,53,55,57,59,61,63,65,67,-1,69,-1,71,-1,73,75,-1,77,79,-1,81,83,-1,-1,85,87,89,91,93,-1,95,97,99,-1,-1,-1,101,103,-1,105,-1,107,109,-1,111,113,115,-1,-1,117,-1,119,121,123,125,127,-1,-1,-1,-1,-1,-1,-1,-1,-1,-1,-1,-1,-1,-1,-1,-1,-1,-1,-1,-1,-1,-1,-1,-1,-1,-1,-1,-1,-1,-1,-1,-1,-1,-1,-1,-1,-1,-1,-1,-1,-1,-1,-1,-1],"loss_changes":[7.895832E17,1.0756883E16,8.532279E15,2.4338033E15,3.8837091E15,4.0473624E15,1.4729333E15,2.423547E15,6.4547346E14,5.085687E14,0E0,1.8802078E14,5.733272E15,1.2695322E15,6.269278E14,8.625153E14,0E0,4.667255E14,0E0,0E0,3.2358284E14,2.4918434E14,1.9634872E14,1.6545362E15,2.7137966E14,4.5823865E14,1.6460494E15,8.481465E14,5.3044564E14,1.11749224E15,6.38507E14,4.8810585E14,3.3463422E15,5.0501836E13,1.5435267E14,6.315669E13,1.6501801E13,1.6726965E14,0E0,1.4633253E15,0E0,3.0292136E14,0E0,6.6004306E14,2.3219882E14,0E0,3.7950116E14,1.6789457E14,0E0,3.511909E14,1.4307395E14,0E0,0E0,2.6651453E14,2.6949202E14,2.3063115E14,3.2808181E13,3.2579324E15,0E0,8.230822E13,1.7594065E13,1.24142E14,0E0,0E0,0E0,4.120216E13,1.0425362E14,0E0,1.2266641E14,0E0,2.8795467E14,3.3988224E14,0E0,6.068852E14,1.25673964E14,7.047526E14,0E0,0E0,1.5667611E14,0E0,6.2082947E13,1.9169298E14,6.22803E14,1.4547913E14,7.58663E13,0E0,0E0,0E0,0E0,0E0,0E0,0E0,0E0,0E0,0E0,0E0,0E0,0E0,0E0,0E0,0E0,0E0,0E0,0E0,0E0,0E0,0E0,0E0,0E0,0E0,0E0,0E0,0E0,0E0,0E0,0E0,0E0,0E0,0E0,0E0,0E0,0E0,0E0,0E0,0E0,0E0,0E0,0E0,0E0],"parents":[2147483647,0,0,1,1,2,2,3,3,4,4,5,5,6,6,7,7,8,8,9,9,11,11,12,12,13,13,14,14,15,15,17,17,20,20,21,21,22,22,23,23,24,24,25,25,26,26,27,27,28,28,29,29,30,30,31,31,32,32,33,33,34,34,35,35,36,36,37,37,39,39,41,41,43,43,44,44,46,46,47,47,49,49,50,50,53,53,54,54,55,55,56,56,57,57,59,59,60,60,61,61,65,65,66,66,68,68,70,70,71,71,73,73,74,74,75,75,78,78,80,80,81,81,82,82,83,83,84,84],"right_children":[2,4,6,8,10,12,14,16,18,20,-1,22,24,26,28,30,-1,32,-1,-1,34,36,38,40,42,44,46,48,50,52,54,56,58,60,62,64,66,68,-1,70,-1,72,-1,74,76,-1,78,80,-1,82,84,-1,-1,86,88,90,92,94,-1,96,98,100,-1,-1,-1,102,104,-1,106,-1,108,110,-1,112,114,116,-1,-1,118,-1,120,122,124,126,128,-1,-1,-1,-1,-1,-1,-1,-1,-1,-1,-1,-1,-1,-1,-1,-1,-1,-1,-1,-1,-1,-1,-1,-1,-1,-1,-1,-1,-1,-1,-1,-1,-1,-1,-1,-1,-1,-1,-1,-1,-1,-1,-1,-1],"split_conditions":[1.0603056E7,5.37592E6,2.7617184E7,1.6466682E6,2.4564758E7,2.5506096E7,2.6012748E7,8.98E2,1.0603056E7,4.63008E5,1.8868712E5,3.100021E6,2.6521264E7,2.780176E7,2.2188038E6,4.348476E5,7.014623E4,6.25E2,1.8466074E4,3.1779662E4,6.88976E6,2.128832E6,9.87456E5,2.6175184E7,2.6486656E7,2.53792E7,2.6061244E7,2.5881904E-1,3.1297168E7,1.4078042E5,1.90816E6,3.52832E6,3.220704E6,8.374057E5,4.03E2,4.72976E5,4.2045703E5,4.39168E5,1.7840827E5,2.3193276E7,1.2859608E5,2.6336688E7,1.687858E5,6.83184E5,4.636016E6,2.6459158E2,3.301867E6,9.945219E-1,6.9272766E4,2.9481934E7,-8.660254E-1,5.981151E4,-8.688565E4,4.36128E5,3.23008E7,1.8428944E6,3.219648E6,2.6107552E6,1.404986E5,2.8390096E7,6.21032E6,3.40912E6,-7.99454E4,1.1571921E5,6.5088543E4,-1.4161867E5,2.2046838E6,1.03399586E5,5.49472E5,1.03720375E5,2.612904E7,3.4134578E6,1.6796783E5,4.7413935E6,2.13728E6,2.9832096E7,1.9892727E5,7.119984E4,2.5067728E7,2.1221117E5,-6.3448E5,4.303707E6,1.2246469E-16,4.646477E6,8.9294617E2,-2.815203E4,-8.515185E4,-1.0140169E5,-4.5457117E4,-7.9112836E4,-8.8373445E4,-5.7195727E4,-6.957081E4,-7.893532E4,1.501322E5,-4.991525E4,-7.8556336E4,-4.9999043E4,-3.8006953E4,-3.2515525E4,-8.058021E3,1.3558028E5,1.853323E5,9.194017E4,1.5779277E5,1.0786936E5,1.6023358E5,-8.066841E4,-1.9167234E4,3.1344088E4,1.2062857E5,3.3475203E4,1.6151652E5,1.4927778E5,1.9192662E5,1.87613E5,7.623769E4,1.22518984E5,1.7622697E5,1.7419694E5,1.0839358E5,1.875884E5,2.03699E5,7.217177E4,1.8383578E5,1.9442194E5,1.3093303E5,1.9806727E5,2.1769328E5],"split_indices":[0,0,18,23,16,8,16,2,3,9,0,20,18,9,22,19,0,2,0,0,4,11,9,5,6,6,21,26,18,20,8,0,12,22,2,14,25,6,0,16,0,4,0,12,17,0,20,29,0,19,29,0,0,10,11,21,8,21,0,11,0,12,0,0,0,14,17,0,8,0,18,22,0,20,9,18,0,0,3,0,13,22,26,20,25,0,0,0,0,0,0,0,0,0,0,0,0,0,0,0,0,0,0,0,0,0,0,0,0,0,0,0,0,0,0,0,0,0,0,0,0,0,0,0,0,0,0,0,0],"split_type":[0,0,0,0,0,0,0,0,0,0,0,0,0,0,0,0,0,0,0,0,0,0,0,0,0,0,0,0,0,0,0,0,0,0,0,0,0,0,0,0,0,0,0,0,0,0,0,0,0,0,0,0,0,0,0,0,0,0,0,0,0,0,0,0,0,0,0,0,0,0,0,0,0,0,0,0,0,0,0,0,0,0,0,0,0,0,0,0,0,0,0,0,0,0,0,0,0,0,0,0,0,0,0,0,0,0,0,0,0,0,0,0,0,0,0,0,0,0,0,0,0,0,0,0,0,0,0,0,0],"sum_hessian":[9.043E3,6.219E3,2.824E3,5.476E3,7.43E2,6.13E2,2.211E3,2.677E3,2.799E3,7.31E2,1.2E1,4.27E2,1.86E2,4.52E2,1.759E3,2.663E3,1.4E1,2.788E3,1.1E1,1.6E1,7.15E2,9.1E1,3.36E2,7.7E1,1.09E2,3.6E2,9.2E1,5.9E1,1.7E3,3.6E1,2.627E3,2.381E3,4.07E2,3.86E2,3.29E2,2.7E1,6.4E1,2.09E2,1.27E2,6.4E1,1.3E1,5.8E1,5.1E1,1.14E2,2.46E2,1.5E1,7.7E1,4.2E1,1.7E1,1.06E3,6.4E2,1.3E1,2.3E1,4.22E2,2.205E3,2.031E3,3.5E2,3.95E2,1.2E1,2.5E2,1.36E2,3.19E2,1E1,1.7E1,1E1,3.9E1,2.5E1,1.6E1,1.93E2,1.1E1,5.3E1,4E1,1.8E1,2.5E1,8.9E1,5.5E1,1.91E2,1.1E1,6.6E1,2.1E1,2.1E1,1.02E3,4E1,1.07E2,5.33E2,1.5E1,4.07E2,2.189E3,1.6E1,9.25E2,1.106E3,6.9E1,2.81E2,3.85E2,1E1,2.3E2,2E1,4E1,9.6E1,2.79E2,4E1,1.9E1,2E1,1.2E1,1.3E1,1.4E1,1.79E2,3.1E1,2.2E1,1E1,3E1,1.4E1,1.1E1,4.4E1,4.5E1,4.1E1,1.4E1,2.2E1,4.4E1,1E1,1.1E1,6.97E2,3.23E2,1.4E1,2.6E1,9.4E1,1.3E1,1.61E2,3.72E2],"tree_param":{"num_deleted":"0","num_feature":"32","num_nodes":"129","size_leaf_vector":"1"}},{"base_weights":[5.5453027E3,-6.2193515E6,1.3672498E7,-6.703716E6,-2.7331052E6,9.88031E6,1.448918E7,-7.3520125E6,-6.057059E6,-3.069552E6,1.7174723E5,1.1910697E7,3.2422828E6,1.3033418E7,1.507517E7,-7.418592E6,5.716971E4,-6.101571E6,-1.867572E6,-3.7960078E6,-2.2845648E6,1.0486257E7,1.2412841E7,-1.4495091E6,1.0248739E7,3.475262E4,1.3218686E7,1.148958E7,1.5203045E7,-2.4243808E6,-7.483541E6,-6.2700665E6,-5.0070095E6,7.683835E4,-8.632159E4,-4.043406E6,-3.1967565E6,3.2450375E5,-2.558463E6,7.516577E6,1.4904738E5,1.1128042E5,1.2634408E7,-3.7129872E6,1.3400539E5,6.0379863E4,1.1830476E7,1.3622758E7,8.385913E6,1.386762E7,6.841396E4,1.4444792E7,1.5733125E7,5.907875E4,-8.4829055E4,-6.2989645E6,-7.669593E6,-5.964401E6,-6.8495E6,-5.1537145E6,-1.6508281E4,-3.8685952E6,-8.2340625E4,-4.861772E4,-3.718886E4,7.375471E4,-2.019432E6,-2.359177E6,-3.6821208E6,5.9750633E4,1.2347005E5,1.2027372E7,1.7517195E5,-5.545706E6,-6.894408E5,1.08710766E5,1.7351975E5,1.1213451E7,1.4054188E7,1.5074422E5,2.5142242E4,2.0956072E5,1.1048679E7,1.4694545E7,6.943519E6,1.4410089E7,1.5974973E7,-3.0950238E4,-8.3483695E4,-8.185803E4,-1.0091851E5,-6.635044E4,-8.10805E4,-9.33676E4,-7.505424E4,-6.942256E4,-5.8372652E4,-4.777827E4,-6.076733E4,-4.160301E4,-1.3509624E4,-1.3438976E4,-3.1640559E4,-8.100182E4,-1.9038445E4,1.6539581E5,1.3957627E5,-9.101726E4,-4.595695E4,-4.2174043E4,2.7759543E4,1.7035655E5,8.632486E4,1.6873905E5,1.8865852E5,1.7209445E5,1.0707763E5,1.8572625E5,2.0264338E5,1.3507102E4,1.4877211E5,1.335443E5,1.8932314E5,1.7092031E5,2.076846E5],"categories":[],"categories_nodes":[],"categories_segments":[],"categories_sizes":[],"default_left":[0,0,0,0,0,0,0,0,0,0,0,0,0,0,0,0,0,0,0,0,0,0,0,0,0,0,0,0,0,0,0,0,0,0,0,0,0,0,0,0,0,0,0,0,0,0,0,0,0,0,0,0,0,0,0,0,0,0,0,0,0,0,0,0,0,0,0,0,0,0,0,0,0,0,0,0,0,0,0,0,0,0,0,0,0,0,0,0,0,0,0,0,0,0,0,0,0,0,0,0,0,0,0,0,0,0,0,0,0,0,0,0,0,0,0,0,0,0,0,0,0,0,0,0,0],"id":12,"left_children":[1,3,5,7,9,11,13,15,17,19,-1,21,23,25,27,29,-1,31,33,35,37,39,41,43,45,-1,47,49,51,53,55,57,59,-1,-1,61,63,65,67,69,-1,-1,71,73,-1,-1,75,77,79,81,-1,83,85,-1,-1,87,89,91,93,95,-1,97,-1,-1,-1,-1,99,101,103,-1,-1,105,-1,107,109,-1,-1,111,113,-1,-1,-1,115,117,119,121,123,-1,-1,-1,-1,-1,-1,-1,-1,-1,-1,-1,-1,-1,-1,-1,-1,-1,-1,-1,-1,-1,-1,-1,-1,-1,-1,-1,-1,-1,-1,-1,-1,-1,-1,-1,-1,-1,-1],"loss_changes":[7.6792194E17,1.0459671E16,8.649858E15,2.2519716E15,4.1192908E15,6.7485833E15,1.846561E15,2.1532904E15,5.012227E14,4.1757068E14,0E0,1.8582606E14,3.9117504E15,1.262162E15,6.374075E14,8.635805E14,0E0,4.765438E14,1.1482204E15,4.8160005E13,2.568942E14,2.7294195E14,1.6058024E14,1.9475143E15,3.8191923E14,0E0,1.2098322E15,8.2743565E14,4.8416307E14,1.0587352E15,5.5432566E14,3.859973E14,1.9433009E14,0E0,0E0,9.339702E13,1.3305406E13,4.464593E14,6.6745E13,1.456155E14,0E0,0E0,3.9483634E13,3.3365755E14,0E0,0E0,1.2471833E14,5.2350497E14,1.1040039E15,1.6319104E14,0E0,1.1733765E15,1.3950054E14,0E0,0E0,2.3703066E14,4.372019E14,3.832743E14,2.93226E14,3.3515777E13,0E0,2.300116E13,0E0,0E0,0E0,0E0,2.6622724E13,3.262229E13,2.6695363E14,0E0,0E0,6.4761664E13,0E0,9.564288E13,1.7851508E14,0E0,0E0,8.0211735E14,1.5401753E14,0E0,0E0,0E0,6.0631785E13,3.7074158E13,6.058379E14,5.98246E13,1.237466E14,0E0,0E0,0E0,0E0,0E0,0E0,0E0,0E0,0E0,0E0,0E0,0E0,0E0,0E0,0E0,0E0,0E0,0E0,0E0,0E0,0E0,0E0,0E0,0E0,0E0,0E0,0E0,0E0,0E0,0E0,0E0,0E0,0E0,0E0,0E0,0E0,0E0,0E0],"parents":[2147483647,0,0,1,1,2,2,3,3,4,4,5,5,6,6,7,7,8,8,9,9,11,11,12,12,13,13,14,14,15,15,17,17,18,18,19,19,20,20,21,21,22,22,23,23,24,24,26,26,27,27,28,28,29,29,30,30,31,31,32,32,35,35,36,36,37,37,38,38,39,39,42,42,43,43,46,46,47,47,48,48,49,49,51,51,52,52,55,55,56,56,57,57,58,58,59,59,61,61,66,66,67,67,68,68,71,71,73,73,74,74,77,77,78,78,82,82,83,83,84,84,85,85,86,86],"right_children":[2,4,6,8,10,12,14,16,18,20,-1,22,24,26,28,30,-1,32,34,36,38,40,42,44,46,-1,48,50,52,54,56,58,60,-1,-1,62,64,66,68,70,-1,-1,72,74,-1,-1,76,78,80,82,-1,84,86,-1,-1,88,90,92,94,96,-1,98,-1,-1,-1,-1,100,102,104,-1,-1,106,-1,108,110,-1,-1,112,114,-1,-1,-1,116,118,120,122,124,-1,-1,-1,-1,-1,-1,-1,-1,-1,-1,-1,-1,-1,-1,-1,-1,-1,-1,-1,-1,-1,-1,-1,-1,-1,-1,-1,-1,-1,-1,-1,-1,-1,-1,-1,-1,-1,-1],"split_conditions":[1.0603056E7,5.37592E6,2.6971168E7,1.738144E6,2.4564758E7,3.52832E6,2.6463584E7,8.98E2,9.945219E-1,6.810782E6,1.7174723E5,3.510186E6,2.6521264E7,1.56512E5,2.2188038E6,4.348476E5,5.716971E4,3.52832E6,8.300719E5,9.5384706E5,2.190448E6,2.098872E6,4.23776E5,2.6175184E7,2.4306352E7,3.475262E4,3.222288E6,2.5881904E-1,3.0605008E7,1.4078042E5,1.322496E6,2.1503058E6,1.9692092E6,7.683835E4,-8.632159E4,2.889768E7,5.765623E6,-9.536E4,1.6347525E6,2.3565888E7,1.4904738E5,1.1128042E5,9.87456E5,2.6280428E7,1.3400539E5,6.0379863E4,2.5150092E7,6.83184E5,2.5881904E-1,9.945219E-1,6.841396E4,2.881193E7,3.2146672E6,5.907875E4,-8.4829055E4,4.36128E5,-8.09017E-1,5.0161738E5,3.213312E6,4.734917E6,-1.6508281E4,2.43E2,-8.2340625E4,-4.861772E4,-3.718886E4,7.375471E4,3.4727028E6,6.5607795E6,2.53792E7,5.9750633E4,1.2347005E5,2.8282682E6,1.7517195E5,2.7421072E7,2.1537195E6,1.08710766E5,1.7351975E5,2.9635984E7,4.636016E6,1.5074422E5,2.5142242E4,2.0956072E5,-6.3448E5,4.578543E6,2.874132E7,6.0756E5,1.8418246E6,-3.0950238E4,-8.3483695E4,-8.185803E4,-1.0091851E5,-6.635044E4,-8.10805E4,-9.33676E4,-7.505424E4,-6.942256E4,-5.8372652E4,-4.777827E4,-6.076733E4,-4.160301E4,-1.3509624E4,-1.3438976E4,-3.1640559E4,-8.100182E4,-1.9038445E4,1.6539581E5,1.3957627E5,-9.101726E4,-4.595695E4,-4.2174043E4,2.7759543E4,1.7035655E5,8.632486E4,1.6873905E5,1.8865852E5,1.7209445E5,1.0707763E5,1.8572625E5,2.0264338E5,1.3507102E4,1.4877211E5,1.335443E5,1.8932314E5,1.7092031E5,2.076846E5],"split_indices":[0,3,18,0,16,9,16,2,28,23,0,20,18,11,22,19,0,0,22,22,9,11,6,5,6,0,10,26,18,20,8,21,17,0,0,11,23,14,17,16,0,0,9,21,0,0,19,12,26,29,0,19,22,0,0,10,28,20,18,23,0,2,0,0,0,0,22,21,6,0,0,25,0,7,20,0,0,18,17,0,0,0,13,22,16,9,20,0,0,0,0,0,0,0,0,0,0,0,0,0,0,0,0,0,0,0,0,0,0,0,0,0,0,0,0,0,0,0,0,0,0,0,0,0,0],"split_type":[0,0,0,0,0,0,0,0,0,0,0,0,0,0,0,0,0,0,0,0,0,0,0,0,0,0,0,0,0,0,0,0,0,0,0,0,0,0,0,0,0,0,0,0,0,0,0,0,0,0,0,0,0,0,0,0,0,0,0,0,0,0,0,0,0,0,0,0,0,0,0,0,0,0,0,0,0,0,0,0,0,0,0,0,0,0,0,0,0,0,0,0,0,0,0,0,0,0,0,0,0,0,0,0,0,0,0,0,0,0,0,0,0,0,0,0,0,0,0,0,0,0,0,0,0],"sum_hessian":[9.025E3,6.201E3,2.824E3,5.444E3,7.57E2,5.02E2,2.322E3,2.715E3,2.729E3,7.42E2,1.5E1,3.84E2,1.18E2,6.71E2,1.651E3,2.7E3,1.5E1,2.7E3,2.9E1,3.84E2,3.58E2,1.04E2,2.8E2,7.1E1,4.7E1,1.2E1,6.59E2,5.9E1,1.592E3,3.5E1,2.665E3,2.337E3,3.63E2,1.1E1,1.8E1,2.69E2,1.15E2,3.4E1,3.24E2,2.9E1,7.5E1,1.7E1,2.63E2,6E1,1.1E1,1.1E1,3.6E1,6.07E2,5.2E1,4.2E1,1.7E1,6.63E2,9.29E2,1.3E1,2.2E1,3.65E2,2.3E3,1.535E3,8.02E2,3.49E2,1.4E1,2.52E2,1.7E1,3.8E1,7.7E1,1E1,2.4E1,2.77E2,4.7E1,1.3E1,1.6E1,1.66E2,9.7E1,3.7E1,2.3E1,1.3E1,2.3E1,9.5E1,5.12E2,3.4E1,1.8E1,2.1E1,2.1E1,6.41E2,2.2E1,1.5E2,7.79E2,1.6E1,3.49E2,2.44E2,2.056E3,4.36E2,1.099E3,5.79E2,2.23E2,2.52E2,9.7E1,2.14E2,3.8E1,1E1,1.4E1,1.9E1,2.58E2,2.1E1,2.6E1,9.6E1,7E1,2E1,1.7E1,1.2E1,1.1E1,6.5E1,3E1,1.96E2,3.16E2,1E1,1.1E1,5.05E2,1.36E2,1E1,1.2E1,1.1E1,1.39E2,3.8E1,7.41E2],"tree_param":{"num_deleted":"0","num_feature":"32","num_nodes":"125","size_leaf_vector":"1"}},{"base_weights":[1.6136279E4,-6.1420825E6,1.3509281E7,-6.6066875E6,-2.6877878E6,1.1183811E7,1.4761778E7,-7.2624205E6,-5.973369E6,-2.959068E6,1.8434384E5,1.2360004E7,6.642202E6,1.0762875E7,1.4897397E7,-7.3228635E6,6.2924312E4,-6.0029525E6,1.7944078E4,3.6117895E4,-3.0835068E6,4.793917E4,1.2501752E7,-6.19659E5,9.230213E6,1.4284094E7,3.653631E6,1.4436257E7,1.5693495E7,-2.5538022E6,-7.3874605E6,-6.0657E6,-1.2133056E6,-3.7371108E6,-2.4510995E6,1.1964134E7,1.4356091E7,1.2315654E5,-3.9478625E6,-1.8739076E4,1.0767492E7,2.036484E5,1.2243713E5,-7.777793E4,1.8068769E5,1.1051234E7,1.4582451E7,1.4446731E7,1.5954991E7,5.835497E4,-8.473506E4,-6.2822275E6,-7.6014565E6,-6.207463E6,-5.0801895E6,1.5023642E5,-9.0702625E4,-3.864307E6,-3.5337617E4,-2.5647688E6,4.6717427E3,1.872384E5,1.1627498E7,1.2449486E5,1.4701867E7,-8.793828E4,1.4287687E4,5.1776445E6,1.1728065E7,5.896635E4,1.887344E5,1.4088485E7,1.5296577E7,1.4828049E7,1.3489202E5,1.489095E5,2.068045E5,-2.7423086E4,-8.291643E4,-8.025518E4,-1.001614E5,-7.562971E4,-8.789685E4,-5.50985E4,-6.783206E4,-4.8153855E4,-8.1142734E4,-3.0836793E4,-5.736645E4,1.5461012E5,1.0226129E5,1.4160322E5,1.9291112E5,6.3276562E3,1.22944734E5,7.642605E4,1.5884733E5,1.7078848E5,1.8663712E5,1.7286488E5,1.9960402E5,2.02514E5,1.6386289E5],"categories":[],"categories_nodes":[],"categories_segments":[],"categories_sizes":[],"default_left":[0,0,0,0,0,0,0,0,0,0,0,0,0,0,0,0,0,0,0,0,0,0,0,0,0,0,0,0,0,0,0,0,0,0,0,0,0,0,0,0,0,0,0,0,0,0,0,0,0,0,0,0,0,0,0,0,0,0,0,0,0,0,0,0,0,0,0,0,0,0,0,0,0,0,0,0,0,0,0,0,0,0,0,0,0,0,0,0,0,0,0,0,0,0,0,0,0,0,0,0,0,0,0],"id":13,"left_children":[1,3,5,7,9,11,13,15,17,19,-1,21,23,25,27,29,-1,31,-1,-1,33,-1,35,37,39,41,43,45,47,49,51,53,55,57,59,61,63,-1,65,-1,67,-1,-1,-1,-1,69,71,73,75,-1,-1,77,79,81,83,-1,-1,85,-1,87,-1,-1,89,-1,91,-1,-1,93,95,-1,-1,97,99,101,-1,-1,-1,-1,-1,-1,-1,-1,-1,-1,-1,-1,-1,-1,-1,-1,-1,-1,-1,-1,-1,-1,-1,-1,-1,-1,-1,-1,-1],"loss_changes":[7.497857E17,9.931133E15,8.122745E15,2.2379872E15,3.4179178E15,5.2464056E15,8.855192E14,1.9909836E15,6.1176655E14,5.2529973E14,0E0,9.331418E14,3.8695454E15,1.5334209E15,4.956736E14,8.0856195E14,0E0,8.276488E14,0E0,0E0,2.870579E14,0E0,6.5443276E14,1.8765654E15,2.5018635E15,1.9776767E14,2.2327157E15,4.4944256E14,5.135063E13,1.0632157E15,5.894241E14,3.6041648E14,2.8018812E15,3.683847E13,1.1661977E14,4.0380424E14,1.8021683E14,0E0,6.10074E14,0E0,6.707794E14,0E0,0E0,0E0,0E0,1.10719425E15,2.3402418E14,7.406456E13,5.5757265E13,0E0,0E0,2.5277815E14,4.6539407E14,4.7105483E14,3.4878356E13,0E0,0E0,8.125917E13,0E0,1.0689637E14,0E0,0E0,6.502838E14,0E0,3.6973226E13,0E0,0E0,4.1899513E14,3.342E14,0E0,0E0,7.828866E13,5.136781E12,6.0930554E13,0E0,0E0,0E0,0E0,0E0,0E0,0E0,0E0,0E0,0E0,0E0,0E0,0E0,0E0,0E0,0E0,0E0,0E0,0E0,0E0,0E0,0E0,0E0,0E0,0E0,0E0,0E0,0E0,0E0],"parents":[2147483647,0,0,1,1,2,2,3,3,4,4,5,5,6,6,7,7,8,8,9,9,11,11,12,12,13,13,14,14,15,15,17,17,20,20,22,22,23,23,24,24,25,25,26,26,27,27,28,28,29,29,30,30,31,31,32,32,33,33,34,34,35,35,36,36,38,38,40,40,45,45,46,46,47,47,48,48,51,51,52,52,53,53,54,54,57,57,59,59,62,62,64,64,67,67,68,68,71,71,72,72,73,73],"right_children":[2,4,6,8,10,12,14,16,18,20,-1,22,24,26,28,30,-1,32,-1,-1,34,-1,36,38,40,42,44,46,48,50,52,54,56,58,60,62,64,-1,66,-1,68,-1,-1,-1,-1,70,72,74,76,-1,-1,78,80,82,84,-1,-1,86,-1,88,-1,-1,90,-1,92,-1,-1,94,96,-1,-1,98,100,102,-1,-1,-1,-1,-1,-1,-1,-1,-1,-1,-1,-1,-1,-1,-1,-1,-1,-1,-1,-1,-1,-1,-1,-1,-1,-1,-1,-1,-1],"split_conditions":[1.0603056E7,5.37592E6,2.590373E7,1.6466682E6,2.4564758E7,2.6925024E7,2.2188038E6,8.98E2,1.0603056E7,4.63008E5,1.8434384E5,1.8767E5,2.6061244E7,2.5881904E-1,4.3478435E6,4.348476E5,6.2924312E4,9.945219E-1,1.7944078E4,3.6117895E4,6.62752E6,4.793917E4,2.68212E7,2.3744982E7,2.0814972E6,1E0,2.8951972E7,3.61504E5,-8.660254E-1,1.4078042E5,1.90816E6,3.52832E6,1.064416E6,1.1918769E6,2.6048288E7,-7.392368E6,3.64E5,1.2315654E5,4.3079055E6,-1.8739076E4,-9.135454E-1,2.036484E5,1.2243713E5,-7.777793E4,1.8068769E5,6.67296E5,2.8412792E7,2.8769928E7,5.0531762E5,5.835497E4,-8.473506E4,4.36128E5,-8.09017E-1,2.1844352E6,3.219648E6,1.5023642E5,-9.0702625E4,2.889768E7,-3.5337617E4,1.5970078E6,4.6717427E3,1.872384E5,2.7201888E7,1.2449486E5,9.678242E6,-8.793828E4,1.4287687E4,2.7617184E7,-9.5105654E-1,5.896635E4,1.887344E5,1.3913221E6,-2.064944E6,5.1130895E6,1.3489202E5,1.489095E5,2.068045E5,-2.7423086E4,-8.291643E4,-8.025518E4,-1.001614E5,-7.562971E4,-8.789685E4,-5.50985E4,-6.783206E4,-4.8153855E4,-8.1142734E4,-3.0836793E4,-5.736645E4,1.5461012E5,1.0226129E5,1.4160322E5,1.9291112E5,6.3276562E3,1.22944734E5,7.642605E4,1.5884733E5,1.7078848E5,1.8663712E5,1.7286488E5,1.9960402E5,2.02514E5,1.6386289E5],"split_indices":[0,0,24,23,16,9,22,2,3,9,0,11,21,26,22,19,0,28,0,0,4,0,0,19,20,29,21,11,29,20,8,0,9,22,6,14,10,0,20,0,29,0,0,0,0,12,23,24,17,0,0,10,28,21,8,0,0,11,0,17,0,0,8,0,19,0,0,7,28,0,0,17,14,20,0,0,0,0,0,0,0,0,0,0,0,0,0,0,0,0,0,0,0,0,0,0,0,0,0,0,0,0,0],"split_type":[0,0,0,0,0,0,0,0,0,0,0,0,0,0,0,0,0,0,0,0,0,0,0,0,0,0,0,0,0,0,0,0,0,0,0,0,0,0,0,0,0,0,0,0,0,0,0,0,0,0,0,0,0,0,0,0,0,0,0,0,0,0,0,0,0,0,0,0,0,0,0,0,0,0,0,0,0,0,0,0,0,0,0,0,0,0,0,0,0,0,0,0,0,0,0,0,0,0,0,0,0,0,0],"sum_hessian":[9.022E3,6.195E3,2.827E3,5.46E3,7.35E2,9.92E2,1.835E3,2.679E3,2.781E3,7.24E2,1.1E1,7.87E2,2.05E2,6.2E1,1.773E3,2.666E3,1.3E1,2.77E3,1.1E1,1.5E1,7.09E2,1.3E1,7.74E2,5.4E1,1.51E2,4.1E1,2.1E1,1.131E3,6.42E2,3.6E1,2.63E3,2.734E3,3.6E1,3.47E2,3.62E2,6.04E2,1.7E2,1.3E1,4.1E1,1.9E1,1.32E2,3E1,1.1E1,1.1E1,1E1,4.9E1,1.082E3,1.18E2,5.24E2,1.3E1,2.3E1,4.3E2,2.2E3,2.387E3,3.47E2,1.1E1,2.5E1,3.06E2,4.1E1,3.48E2,1.4E1,6.7E1,5.37E2,1.3E1,1.57E2,2.6E1,1.5E1,2E1,1.12E2,1.8E1,3.1E1,6.48E2,4.34E2,1.06E2,1.2E1,1.1E1,5.13E2,1.5E1,4.15E2,2.37E2,1.963E3,1.529E3,8.58E2,6.6E1,2.81E2,2.92E2,1.4E1,3.2E2,2.8E1,4.88E2,4.9E1,1.2E1,1.45E2,1E1,1E1,1.1E1,1.01E2,2.09E2,4.39E2,4.2E1,3.92E2,7.2E1,3.4E1],"tree_param":{"num_deleted":"0","num_feature":"32","num_nodes":"103","size_leaf_vector":"1"}},{"base_weights":[6.262082E3,-6.057563E6,1.3328618E7,-6.5238465E6,-2.6369628E6,9.669973E6,1.4109422E7,-7.1691295E6,-5.902857E6,-2.9237495E6,1.8204077E5,1.1669474E7,3.39301E6,1.2560176E7,1.4646672E7,-7.2357705E6,6.7807195E4,-5.931994E6,1.772623E4,3.1043871E4,-3.0447232E6,1.0380992E7,1.2112464E7,-1.2564938E6,1.0147921E7,1.3317278E7,9.51124E6,1.0642724E7,1.4786514E7,-2.408511E6,-7.2993905E6,-5.993829E6,-1.1965425E6,-3.6275995E6,-2.3647525E6,7.3549345E6,1.4784008E5,1.1284277E7,1.7075573E5,-3.6691102E6,1.3352511E5,5.8209742E4,1.1670045E7,1.2303059E7,1.4253332E7,1.4441148E4,1.0762544E7,1.346337E7,5.544667E4,1.4011039E7,1.5239456E7,5.764005E4,-8.363914E4,-6.205103E6,-7.5072245E6,-6.1362125E6,-5.013432E6,1.4841248E5,-8.956401E4,-3.7723385E6,-3.4878363E4,-2.237698E6,-7.817832E4,5.622916E4,1.2033399E5,1.5938728E5,1.003291E7,-5.453562E6,-7.236305E5,1.1216743E5,1.691501E5,1.2712188E7,6.448166E4,1.1880893E7,1.9247831E5,5.1029305E4,1.1516593E7,2.0439986E5,1.3565025E5,1.1684672E7,1.4404353E7,1.4471086E7,1.5601414E7,-5.5043816E4,-8.3657984E4,-7.926971E4,-9.8892305E4,-7.473394E4,-8.664393E4,-6.738214E4,-5.6679824E4,-4.5188176E4,-6.3327324E4,-3.1793453E4,-7.330715E3,1.3731934E5,1.03885836E5,-8.909746E4,-4.567E4,-4.175728E4,2.6413338E4,1.7457744E5,1.3825673E5,1.06389695E5,1.6946814E5,1.11733586E5,1.5979223E5,5.141411E4,1.6215075E5,1.7896006E5,1.9478594E5,1.8061272E5,2.0057153E5,2.0229017E5,1.5224552E5],"categories":[],"categories_nodes":[],"categories_segments":[],"categories_sizes":[],"default_left":[0,0,0,0,0,0,0,0,0,0,0,0,0,0,0,0,0,0,0,0,0,0,0,0,0,0,0,0,0,0,0,0,0,0,0,0,0,0,0,0,0,0,0,0,0,0,0,0,0,0,0,0,0,0,0,0,0,0,0,0,0,0,0,0,0,0,0,0,0,0,0,0,0,0,0,0,0,0,0,0,0,0,0,0,0,0,0,0,0,0,0,0,0,0,0,0,0,0,0,0,0,0,0,0,0,0,0,0,0,0,0,0,0,0,0],"id":14,"left_children":[1,3,5,7,9,11,13,15,17,19,-1,21,23,25,27,29,-1,31,-1,-1,33,35,37,39,41,43,45,47,49,51,53,55,57,59,61,63,-1,65,-1,67,-1,-1,69,71,73,-1,75,77,-1,79,81,-1,-1,83,85,87,89,-1,-1,91,-1,93,-1,-1,-1,-1,95,97,99,-1,-1,101,-1,103,-1,-1,105,-1,-1,107,109,111,113,-1,-1,-1,-1,-1,-1,-1,-1,-1,-1,-1,-1,-1,-1,-1,-1,-1,-1,-1,-1,-1,-1,-1,-1,-1,-1,-1,-1,-1,-1,-1,-1],"loss_changes":[7.305638E17,9.900415E15,7.987024E15,2.1623614E15,3.6153693E15,6.24429E15,1.8128198E15,2.2443438E15,5.973269E14,4.7880564E14,0E0,1.2985404E14,3.830551E15,1.3088999E15,8.582719E14,8.063028E14,0E0,8.090172E14,0E0,0E0,2.7895598E14,2.7488542E14,1.5655585E14,2.0618684E15,3.9000504E14,3.3790226E14,1.2799883E15,1.0461789E15,4.3853334E14,1.02031934E15,5.6611105E14,3.6187676E14,2.7334047E15,4.4546864E13,1.4741254E14,1.4177365E14,0E0,1.3610966E14,0E0,3.162628E14,0E0,0E0,8.789275E13,6.636326E14,2.7038967E14,0E0,5.1625936E14,1.7841992E14,0E0,4.5423574E14,1.3534301E14,0E0,0E0,2.1173008E14,4.4860074E14,4.4901306E14,3.0138322E13,0E0,0E0,8.961664E13,0E0,1.2186661E14,0E0,0E0,0E0,0E0,3.7906844E13,8.804482E13,1.6958012E14,0E0,0E0,2.673746E14,0E0,1.8927867E14,0E0,0E0,1.6456704E14,0E0,0E0,6.055045E14,5.1788716E13,2.4129126E13,9.2651035E13,0E0,