{"learner":{"attributes":{"best_iteration":"644","best_score":"3456174.1454340797","scikit_learn":"{\"_estimator_type\": \"regressor\"}"},"feature_names":["throughput_bps","is_burst","consecutive_steady_sec","lag_1","lag_5","lag_10","lag_15","lag_30","lag_60","lag_120","lag_300","lag_450","lag_600","delta_1s","delta_5s","delta_10s","roll_mean_10s","roll_std_10s","roll_max_10s","roll_mean_30s","roll_std_30s","roll_mean_60s","roll_std_60s","ema_5s","ema_15s","ema_cross","hour_sin","hour_cos","min_sin","min_cos","dow_sin","dow_cos"],"feature_types":["float","int","int","float","float","float","float","float","float","float","float","float","float","float","float","float","float","float","float","float","float","float","float","float","float","float","float","float","float","float","float","float"],"gradient_booster":{"model":{"gbtree_model_param":{"num_parallel_tree":"1","num_trees":"685"},"iteration_indptr":[0,1,2,3,4,5,6,7,8,9,10,11,12,13,14,15,16,17,18,19,20,21,22,23,24,25,26,27,28,29,30,31,32,33,34,35,36,37,38,39,40,41,42,43,44,45,46,47,48,49,50,51,52,53,54,55,56,57,58,59,60,61,62,63,64,65,66,67,68,69,70,71,72,73,74,75,76,77,78,79,80,81,82,83,84,85,86,87,88,89,90,91,92,93,94,95,96,97,98,99,100,101,102,103,104,105,106,107,108,109,110,111,112,113,114,115,116,117,118,119,120,121,122,123,124,125,126,127,128,129,130,131,132,133,134,135,136,137,138,139,140,141,142,143,144,145,146,147,148,149,150,151,152,153,154,155,156,157,158,159,160,161,162,163,164,165,166,167,168,169,170,171,172,173,174,175,176,177,178,179,180,181,182,183,184,185,186,187,188,189,190,191,192,193,194,195,196,197,198,199,200,201,202,203,204,205,206,207,208,209,210,211,212,213,214,215,216,217,218,219,220,221,222,223,224,225,226,227,228,229,230,231,232,233,234,235,236,237,238,239,240,241,242,243,244,245,246,247,248,249,250,251,252,253,254,255,256,257,258,259,260,261,262,263,264,265,266,267,268,269,270,271,272,273,274,275,276,277,278,279,280,281,282,283,284,285,286,287,288,289,290,291,292,293,294,295,296,297,298,299,300,301,302,303,304,305,306,307,308,309,310,311,312,313,314,315,316,317,318,319,320,321,322,323,324,325,326,327,328,329,330,331,332,333,334,335,336,337,338,339,340,341,342,343,344,345,346,347,348,349,350,351,352,353,354,355,356,357,358,359,360,361,362,363,364,365,366,367,368,369,370,371,372,373,374,375,376,377,378,379,380,381,382,383,384,385,386,387,388,389,390,391,392,393,394,395,396,397,398,399,400,401,402,403,404,405,406,407,408,409,410,411,412,413,414,415,416,417,418,419,420,421,422,423,424,425,426,427,428,429,430,431,432,433,434,435,436,437,438,439,440,441,442,443,444,445,446,447,448,449,450,451,452,453,454,455,456,457,458,459,460,461,462,463,464,465,466,467,468,469,470,471,472,473,474,475,476,477,478,479,480,481,482,483,484,485,486,487,488,489,490,491,492,493,494,495,496,497,498,499,500,501,502,503,504,505,506,507,508,509,510,511,512,513,514,515,516,517,518,519,520,521,522,523,524,525,526,527,528,529,530,531,532,533,534,535,536,537,538,539,540,541,542,543,544,545,546,547,548,549,550,551,552,553,554,555,556,557,558,559,560,561,562,563,564,565,566,567,568,569,570,571,572,573,574,575,576,577,578,579,580,581,582,583,584,585,586,587,588,589,590,591,592,593,594,595,596,597,598,599,600,601,602,603,604,605,606,607,608,609,610,611,612,613,614,615,616,617,618,619,620,621,622,623,624,625,626,627,628,629,630,631,632,633,634,635,636,637,638,639,640,641,642,643,644,645,646,647,648,649,650,651,652,653,654,655,656,657,658,659,660,661,662,663,664,665,666,667,668,669,670,671,672,673,674,675,676,677,678,679,680,681,682,683,684,685],"tree_info":[0,0,0,0,0,0,0,0,0,0,0,0,0,0,0,0,0,0,0,0,0,0,0,0,0,0,0,0,0,0,0,0,0,0,0,0,0,0,0,0,0,0,0,0,0,0,0,0,0,0,0,0,0,0,0,0,0,0,0,0,0,0,0,0,0,0,0,0,0,0,0,0,0,0,0,0,0,0,0,0,0,0,0,0,0,0,0,0,0,0,0,0,0,0,0,0,0,0,0,0,0,0,0,0,0,0,0,0,0,0,0,0,0,0,0,0,0,0,0,0,0,0,0,0,0,0,0,0,0,0,0,0,0,0,0,0,0,0,0,0,0,0,0,0,0,0,0,0,0,0,0,0,0,0,0,0,0,0,0,0,0,0,0,0,0,0,0,0,0,0,0,0,0,0,0,0,0,0,0,0,0,0,0,0,0,0,0,0,0,0,0,0,0,0,0,0,0,0,0,0,0,0,0,0,0,0,0,0,0,0,0,0,0,0,0,0,0,0,0,0,0,0,0,0,0,0,0,0,0,0,0,0,0,0,0,0,0,0,0,0,0,0,0,0,0,0,0,0,0,0,0,0,0,0,0,0,0,0,0,0,0,0,0,0,0,0,0,0,0,0,0,0,0,0,0,0,0,0,0,0,0,0,0,0,0,0,0,0,0,0,0,0,0,0,0,0,0,0,0,0,0,0,0,0,0,0,0,0,0,0,0,0,0,0,0,0,0,0,0,0,0,0,0,0,0,0,0,0,0,0,0,0,0,0,0,0,0,0,0,0,0,0,0,0,0,0,0,0,0,0,0,0,0,0,0,0,0,0,0,0,0,0,0,0,0,0,0,0,0,0,0,0,0,0,0,0,0,0,0,0,0,0,0,0,0,0,0,0,0,0,0,0,0,0,0,0,0,0,0,0,0,0,0,0,0,0,0,0,0,0,0,0,0,0,0,0,0,0,0,0,0,0,0,0,0,0,0,0,0,0,0,0,0,0,0,0,0,0,0,0,0,0,0,0,0,0,0,0,0,0,0,0,0,0,0,0,0,0,0,0,0,0,0,0,0,0,0,0,0,0,0,0,0,0,0,0,0,0,0,0,0,0,0,0,0,0,0,0,0,0,0,0,0,0,0,0,0,0,0,0,0,0,0,0,0,0,0,0,0,0,0,0,0,0,0,0,0,0,0,0,0,0,0,0,0,0,0,0,0,0,0,0,0,0,0,0,0,0,0,0,0,0,0,0,0,0,0,0,0,0,0,0,0,0,0,0,0,0,0,0,0,0,0,0,0,0,0,0,0,0,0,0,0,0,0,0,0,0,0,0,0,0,0,0,0,0,0,0,0,0,0,0,0,0,0,0,0,0,0,0,0,0,0,0,0,0,0,0,0,0,0,0,0,0,0,0,0,0,0,0,0,0,0,0,0,0,0,0,0,0,0,0,0,0,0,0,0,0,0,0,0,0,0,0,0,0,0,0,0,0,0,0,0,0,0,0,0,0,0,0,0,0,0,0,0,0,0,0,0,0,0,0,0,0,0,0,0,0,0,0,0,0,0,0,0],"trees":[{"base_weights":[-7.4528305E4,-6.4636945E6,1.4427252E7,-8.432518E6,-7.1945856E5,1.3267478E7,1.8258516E5,-8.561345E4,-7.409021E2,3.469394E4,-1.6521254E4,6.7557664E4,1.3832545E5],"categories":[],"categories_nodes":[],"categories_segments":[],"categories_sizes":[],"default_left":[0,0,0,0,0,0,0,0,0,0,0,0,0],"id":0,"left_children":[1,3,5,7,9,11,-1,-1,-1,-1,-1,-1,-1],"loss_changes":[7.9524426E17,6.736895E16,1.1185847E16,4.750131E15,5.9597965E15,7.242861E15,0E0,0E0,0E0,0E0,0E0,0E0,0E0],"parents":[2147483647,0,0,1,1,2,2,3,3,4,4,5,5],"right_children":[2,4,6,8,10,12,-1,-1,-1,-1,-1,-1,-1],"split_conditions":[1.4170387E7,6.99192E6,2.685091E7,6.74E2,5E1,1.7320616E7,1.8258516E5,-8.561345E4,-7.409021E2,3.469394E4,-1.6521254E4,6.7557664E4,1.3832545E5],"split_indices":[23,0,24,2,2,23,0,0,0,0,0,0,0],"split_type":[0,0,0,0,0,0,0,0,0,0,0,0,0],"sum_hessian":[8.579E3,5.956E3,2.623E3,4.435E3,1.521E3,2.02E3,6.03E2,4.368E3,6.7E1,2.76E2,1.245E3,1.63E2,1.857E3],"tree_param":{"num_deleted":"0","num_feature":"32","num_nodes":"13","size_leaf_vector":"1"}},{"base_weights":[-7.797088E4,-6.462722E6,1.4143793E7,-8.341344E6,-8.2072444E5,1.4941126E7,7.352308E6,-8.469436E4,6.628516E2,3.40838E4,-1.6236309E4,7.706849E4,1.54147E5,2.944473E4,9.290721E4],"categories":[],"categories_nodes":[],"categories_segments":[],"categories_sizes":[],"default_left":[0,0,0,0,0,0,0,0,0,0,0,0,0,0,0],"id":1,"left_children":[1,3,5,7,9,11,13,-1,-1,-1,-1,-1,-1,-1,-1],"loss_changes":[7.757178E17,6.247896E16,1.4118863E16,4.738311E15,5.017953E15,7.8558044E15,2.3548082E15,0E0,0E0,0E0,0E0,0E0,0E0,0E0,0E0],"parents":[2147483647,0,0,1,1,2,2,3,3,4,4,5,5,6,6],"right_children":[2,4,6,8,10,12,14,-1,-1,-1,-1,-1,-1,-1,-1],"split_conditions":[1.3923178E7,6.99192E6,5.9004E6,6.74E2,5E1,1.6793684E7,1.7257856E7,-8.469436E4,6.628516E2,3.40838E4,-1.6236309E4,7.706849E4,1.54147E5,2.944473E4,9.290721E4],"split_indices":[23,0,10,2,2,24,0,0,0,0,0,0,0,0,0],"split_type":[0,0,0,0,0,0,0,0,0,0,0,0,0,0,0],"sum_hessian":[8.539E3,5.894E3,2.645E3,4.421E3,1.473E3,2.365E3,2.8E2,4.355E3,6.6E1,2.34E2,1.239E3,1.47E2,2.218E3,8.7E1,1.93E2],"tree_param":{"num_deleted":"0","num_feature":"32","num_nodes":"15","size_leaf_vector":"1"}},{"base_weights":[4.9442867E4,-6.330151E6,1.4179214E7,-8.263726E6,-6.793207E5,1.3045726E7,1.7904923E5,-8.388049E4,-2.860791E3,3.360093E4,-1.5813134E4,1.3727183E5,7.9377055E4],"categories":[],"categories_nodes":[],"categories_segments":[],"categories_sizes":[],"default_left":[0,0,0,0,0,0,0,0,0,0,0,0,0],"id":2,"left_children":[1,3,5,7,9,11,-1,-1,-1,-1,-1,-1,-1],"loss_changes":[7.70256E17,6.431169E16,1.0763875E16,4.3210463E15,5.485251E15,6.8944533E15,0E0,0E0,0E0,0E0,0E0,0E0,0E0],"parents":[2147483647,0,0,1,1,2,2,3,3,4,4,5,5],"right_children":[2,4,6,8,10,12,-1,-1,-1,-1,-1,-1,-1],"split_conditions":[1.4170387E7,6.99192E6,2.685091E7,6.74E2,5E1,8.617392E6,1.7904923E5,-8.388049E4,-2.860791E3,3.360093E4,-1.5813134E4,1.3727183E5,7.9377055E4],"split_indices":[23,0,24,2,2,10,0,0,0,0,0,0,0],"split_type":[0,0,0,0,0,0,0,0,0,0,0,0,0],"sum_hessian":[8.541E3,5.885E3,2.656E3,4.384E3,1.501E3,2.043E3,6.13E2,4.317E3,6.7E1,2.73E2,1.228E3,1.8E3,2.43E2],"tree_param":{"num_deleted":"0","num_feature":"32","num_nodes":"13","size_leaf_vector":"1"}},{"base_weights":[-3.4455414E4,-6.225259E6,1.4005145E7,-8.163019E6,-6.69048E5,1.2811243E7,1.7459876E7,-8.293313E4,2.0325144E3,3.3713348E4,-1.5445005E4,6.668406E4,1.3380464E5,1.47715E5,1.7863747E5],"categories":[],"categories_nodes":[],"categories_segments":[],"categories_sizes":[],"default_left":[0,0,0,0,0,0,0,0,0,0,0,0,0,0,0],"id":3,"left_children":[1,3,5,7,9,11,13,-1,-1,-1,-1,-1,-1,-1,-1],"loss_changes":[7.424324E17,6.3813267E16,1.0344515E16,4.768857E15,5.438383E15,6.6313264E15,2.0529944E14,0E0,0E0,0E0,0E0,0E0,0E0,0E0,0E0],"parents":[2147483647,0,0,1,1,2,2,3,3,4,4,5,5,6,6],"right_children":[2,4,6,8,10,12,14,-1,-1,-1,-1,-1,-1,-1,-1],"split_conditions":[1.4170387E7,6.99192E6,2.6521264E7,6.74E2,5E1,1.7320616E7,2.6445896E7,-8.293313E4,2.0325144E3,3.3713348E4,-1.5445005E4,6.668406E4,1.3380464E5,1.47715E5,1.7863747E5],"split_indices":[23,0,16,2,2,23,19,0,0,0,0,0,0,0,0],"split_type":[0,0,0,0,0,0,0,0,0,0,0,0,0,0,0],"sum_hessian":[8.538E3,5.926E3,2.612E3,4.393E3,1.533E3,1.948E3,6.64E2,4.326E3,6.7E1,2.72E2,1.261E3,1.67E2,1.781E3,9.6E1,5.68E2],"tree_param":{"num_deleted":"0","num_feature":"32","num_nodes":"15","size_leaf_vector":"1"}},{"base_weights":[1.3168839E4,-6.2354285E6,1.3624481E7,-8.10603E6,-7.809369E5,7.113382E6,1.4467E7,-8.224711E4,-3.889204E3,-1.630938E4,3.0953355E4,3.8810947E3,9.4204836E4,1.3407598E5,1.7542252E5],"categories":[],"categories_nodes":[],"categories_segments":[],"categories_sizes":[],"default_left":[0,0,0,0,0,0,0,0,0,0,0,0,0,0,0],"id":4,"left_children":[1,3,5,7,9,11,13,-1,-1,-1,-1,-1,-1,-1,-1],"loss_changes":[7.293094E17,5.995125E16,1.4599144E16,3.9785656E15,4.960732E15,4.846993E15,7.321579E15,0E0,0E0,0E0,0E0,0E0,0E0,0E0,0E0],"parents":[2147483647,0,0,1,1,2,2,3,3,4,4,5,5,6,6],"right_children":[2,4,6,8,10,12,14,-1,-1,-1,-1,-1,-1,-1,-1],"split_conditions":[1.7327072E7,6.99192E6,1.7384752E7,6.74E2,4.111927E6,1.3970096E7,2.685091E7,-8.224711E4,-3.889204E3,-1.630938E4,3.0953355E4,3.8810947E3,9.4204836E4,1.3407598E5,1.7542252E5],"split_indices":[18,0,0,2,22,3,24,0,0,0,0,0,0,0,0],"split_type":[0,0,0,0,0,0,0,0,0,0,0,0,0,0,0],"sum_hessian":[8.571E3,5.875E3,2.696E3,4.374E3,1.501E3,3.11E2,2.385E3,4.308E3,6.6E1,1.232E3,2.69E2,8E1,2.31E2,1.781E3,6.04E2],"tree_param":{"num_deleted":"0","num_feature":"32","num_nodes":"15","size_leaf_vector":"1"}},{"base_weights":[-2.0515506E4,-6.1426995E6,1.3704801E7,-8.019612E6,-6.6488375E5,1.2557304E7,1.7093296E7,-8.140239E4,1.366654E3,3.2621078E4,-1.5364561E4,1.3239614E5,7.522857E4,1.4421302E5,1.7502411E5],"categories":[],"categories_nodes":[],"categories_segments":[],"categories_sizes":[],"default_left":[0,0,0,0,0,0,0,0,0,0,0,0,0,0,0],"id":5,"left_children":[1,3,5,7,9,11,13,-1,-1,-1,-1,-1,-1,-1,-1],"loss_changes":[7.207925E17,6.097826E16,9.868838E15,4.324551E15,5.1972664E15,6.610298E15,2.3048512E14,0E0,0E0,0E0,0E0,0E0,0E0,0E0,0E0],"parents":[2147483647,0,0,1,1,2,2,3,3,4,4,5,5,6,6],"right_children":[2,4,6,8,10,12,14,-1,-1,-1,-1,-1,-1,-1,-1],"split_conditions":[1.4170387E7,6.99192E6,2.6521264E7,6.74E2,5E1,5.9004E6,2.6445896E7,-8.140239E4,1.366654E3,3.2621078E4,-1.5364561E4,1.3239614E5,7.522857E4,1.4421302E5,1.7502411E5],"split_indices":[23,0,16,2,2,10,19,0,0,0,0,0,0,0,0],"split_type":[0,0,0,0,0,0,0,0,0,0,0,0,0,0,0],"sum_hessian":[8.574E3,5.93E3,2.644E3,4.416E3,1.514E3,1.982E3,6.62E2,4.352E3,6.4E1,2.74E2,1.24E3,1.743E3,2.39E2,9.7E1,5.65E2],"tree_param":{"num_deleted":"0","num_feature":"32","num_nodes":"15","size_leaf_vector":"1"}},{"base_weights":[2.024252E4,-6.0744565E6,1.3594601E7,-7.9146825E6,-7.154238E5,1.4214919E7,7.5397425E6,-8.0415E4,3.3074412E3,3.192521E4,-1.5536948E4,7.348707E4,1.4638955E5,2.4738277E4,8.978303E4],"categories":[],"categories_nodes":[],"categories_segments":[],"categories_sizes":[],"default_left":[0,0,0,0,0,0,0,0,0,0,0,0,0,0,0],"id":6,"left_children":[1,3,5,7,9,11,13,-1,-1,-1,-1,-1,-1,-1,-1],"loss_changes":[7.0618924E17,5.8084536E16,9.724871E15,4.566306E15,4.9485276E15,6.749249E15,1.7773133E15,0E0,0E0,0E0,0E0,0E0,0E0,0E0,0E0],"parents":[2147483647,0,0,1,1,2,2,3,3,4,4,5,5,6,6],"right_children":[2,4,6,8,10,12,14,-1,-1,-1,-1,-1,-1,-1,-1],"split_conditions":[1.4170387E7,6.99192E6,5.9004E6,6.74E2,5E1,1.6793684E7,1.7257856E7,-8.0415E4,3.3074412E3,3.192521E4,-1.5536948E4,7.348707E4,1.4638955E5,2.4738277E4,8.978303E4],"split_indices":[23,0,10,2,2,24,0,0,0,0,0,0,0,0,0],"split_type":[0,0,0,0,0,0,0,0,0,0,0,0,0,0,0],"sum_hessian":[8.532E3,5.889E3,2.643E3,4.383E3,1.506E3,2.395E3,2.48E2,4.317E3,6.6E1,2.65E2,1.241E3,1.41E2,2.254E3,5.6E1,1.92E2],"tree_param":{"num_deleted":"0","num_feature":"32","num_nodes":"15","size_leaf_vector":"1"}},{"base_weights":[-1.2423205E4,-5.9899665E6,1.3466715E7,-7.8534005E6,-6.5244406E5,1.4093331E7,7.3850465E6,-7.977475E4,4.90896E3,3.1991021E4,-1.4886845E4,7.078102E4,1.453606E5,5.7006754E4,1.1824758E5],"categories":[],"categories_nodes":[],"categories_segments":[],"categories_sizes":[],"default_left":[0,0,0,0,0,0,0,0,0,0,0,0,0,0,0],"id":7,"left_children":[1,3,5,7,9,11,13,-1,-1,-1,-1,-1,-1,-1,-1],"loss_changes":[6.9025416E17,5.9019757E16,9.826679E15,4.53765E15,4.9617014E15,7.183659E15,1.737617E15,0E0,0E0,0E0,0E0,0E0,0E0,0E0,0E0],"parents":[2147483647,0,0,1,1,2,2,3,3,4,4,5,5,6,6],"right_children":[2,4,6,8,10,12,14,-1,-1,-1,-1,-1,-1,-1,-1],"split_conditions":[1.4170387E7,6.99192E6,5.9004E6,6.74E2,5E1,1.6793684E7,1.2134161E5,-7.977475E4,4.90896E3,3.1991021E4,-1.4886845E4,7.078102E4,1.453606E5,5.7006754E4,1.1824758E5],"split_indices":[23,0,10,2,2,24,25,0,0,0,0,0,0,0,0],"split_type":[0,0,0,0,0,0,0,0,0,0,0,0,0,0,0],"sum_hessian":[8.563E3,5.933E3,2.63E3,4.397E3,1.536E3,2.382E3,2.48E2,4.333E3,6.4E1,2.73E2,1.263E3,1.43E2,2.239E3,1.83E2,6.5E1],"tree_param":{"num_deleted":"0","num_feature":"32","num_nodes":"15","size_leaf_vector":"1"}},{"base_weights":[-7.979737E3,-5.9224285E6,1.3337985E7,-7.754516E6,-6.4044625E5,1.397418E7,7.186325E6,-7.876889E4,2.2438462E3,3.166512E4,-1.4779665E4,7.04797E4,1.4396352E5,5.429468E4,1.1737791E5],"categories":[],"categories_nodes":[],"categories_segments":[],"categories_sizes":[],"default_left":[0,0,0,0,0,0,0,0,0,0,0,0,0,0,0],"id":8,"left_children":[1,3,5,7,9,11,13,-1,-1,-1,-1,-1,-1,-1,-1],"loss_changes":[6.74484E17,5.7287683E16,1.0073038E16,4.272771E15,4.8766406E15,6.730145E15,1.8742926E15,0E0,0E0,0E0,0E0,0E0,0E0,0E0,0E0],"parents":[2147483647,0,0,1,1,2,2,3,3,4,4,5,5,6,6],"right_children":[2,4,6,8,10,12,14,-1,-1,-1,-1,-1,-1,-1,-1],"split_conditions":[1.4170387E7,6.99192E6,5.9004E6,6.74E2,5E1,1.6793684E7,1.2134161E5,-7.876889E4,2.2438462E3,3.166512E4,-1.4779665E4,7.04797E4,1.4396352E5,5.429468E4,1.1737791E5],"split_indices":[23,0,10,2,2,24,25,0,0,0,0,0,0,0,0],"split_type":[0,0,0,0,0,0,0,0,0,0,0,0,0,0,0],"sum_hessian":[8.541E3,5.919E3,2.622E3,4.394E3,1.525E3,2.374E3,2.48E2,4.328E3,6.6E1,2.74E2,1.251E3,1.38E2,2.236E3,1.82E2,6.6E1],"tree_param":{"num_deleted":"0","num_feature":"32","num_nodes":"15","size_leaf_vector":"1"}},{"base_weights":[1.9490629E4,-5.890337E6,1.3173089E7,-7.755246E6,-8.778146E5,1.2100451E7,1.677619E5,-7.876434E4,-1.3275197E2,-1.8183693E4,2.382288E4,6.095875E4,1.2613377E5],"categories":[],"categories_nodes":[],"categories_segments":[],"categories_sizes":[],"default_left":[0,0,0,0,0,0,0,0,0,0,0,0,0],"id":9,"left_children":[1,3,5,7,9,11,-1,-1,-1,-1,-1,-1,-1],"loss_changes":[6.654862E17,5.5204314E16,9.856469E15,4.0171345E15,4.925588E15,6.157265E15,0E0,0E0,0E0,0E0,0E0,0E0,0E0],"parents":[2147483647,0,0,1,1,2,2,3,3,4,4,5,5],"right_children":[2,4,6,8,10,12,-1,-1,-1,-1,-1,-1,-1],"split_conditions":[1.4170387E7,5.88848E6,2.685091E7,6.74E2,1.1698608E7,1.7320616E7,1.677619E5,-7.876434E4,-1.3275197E2,-1.8183693E4,2.382288E4,6.095875E4,1.2613377E5],"split_indices":[23,0,24,2,0,23,0,0,0,0,0,0,0],"split_type":[0,0,0,0,0,0,0,0,0,0,0,0,0],"sum_hessian":[8.557E3,5.905E3,2.652E3,4.303E3,1.602E3,2.05E3,6.02E2,4.237E3,6.6E1,1.244E3,3.58E2,1.63E2,1.887E3],"tree_param":{"num_deleted":"0","num_feature":"32","num_nodes":"13","size_leaf_vector":"1"}},{"base_weights":[2.3245652E3,-5.805556E6,1.3059712E7,-7.607399E6,-6.3465325E5,1.195909E7,1.6623252E5,-7.728957E4,1.9419333E3,-1.6270292E4,2.4822826E4,5.926463E4,1.24940766E5],"categories":[],"categories_nodes":[],"categories_segments":[],"categories_sizes":[],"default_left":[0,0,0,0,0,0,0,0,0,0,0,0,0],"id":10,"left_children":[1,3,5,7,9,11,-1,-1,-1,-1,-1,-1,-1],"loss_changes":[6.4907106E17,5.518497E16,9.942196E15,4.1470314E15,4.748622E15,6.362393E15,0E0,0E0,0E0,0E0,0E0,0E0,0E0],"parents":[2147483647,0,0,1,1,2,2,3,3,4,4,5,5],"right_children":[2,4,6,8,10,12,-1,-1,-1,-1,-1,-1,-1],"split_conditions":[1.4170387E7,6.99192E6,2.685091E7,6.74E2,1.1698608E7,1.7320616E7,1.6623252E5,-7.728957E4,1.9419333E3,-1.6270292E4,2.4822826E4,5.926463E4,1.24940766E5],"split_indices":[23,0,24,2,0,23,0,0,0,0,0,0,0],"split_type":[0,0,0,0,0,0,0,0,0,0,0,0,0],"sum_hessian":[8.555E3,5.922E3,2.633E3,4.391E3,1.531E3,2.018E3,6.15E2,4.324E3,6.7E1,1.162E3,3.69E2,1.66E2,1.852E3],"tree_param":{"num_deleted":"0","num_feature":"32","num_nodes":"13","size_leaf_vector":"1"}},{"base_weights":[-8.7282556E2,-5.84231E6,1.2786906E7,-7.571034E6,-7.5716294E5,1.3516862E7,6.6874695E6,-7.6799945E4,-2.44959E3,3.100534E4,-1.485781E4,6.605615E4,1.3963864E5,2.4886717E4,8.48489E4],"categories":[],"categories_nodes":[],"categories_segments":[],"categories_sizes":[],"default_left":[0,0,0,0,0,0,0,0,0,0,0,0,0,0,0],"id":11,"left_children":[1,3,5,7,9,11,13,-1,-1,-1,-1,-1,-1,-1,-1],"loss_changes":[6.398648E17,5.1678404E16,1.1782092E16,3.478597E15,4.2071967E15,7.2062336E15,2.1538295E15,0E0,0E0,0E0,0E0,0E0,0E0,0E0,0E0],"parents":[2147483647,0,0,1,1,2,2,3,3,4,4,5,5,6,6],"right_children":[2,4,6,8,10,12,14,-1,-1,-1,-1,-1,-1,-1,-1],"split_conditions":[1.3923178E7,6.99192E6,5.9004E6,6.74E2,5E1,1.6793684E7,1.7257856E7,-7.6799945E4,-2.44959E3,3.100534E4,-1.485781E4,6.605615E4,1.3963864E5,2.4886717E4,8.48489E4],"split_indices":[23,0,10,2,2,24,0,0,0,0,0,0,0,0,0],"split_type":[0,0,0,0,0,0,0,0,0,0,0,0,0,0,0],"sum_hessian":[8.562E3,5.878E3,2.684E3,4.386E3,1.492E3,2.395E3,2.89E2,4.322E3,6.4E1,2.36E2,1.256E3,1.47E2,2.248E3,8.8E1,2.01E2],"tree_param":{"num_deleted":"0","num_feature":"32","num_nodes":"15","size_leaf_vector":"1"}},{"base_weights":[-2.4316785E4,-5.713649E6,1.2811622E7,-7.4567385E6,-6.338787E5,1.1657948E7,1.6122014E7,-7.873299E4,-6.4738453E4,3.0572041E4,-1.4424932E4,5.7986293E4,1.2188018E5,1.3435297E5,1.6505161E5],"categories":[],"categories_nodes":[],"categories_segments":[],"categories_sizes":[],"default_left":[0,0,0,0,0,0,0,0,0,0,0,0,0,0,0],"id":12,"left_children":[1,3,5,7,9,11,13,-1,-1,-1,-1,-1,-1,-1,-1],"loss_changes":[6.2204534E17,5.2249583E16,9.623441E15,1.6976116E15,4.5143424E15,5.8978835E15,2.5531004E14,0E0,0E0,0E0,0E0,0E0,0E0,0E0,0E0],"parents":[2147483647,0,0,1,1,2,2,3,3,4,4,5,5,6,6],"right_children":[2,4,6,8,10,12,14,-1,-1,-1,-1,-1,-1,-1,-1],"split_conditions":[1.4170387E7,6.99192E6,2.6521264E7,3.195888E6,5E1,1.7320616E7,2.6445896E7,-7.873299E4,-6.4738453E4,3.0572041E4,-1.4424932E4,5.7986293E4,1.2188018E5,1.3435297E5,1.6505161E5],"split_indices":[23,0,16,18,2,23,19,0,0,0,0,0,0,0,0],"split_type":[0,0,0,0,0,0,0,0,0,0,0,0,0,0,0],"sum_hessian":[8.514E3,5.9E3,2.614E3,4.392E3,1.508E3,1.945E3,6.69E2,3.077E3,1.315E3,2.7E2,1.238E3,1.63E2,1.782E3,9.2E1,5.77E2],"tree_param":{"num_deleted":"0","num_feature":"32","num_nodes":"15","size_leaf_vector":"1"}},{"base_weights":[9.447874E2,-5.623411E6,1.2777625E7,-7.3986005E6,-5.0534478E5,1.1725834E7,1.6190166E5,-7.517941E4,3.892127E3,-1.5397979E4,2.4520404E4,1.2268983E5,7.225264E4],"categories":[],"categories_nodes":[],"categories_segments":[],"categories_sizes":[],"default_left":[0,0,0,0,0,0,0,0,0,0,0,0,0],"id":13,"left_children":[1,3,5,7,9,11,-1,-1,-1,-1,-1,-1,-1],"loss_changes":[6.1361105E17,5.38604E16,8.993318E15,4.0755288E15,4.6839684E15,4.7120773E15,0E0,0E0,0E0,0E0,0E0,0E0,0E0],"parents":[2147483647,0,0,1,1,2,2,3,3,4,4,5,5],"right_children":[2,4,6,8,10,12,-1,-1,-1,-1,-1,-1,-1],"split_conditions":[1.5092371E7,6.99192E6,2.685091E7,6.74E2,1.1698608E7,8.617392E6,1.6190166E5,-7.517941E4,3.892127E3,-1.5397979E4,2.4520404E4,1.2268983E5,7.225264E4],"split_indices":[23,0,24,2,0,10,0,0,0,0,0,0,0],"split_type":[0,0,0,0,0,0,0,0,0,0,0,0,0],"sum_hessian":[8.535E3,5.927E3,2.608E3,4.4E3,1.527E3,2E3,6.08E2,4.334E3,6.6E1,1.132E3,3.95E2,1.782E3,2.18E2],"tree_param":{"num_deleted":"0","num_feature":"32","num_nodes":"13","size_leaf_vector":"1"}},{"base_weights":[-2.2531078E4,-5.5382165E6,1.2589452E7,-7.3838175E6,-7.1478675E5,1.1586764E7,1.5934605E5,-7.5112914E4,1.4634407E3,-1.693774E4,2.3458994E4,6.120303E4,1.1967274E5],"categories":[],"categories_nodes":[],"categories_segments":[],"categories_sizes":[],"default_left":[0,0,0,0,0,0,0,0,0,0,0,0,0],"id":14,"left_children":[1,3,5,7,9,11,-1,-1,-1,-1,-1,-1,-1],"loss_changes":[5.928159E17,5.2769995E16,8.333061E15,4.0980516E15,4.9296454E15,4.010589E15,0E0,0E0,0E0,0E0,0E0,0E0,0E0],"parents":[2147483647,0,0,1,1,2,2,3,3,4,4,5,5],"right_children":[2,4,6,8,10,12,-1,-1,-1,-1,-1,-1,-1],"split_conditions":[1.5092371E7,5.88848E6,2.685091E7,6.74E2,1.1698608E7,1.7320616E7,1.5934605E5,-7.5112914E4,1.4634407E3,-1.693774E4,2.3458994E4,6.120303E4,1.1967274E5],"split_indices":[23,0,24,2,0,23,0,0,0,0,0,0,0],"split_type":[0,0,0,0,0,0,0,0,0,0,0,0,0],"sum_hessian":[8.518E3,5.927E3,2.591E3,4.286E3,1.641E3,2E3,5.91E2,4.215E3,7.1E1,1.244E3,3.97E2,1.32E2,1.868E3],"tree_param":{"num_deleted":"0","num_feature":"32","num_nodes":"13","size_leaf_vector":"1"}},{"base_weights":[1.2533888E4,-5.5258155E6,1.2416958E7,-7.310684E6,-8.368586E5,1.1396019E7,1.5816375E5,-7.417884E4,-2.9341818E2,2.9422586E4,-1.573842E4,1.2043403E5,6.6415055E4],"categories":[],"categories_nodes":[],"categories_segments":[],"categories_sizes":[],"default_left":[0,0,0,0,0,0,0,0,0,0,0,0,0],"id":15,"left_children":[1,3,5,7,9,11,-1,-1,-1,-1,-1,-1,-1],"loss_changes":[5.895771E17,4.964197E16,8.8377714E15,3.3343893E15,4.569886E15,6.1260837E15,0E0,0E0,0E0,0E0,0E0,0E0,0E0],"parents":[2147483647,0,0,1,1,2,2,3,3,4,4,5,5],"right_children":[2,4,6,8,10,12,-1,-1,-1,-1,-1,-1,-1],"split_conditions":[1.4170387E7,5.88848E6,2.685091E7,6.74E2,5E1,5.9004E6,1.5816375E5,-7.417884E4,-2.9341818E2,2.9422586E4,-1.573842E4,1.2043403E5,6.6415055E4],"split_indices":[23,0,24,2,2,10,0,0,0,0,0,0,0],"split_type":[0,0,0,0,0,0,0,0,0,0,0,0,0],"sum_hessian":[8.578E3,5.931E3,2.647E3,4.295E3,1.636E3,2.042E3,6.05E2,4.233E3,6.2E1,2.66E2,1.37E3,1.795E3,2.47E2],"tree_param":{"num_deleted":"0","num_feature":"32","num_nodes":"13","size_leaf_vector":"1"}},{"base_weights":[-1.4575382E4,-5.567551E6,1.201357E7,-7.2659565E6,-1.0707038E6,5.860693E6,1.2867001E7,-6.710799E4,-7.737206E4,-1.7737418E4,2.7621998E4,1.4831982E4,8.219674E4,1.1892514E5,1.568075E5],"categories":[],"categories_nodes":[],"categories_segments":[],"categories_sizes":[],"default_left":[0,0,0,0,0,0,0,0,0,0,0,0,0,0,0],"id":16,"left_children":[1,3,5,7,9,11,13,-1,-1,-1,-1,-1,-1,-1,-1],"loss_changes":[5.7180027E17,4.471712E16,1.4051243E16,1.0102966E15,4.3413237E15,3.4135122E15,6.1458577E15,0E0,0E0,0E0,0E0,0E0,0E0,0E0,0E0],"parents":[2147483647,0,0,1,1,2,2,3,3,4,4,5,5,6,6],"right_children":[2,4,6,8,10,12,14,-1,-1,-1,-1,-1,-1,-1,-1],"split_conditions":[1.4154672E7,3.221232E6,1.7384752E7,1.820766E6,4.111927E6,1.7257856E7,2.685091E7,-6.710799E4,-7.737206E4,-1.7737418E4,2.7621998E4,1.4831982E4,8.219674E4,1.1892514E5,1.568075E5],"split_indices":[18,0,0,8,22,3,24,0,0,0,0,0,0,0,0],"split_type":[0,0,0,0,0,0,0,0,0,0,0,0,0,0,0],"sum_hessian":[8.557E3,5.855E3,2.702E3,4.249E3,1.606E3,3.31E2,2.371E3,1.962E3,2.287E3,1.358E3,2.48E2,1.17E2,2.14E2,1.768E3,6.03E2],"tree_param":{"num_deleted":"0","num_feature":"32","num_nodes":"15","size_leaf_vector":"1"}},{"base_weights":[-1.9835648E3,-5.4098815E6,1.2145514E7,-7.088136E6,-6.082435E5,1.1138012E7,1.5489882E7,-7.197229E4,-4.7525287E2,2.9216363E4,-1.3670404E4,1.1768556E5,6.483137E4,1.2958843E5,1.5762684E5],"categories":[],"categories_nodes":[],"categories_segments":[],"categories_sizes":[],"default_left":[0,0,0,0,0,0,0,0,0,0,0,0,0,0,0],"id":17,"left_children":[1,3,5,7,9,11,13,-1,-1,-1,-1,-1,-1,-1,-1],"loss_changes":[5.6554E17,4.799492E16,8.598559E15,3.3710855E15,4.1450002E15,5.84454E15,1.961941E13,0E0,0E0,0E0,0E0,0E0,0E0,0E0,0E0],"parents":[2147483647,0,0,1,1,2,2,3,3,4,4,5,5,6,6],"right_children":[2,4,6,8,10,12,14,-1,-1,-1,-1,-1,-1,-1,-1],"split_conditions":[1.4170387E7,6.99192E6,2.685091E7,6.74E2,5E1,5.9004E6,2.9405264E7,-7.197229E4,-4.7525287E2,2.9216363E4,-1.3670404E4,1.1768556E5,6.483137E4,1.2958843E5,1.5762684E5],"split_indices":[23,0,24,2,2,10,18,0,0,0,0,0,0,0,0],"split_type":[0,0,0,0,0,0,0,0,0,0,0,0,0,0,0],"sum_hessian":[8.605E3,5.955E3,2.65E3,4.412E3,1.543E3,2.043E3,6.07E2,4.345E3,6.7E1,2.72E2,1.271E3,1.797E3,2.46E2,6.8E1,5.39E2],"tree_param":{"num_deleted":"0","num_feature":"32","num_nodes":"15","size_leaf_vector":"1"}},{"base_weights":[2.0230697E4,-5.3708E6,1.2083451E7,-7.128731E6,-8.4021406E5,1.1084653E7,1.5411908E7,-7.222139E4,-1.4476393E3,-1.7404625E4,2.2703707E4,5.44566E4,1.1572175E5,1.1779884E5,1.5582281E5],"categories":[],"categories_nodes":[],"categories_segments":[],"categories_sizes":[],"default_left":[0,0,0,0,0,0,0,0,0,0,0,0,0,0,0],"id":18,"left_children":[1,3,5,7,9,11,13,-1,-1,-1,-1,-1,-1,-1,-1],"loss_changes":[5.573282E17,4.716142E16,8.4659303E15,2.7637427E15,4.649461E15,5.482646E15,1.3666586E13,0E0,0E0,0E0,0E0,0E0,0E0,0E0,0E0],"parents":[2147483647,0,0,1,1,2,2,3,3,4,4,5,5,6,6],"right_children":[2,4,6,8,10,12,14,-1,-1,-1,-1,-1,-1,-1,-1],"split_conditions":[1.4170387E7,3.221232E6,2.685091E7,6.74E2,1.1698608E7,1.7320616E7,2.6445896E7,-7.222139E4,-1.4476393E3,-1.7404625E4,2.2703707E4,5.44566E4,1.1572175E5,1.1779884E5,1.5582281E5],"split_indices":[23,0,24,2,0,23,19,0,0,0,0,0,0,0,0],"split_type":[0,0,0,0,0,0,0,0,0,0,0,0,0,0,0],"sum_hessian":[8.566E3,5.921E3,2.645E3,4.265E3,1.656E3,2.041E3,6.04E2,4.209E3,5.6E1,1.285E3,3.71E2,1.64E2,1.877E3,3.3E1,5.71E2],"tree_param":{"num_deleted":"0","num_feature":"32","num_nodes":"15","size_leaf_vector":"1"}},{"base_weights":[-1.0062183E4,-5.3328115E6,1.1963221E7,-7.037466E6,-7.7316106E5,1.0884101E7,1.5045511E7,-7.151321E4,4.1809756E2,2.8266209E4,-1.5021363E4,1.1523857E5,6.3176555E4,1.25767484E5,1.5392048E5],"categories":[],"categories_nodes":[],"categories_segments":[],"categories_sizes":[],"default_left":[0,0,0,0,0,0,0,0,0,0,0,0,0,0,0],"id":19,"left_children":[1,3,5,7,9,11,13,-1,-1,-1,-1,-1,-1,-1,-1],"loss_changes":[5.462945E17,4.61118E16,8.4543167E15,3.463582E15,4.250426E15,5.578647E15,2.0081549E14,0E0,0E0,0E0,0E0,0E0,0E0,0E0,0E0],"parents":[2147483647,0,0,1,1,2,2,3,3,4,4,5,5,6,6],"right_children":[2,4,6,8,10,12,14,-1,-1,-1,-1,-1,-1,-1,-1],"split_conditions":[1.4170387E7,5.88848E6,2.6521264E7,6.74E2,5E1,8.617392E6,2.6445896E7,-7.151321E4,4.1809756E2,2.8266209E4,-1.5021363E4,1.1523857E5,6.3176555E4,1.25767484E5,1.5392048E5],"split_indices":[23,0,16,2,2,10,19,0,0,0,0,0,0,0,0],"split_type":[0,0,0,0,0,0,0,0,0,0,0,0,0,0,0],"sum_hessian":[8.568E3,5.932E3,2.636E3,4.317E3,1.615E3,1.959E3,6.77E2,4.249E3,6.8E1,2.71E2,1.344E3,1.716E3,2.43E2,9.2E1,5.85E2],"tree_param":{"num_deleted":"0","num_feature":"32","num_nodes":"15","size_leaf_vector":"1"}},{"base_weights":[-7.6552747E2,-5.267386E6,1.1831784E7,-6.9687165E6,-7.258154E5,1.0838551E7,1.5108039E7,-7.099372E4,-4.673204E4,-1.633061E4,2.2795873E4,1.1443231E5,6.3225277E4,1.1575777E5,1.5272481E5],"categories":[],"categories_nodes":[],"categories_segments":[],"categories_sizes":[],"default_left":[0,0,0,0,0,0,0,0,0,0,0,0,0,0,0],"id":20,"left_children":[1,3,5,7,9,11,13,-1,-1,-1,-1,-1,-1,-1,-1],"loss_changes":[5.3393102E17,4.580143E16,8.267434E15,1.2231208E15,4.417912E15,5.399358E15,5.7380763E12,0E0,0E0,0E0,0E0,0E0,0E0,0E0,0E0],"parents":[2147483647,0,0,1,1,2,2,3,3,4,4,5,5,6,6],"right_children":[2,4,6,8,10,12,14,-1,-1,-1,-1,-1,-1,-1,-1],"split_conditions":[1.4170387E7,5.88848E6,2.685091E7,6.48E2,1.1698608E7,5.9004E6,2.6445896E7,-7.099372E4,-4.673204E4,-1.633061E4,2.2795873E4,1.1443231E5,6.3225277E4,1.1575777E5,1.5272481E5],"split_indices":[23,0,24,2,0,10,19,0,0,0,0,0,0,0,0],"split_type":[0,0,0,0,0,0,0,0,0,0,0,0,0,0,0],"sum_hessian":[8.564E3,5.927E3,2.637E3,4.311E3,1.616E3,2.03E3,6.07E2,4.076E3,2.35E2,1.242E3,3.74E2,1.788E3,2.42E2,3.3E1,5.74E2],"tree_param":{"num_deleted":"0","num_feature":"32","num_nodes":"15","size_leaf_vector":"1"}},{"base_weights":[-2.4855934E4,-5.2754145E6,1.155398E7,-6.913281E6,-9.185592E5,4.7515845E6,1.2120771E7,-7.5286445E4,-6.489704E4,-1.6929047E4,2.1044229E4,2.5523373E4,6.2499605E4,1.1187133E5,1.4957712E5],"categories":[],"categories_nodes":[],"categories_segments":[],"categories_sizes":[],"default_left":[0,0,0,0,0,0,0,0,0,0,0,0,0,0,0],"id":21,"left_children":[1,3,5,7,9,11,13,-1,-1,-1,-1,-1,-1,-1,-1],"loss_changes":[5.2125414E17,4.2082227E16,1.0200857E16,1.02225376E15,3.7840525E15,6.57232E14,6.2135807E15,0E0,0E0,0E0,0E0,0E0,0E0,0E0,0E0],"parents":[2147483647,0,0,1,1,2,2,3,3,4,4,5,5,6,6],"right_children":[2,4,6,8,10,12,14,-1,-1,-1,-1,-1,-1,-1,-1],"split_conditions":[1.3923178E7,3.221232E6,1.7320616E7,2.7740022E5,1.1698608E7,1.7257856E7,2.685091E7,-7.5286445E4,-6.489704E4,-1.6929047E4,2.1044229E4,2.5523373E4,6.2499605E4,1.1187133E5,1.4957712E5],"split_indices":[23,0,23,17,0,3,24,0,0,0,0,0,0,0,0],"split_type":[0,0,0,0,0,0,0,0,0,0,0,0,0,0,0],"sum_hessian":[8.57E3,5.897E3,2.673E3,4.285E3,1.612E3,2.07E2,2.466E3,1.736E3,2.549E3,1.284E3,3.28E2,8.6E1,1.21E2,1.862E3,6.04E2],"tree_param":{"num_deleted":"0","num_feature":"32","num_nodes":"15","size_leaf_vector":"1"}},{"base_weights":[3.1675554E3,-5.1508185E6,1.1594855E7,-6.7496305E6,-5.706332E5,1.0632388E7,1.4781748E7,-7.148682E4,-5.7929637E4,2.7986742E4,-1.30391E4,1.1227935E5,6.1481188E4,1.1288945E5,1.4945722E5],"categories":[],"categories_nodes":[],"categories_segments":[],"categories_sizes":[],"default_left":[0,0,0,0,0,0,0,0,0,0,0,0,0,0,0],"id":22,"left_children":[1,3,5,7,9,11,13,-1,-1,-1,-1,-1,-1,-1,-1],"loss_changes":[5.1127847E17,4.3372744E16,7.772001E15,1.5937421E15,3.798619E15,5.278463E15,1.4937896E13,0E0,0E0,0E0,0E0,0E0,0E0,0E0,0E0],"parents":[2147483647,0,0,1,1,2,2,3,3,4,4,5,5,6,6],"right_children":[2,4,6,8,10,12,14,-1,-1,-1,-1,-1,-1,-1,-1],"split_conditions":[1.4170387E7,6.99192E6,2.685091E7,3.195888E6,5E1,8.617392E6,2.6445896E7,-7.148682E4,-5.7929637E4,2.7986742E4,-1.30391E4,1.1227935E5,6.1481188E4,1.1288945E5,1.4945722E5],"split_indices":[23,0,24,18,2,10,19,0,0,0,0,0,0,0,0],"split_type":[0,0,0,0,0,0,0,0,0,0,0,0,0,0,0],"sum_hessian":[8.554E3,5.922E3,2.632E3,4.389E3,1.533E3,2.028E3,6.04E2,3.09E3,1.299E3,2.73E2,1.26E3,1.788E3,2.4E2,3.3E1,5.71E2],"tree_param":{"num_deleted":"0","num_feature":"32","num_nodes":"15","size_leaf_vector":"1"}},{"base_weights":[-1.7579113E4,-5.093988E6,1.1507158E7,-6.684372E6,-5.251551E5,1.0473623E7,1.4515033E7,-7.087553E4,-5.7343547E4,-8.93828E3,6.496083E4,5.070773E4,1.09403234E5,1.2040365E5,1.4872733E5],"categories":[],"categories_nodes":[],"categories_segments":[],"categories_sizes":[],"default_left":[0,0,0,0,0,0,0,0,0,0,0,0,0,0,0],"id":23,"left_children":[1,3,5,7,9,11,13,-1,-1,-1,-1,-1,-1,-1,-1],"loss_changes":[5.0125945E17,4.3212147E16,7.847764E15,1.6088947E15,3.9912924E15,4.816909E15,2.3700489E14,0E0,0E0,0E0,0E0,0E0,0E0,0E0,0E0],"parents":[2147483647,0,0,1,1,2,2,3,3,4,4,5,5,6,6],"right_children":[2,4,6,8,10,12,14,-1,-1,-1,-1,-1,-1,-1,-1],"split_conditions":[1.4170387E7,6.99192E6,2.6521264E7,3.195888E6,7.32E2,1.7320616E7,2.6445896E7,-7.087553E4,-5.7343547E4,-8.93828E3,6.496083E4,5.070773E4,1.09403234E5,1.2040365E5,1.4872733E5],"split_indices":[23,0,16,18,2,23,19,0,0,0,0,0,0,0,0],"split_type":[0,0,0,0,0,0,0,0,0,0,0,0,0,0,0],"sum_hessian":[8.564E3,5.946E3,2.618E3,4.41E3,1.536E3,1.955E3,6.63E2,3.089E3,1.321E3,1.461E3,7.5E1,1.57E2,1.798E3,9.2E1,5.71E2],"tree_param":{"num_deleted":"0","num_feature":"32","num_nodes":"15","size_leaf_vector":"1"}},{"base_weights":[-4.3434207E4,-5.033226E6,1.1425156E7,-6.6284075E6,-4.8412725E5,1.049787E7,1.4500767E5,-7.0225914E4,-5.686767E4,-8.57424E3,6.4912547E4,5.847843E4,1.09052125E5],"categories":[],"categories_nodes":[],"categories_segments":[],"categories_sizes":[],"default_left":[0,0,0,0,0,0,0,0,0,0,0,0,0],"id":24,"left_children":[1,3,5,7,9,11,-1,-1,-1,-1,-1,-1,-1],"loss_changes":[4.8961988E17,4.3257467E16,7.097588E15,1.5587467E15,4.045698E15,3.6556356E15,0E0,0E0,0E0,0E0,0E0,0E0,0E0],"parents":[2147483647,0,0,1,1,2,2,3,3,4,4,5,5],"right_children":[2,4,6,8,10,12,-1,-1,-1,-1,-1,-1,-1],"split_conditions":[1.5092371E7,6.99192E6,2.685091E7,3.195888E6,7.32E2,1.7329442E7,1.4500767E5,-7.0225914E4,-5.686767E4,-8.57424E3,6.4912547E4,5.847843E4,1.09052125E5],"split_indices":[23,0,24,18,2,23,0,0,0,0,0,0,0],"split_type":[0,0,0,0,0,0,0,0,0,0,0,0,0],"sum_hessian":[8.552E3,5.96E3,2.592E3,4.412E3,1.548E3,1.998E3,5.94E2,3.103E3,1.309E3,1.471E3,7.7E1,1.63E2,1.835E3],"tree_param":{"num_deleted":"0","num_feature":"32","num_nodes":"13","size_leaf_vector":"1"}},{"base_weights":[3.7734055E4,-5.009618E6,1.1267077E7,-6.5532205E6,-5.285455E5,1.0277126E7,1.4106953E7,-6.938691E4,-5.6242426E4,-1.4011708E4,2.2388738E4,4.9725996E4,1.07479875E5,1.1647163E5,1.4474355E5],"categories":[],"categories_nodes":[],"categories_segments":[],"categories_sizes":[],"default_left":[0,0,0,0,0,0,0,0,0,0,0,0,0,0,0],"id":25,"left_children":[1,3,5,7,9,11,13,-1,-1,-1,-1,-1,-1,-1,-1],"loss_changes":[4.8380147E17,4.072708E16,7.158233E15,1.4906629E15,3.6542304E15,4.8070133E15,2.8251436E14,0E0,0E0,0E0,0E0,0E0,0E0,0E0,0E0],"parents":[2147483647,0,0,1,1,2,2,3,3,4,4,5,5,6,6],"right_children":[2,4,6,8,10,12,14,-1,-1,-1,-1,-1,-1,-1,-1],"split_conditions":[1.4170387E7,6.99192E6,2.6521264E7,3.195888E6,1.1698608E7,1.7320616E7,2.6445896E7,-6.938691E4,-5.6242426E4,-1.4011708E4,2.2388738E4,4.9725996E4,1.07479875E5,1.1647163E5,1.4474355E5],"split_indices":[23,0,16,18,0,23,19,0,0,0,0,0,0,0,0],"split_type":[0,0,0,0,0,0,0,0,0,0,0,0,0,0,0],"sum_hessian":[8.532E3,5.887E3,2.645E3,4.378E3,1.509E3,1.968E3,6.77E2,3.087E3,1.291E3,1.148E3,3.61E2,1.62E2,1.806E3,9.6E1,5.81E2],"tree_param":{"num_deleted":"0","num_feature":"32","num_nodes":"15","size_leaf_vector":"1"}},{"base_weights":[8.099319E3,-5.0232795E6,1.1004765E7,-6.5932665E6,-8.719078E5,1.165699E7,5.5186385E6,-6.71103E4,-4.4165465E4,2.7841182E4,-1.5220901E4,5.550332E4,1.20534836E5,4.134761E4,1.0009188E5],"categories":[],"categories_nodes":[],"categories_segments":[],"categories_sizes":[],"default_left":[0,0,0,0,0,0,0,0,0,0,0,0,0,0,0],"id":26,"left_children":[1,3,5,7,9,11,13,-1,-1,-1,-1,-1,-1,-1,-1],"loss_changes":[4.7482303E17,3.8364125E16,9.513799E15,1.0321837E15,3.8533002E15,5.6804894E15,1.7211496E15,0E0,0E0,0E0,0E0,0E0,0E0,0E0,0E0],"parents":[2147483647,0,0,1,1,2,2,3,3,4,4,5,5,6,6],"right_children":[2,4,6,8,10,12,14,-1,-1,-1,-1,-1,-1,-1,-1],"split_conditions":[1.3923178E7,3.221232E6,5.9004E6,6.48E2,5E1,1.6793684E7,1.2134161E5,-6.71103E4,-4.4165465E4,2.7841182E4,-1.5220901E4,5.550332E4,1.20534836E5,4.134761E4,1.0009188E5],"split_indices":[23,0,10,2,2,24,25,0,0,0,0,0,0,0,0],"split_type":[0,0,0,0,0,0,0,0,0,0,0,0,0,0,0],"sum_hessian":[8.578E3,5.886E3,2.692E3,4.27E3,1.616E3,2.404E3,2.88E2,4.048E3,2.22E2,2.43E2,1.373E3,1.48E2,2.256E3,2.23E2,6.5E1],"tree_param":{"num_deleted":"0","num_feature":"32","num_nodes":"15","size_leaf_vector":"1"}},{"base_weights":[2.9982703E4,-4.9590895E6,1.0904248E7,-6.5248765E6,-8.686386E5,1.1551418E7,5.3266165E6,-5.969568E4,-6.983344E4,-1.2021442E4,6.2010957E4,5.4895938E4,1.1942083E5,3.924159E4,9.8691516E4],"categories":[],"categories_nodes":[],"categories_segments":[],"categories_sizes":[],"default_left":[0,0,0,0,0,0,0,0,0,0,0,0,0,0,0],"id":27,"left_children":[1,3,5,7,9,11,13,-1,-1,-1,-1,-1,-1,-1,-1],"loss_changes":[4.6678313E17,3.7764E16,9.64739E15,1.0039744E15,3.8680186E15,5.595724E15,1.7398E15,0E0,0E0,0E0,0E0,0E0,0E0,0E0,0E0],"parents":[2147483647,0,0,1,1,2,2,3,3,4,4,5,5,6,6],"right_children":[2,4,6,8,10,12,14,-1,-1,-1,-1,-1,-1,-1,-1],"split_conditions":[1.3923178E7,3.221232E6,5.9004E6,1.820766E6,7.32E2,1.6793684E7,1.2134161E5,-5.969568E4,-6.983344E4,-1.2021442E4,6.2010957E4,5.4895938E4,1.1942083E5,3.924159E4,9.8691516E4],"split_indices":[23,0,10,8,2,24,25,0,0,0,0,0,0,0,0],"split_type":[0,0,0,0,0,0,0,0,0,0,0,0,0,0,0],"sum_hessian":[8.6E3,5.896E3,2.704E3,4.263E3,1.633E3,2.421E3,2.83E2,1.938E3,2.325E3,1.561E3,7.2E1,1.48E2,2.273E3,2.19E2,6.4E1],"tree_param":{"num_deleted":"0","num_feature":"32","num_nodes":"15","size_leaf_vector":"1"}},{"base_weights":[-6.0102046E3,-4.8643895E6,1.094576E7,-6.372066E6,-5.173629E5,1.1504879E7,5.690391E6,-6.74875E4,-5.4815316E4,-8.750665E3,6.2579727E4,5.3789992E4,1.1872971E5,4.1910152E4,9.824804E4],"categories":[],"categories_nodes":[],"categories_segments":[],"categories_sizes":[],"default_left":[0,0,0,0,0,0,0,0,0,0,0,0,0,0,0],"id":28,"left_children":[1,3,5,7,9,11,13,-1,-1,-1,-1,-1,-1,-1,-1],"loss_changes":[4.5572043E17,3.8877606E16,7.6057686E15,1.4039389E15,3.7175997E15,5.2210653E15,1.5124867E15,0E0,0E0,0E0,0E0,0E0,0E0,0E0,0E0],"parents":[2147483647,0,0,1,1,2,2,3,3,4,4,5,5,6,6],"right_children":[2,4,6,8,10,12,14,-1,-1,-1,-1,-1,-1,-1,-1],"split_conditions":[1.4170387E7,6.99192E6,5.9004E6,3.195888E6,7.32E2,1.6793684E7,1.2134161E5,-6.74875E4,-5.4815316E4,-8.750665E3,6.2579727E4,5.3789992E4,1.1872971E5,4.1910152E4,9.824804E4],"split_indices":[23,0,10,18,2,24,25,0,0,0,0,0,0,0,0],"split_type":[0,0,0,0,0,0,0,0,0,0,0,0,0,0,0],"sum_hessian":[8.561E3,5.931E3,2.63E3,4.403E3,1.528E3,2.375E3,2.55E2,3.087E3,1.316E3,1.453E3,7.5E1,1.36E2,2.239E3,1.9E2,6.5E1],"tree_param":{"num_deleted":"0","num_feature":"32","num_nodes":"15","size_leaf_vector":"1"}},{"base_weights":[6.2541953E3,-4.869549E6,1.0701073E7,-6.350322E6,-7.9151106E5,1.1326575E7,5.4120505E6,-6.4787953E4,-4.0784258E4,2.7808727E4,-1.4291128E4,5.4125375E4,1.1701545E5,4.001002E4,9.761639E4],"categories":[],"categories_nodes":[],"categories_segments":[],"categories_sizes":[],"default_left":[0,0,0,0,0,0,0,0,0,0,0,0,0,0,0],"id":29,"left_children":[1,3,5,7,9,11,13,-1,-1,-1,-1,-1,-1,-1,-1],"loss_changes":[4.4594618E17,3.5460925E16,8.7396743E15,1.2010103E15,3.5760123E15,5.16956E15,1.6849656E15,0E0,0E0,0E0,0E0,0E0,0E0,0E0,0E0],"parents":[2147483647,0,0,1,1,2,2,3,3,4,4,5,5,6,6],"right_children":[2,4,6,8,10,12,14,-1,-1,-1,-1,-1,-1,-1,-1],"split_conditions":[1.3923178E7,5.88848E6,5.9004E6,6.48E2,5E1,1.6793684E7,1.2134161E5,-6.4787953E4,-4.0784258E4,2.7808727E4,-1.4291128E4,5.4125375E4,1.1701545E5,4.001002E4,9.761639E4],"split_indices":[23,0,10,2,2,24,25,0,0,0,0,0,0,0,0],"split_type":[0,0,0,0,0,0,0,0,0,0,0,0,0,0,0],"sum_hessian":[8.548E3,5.872E3,2.676E3,4.307E3,1.565E3,2.391E3,2.85E2,4.074E3,2.33E2,2.36E2,1.329E3,1.44E2,2.247E3,2.18E2,6.7E1],"tree_param":{"num_deleted":"0","num_feature":"32","num_nodes":"15","size_leaf_vector":"1"}},{"base_weights":[-5.0078105E3,-4.815764E6,1.0564398E7,-6.325832E6,-8.228511E5,1.1187241E7,5.168296E6,-6.4417617E4,-4.2526094E4,-1.1582026E4,6.1094207E4,1.0313642E5,1.37683E5,3.779833E4,9.584347E4],"categories":[],"categories_nodes":[],"categories_segments":[],"categories_sizes":[],"default_left":[0,0,0,0,0,0,0,0,0,0,0,0,0,0,0],"id":30,"left_children":[1,3,5,7,9,11,13,-1,-1,-1,-1,-1,-1,-1,-1],"loss_changes":[4.3565104E17,3.549166E16,8.8941557E15,9.686869E14,3.7738042E15,5.139255E15,1.6519867E15,0E0,0E0,0E0,0E0,0E0,0E0,0E0,0E0],"parents":[2147483647,0,0,1,1,2,2,3,3,4,4,5,5,6,6],"right_children":[2,4,6,8,10,12,14,-1,-1,-1,-1,-1,-1,-1,-1],"split_conditions":[1.3923178E7,3.221232E6,5.9004E6,6.48E2,7.32E2,2.685091E7,1.2134161E5,-6.4417617E4,-4.2526094E4,-1.1582026E4,6.1094207E4,1.0313642E5,1.37683E5,3.779833E4,9.584347E4],"split_indices":[23,0,10,2,2,24,25,0,0,0,0,0,0,0,0],"split_type":[0,0,0,0,0,0,0,0,0,0,0,0,0,0,0],"sum_hessian":[8.564E3,5.886E3,2.678E3,4.27E3,1.616E3,2.399E3,2.79E2,4.041E3,2.29E2,1.543E3,7.3E1,1.799E3,6E2,2.15E2,6.4E1],"tree_param":{"num_deleted":"0","num_feature":"32","num_nodes":"15","size_leaf_vector":"1"}},{"base_weights":[-1.2078535E4,-4.795785E6,1.0521505E7,-6.2795845E6,-8.6561044E5,4.70134E6,1.1063987E7,-5.7511164E4,-6.715656E4,2.7646098E4,-1.4856375E4,3.6745418E4,1.0874127E5,1.0198695E5,1.3597627E5],"categories":[],"categories_nodes":[],"categories_segments":[],"categories_sizes":[],"default_left":[0,0,0,0,0,0,0,0,0,0,0,0,0,0,0],"id":31,"left_children":[1,3,5,7,9,11,13,-1,-1,-1,-1,-1,-1,-1,-1],"loss_changes":[4.3062476E17,3.4261375E16,8.3251584E15,9.072689E14,3.6375654E15,1.3859988E15,5.081118E15,0E0,0E0,0E0,0E0,0E0,0E0,0E0,0E0],"parents":[2147483647,0,0,1,1,2,2,3,3,4,4,5,5,6,6],"right_children":[2,4,6,8,10,12,14,-1,-1,-1,-1,-1,-1,-1,-1],"split_conditions":[1.3923178E7,3.221232E6,1.7329442E7,1.820766E6,5E1,7.63E2,2.685091E7,-5.7511164E4,-6.715656E4,2.7646098E4,-1.4856375E4,3.6745418E4,1.0874127E5,1.0198695E5,1.3597627E5],"split_indices":[23,0,23,8,2,2,24,0,0,0,0,0,0,0,0],"split_type":[0,0,0,0,0,0,0,0,0,0,0,0,0,0,0],"sum_hessian":[8.542E3,5.875E3,2.667E3,4.264E3,1.611E3,2.29E2,2.438E3,1.938E3,2.326E3,2.34E2,1.377E3,1.99E2,3E1,1.824E3,6.14E2],"tree_param":{"num_deleted":"0","num_feature":"32","num_nodes":"15","size_leaf_vector":"1"}},{"base_weights":[-1.1651897E4,-4.7366075E6,1.0338691E7,-6.1816045E6,-7.4951594E5,1.0957412E7,5.1699485E6,-6.2867504E4,5.457773E3,-1.0743553E4,6.0320805E4,5.1323793E4,1.1337088E5,3.764478E4,9.506798E4],"categories":[],"categories_nodes":[],"categories_segments":[],"categories_sizes":[],"default_left":[0,0,0,0,0,0,0,0,0,0,0,0,0,0,0],"id":32,"left_children":[1,3,5,7,9,11,13,-1,-1,-1,-1,-1,-1,-1,-1],"loss_changes":[4.1925736E17,3.3901912E16,8.482234E15,3.0473137E15,3.4655484E15,5.1769474E15,1.7036165E15,0E0,0E0,0E0,0E0,0E0,0E0,0E0,0E0],"parents":[2147483647,0,0,1,1,2,2,3,3,4,4,5,5,6,6],"right_children":[2,4,6,8,10,12,14,-1,-1,-1,-1,-1,-1,-1,-1],"split_conditions":[1.3923178E7,5.88848E6,5.9004E6,6.74E2,7.32E2,1.6793684E7,1.2134161E5,-6.2867504E4,5.457773E3,-1.0743553E4,6.0320805E4,5.1323793E4,1.1337088E5,3.764478E4,9.506798E4],"split_indices":[23,0,10,2,2,24,25,0,0,0,0,0,0,0,0],"split_type":[0,0,0,0,0,0,0,0,0,0,0,0,0,0,0],"sum_hessian":[8.569E3,5.884E3,2.685E3,4.318E3,1.566E3,2.396E3,2.89E2,4.252E3,6.6E1,1.496E3,7E1,1.48E2,2.248E3,2.21E2,6.8E1],"tree_param":{"num_deleted":"0","num_feature":"32","num_nodes":"15","size_leaf_vector":"1"}},{"base_weights":[-1.6550238E4,-4.675463E6,1.0268791E7,-6.0539185E6,-5.71033E5,1.0871184E7,5.095781E6,-6.413707E4,-5.192081E4,-8.983912E3,5.9672383E4,5.2660848E4,1.12299086E5,3.708162E4,9.360812E4],"categories":[],"categories_nodes":[],"categories_segments":[],"categories_sizes":[],"default_left":[0,0,0,0,0,0,0,0,0,0,0,0,0,0,0],"id":33,"left_children":[1,3,5,7,9,11,13,-1,-1,-1,-1,-1,-1,-1,-1],"loss_changes":[4.100823E17,3.3317272E16,8.2055866E15,1.3007394E15,3.1835602E15,4.6738006E15,1.6009287E15,0E0,0E0,0E0,0E0,0E0,0E0,0E0,0E0],"parents":[2147483647,0,0,1,1,2,2,3,3,4,4,5,5,6,6],"right_children":[2,4,6,8,10,12,14,-1,-1,-1,-1,-1,-1,-1,-1],"split_conditions":[1.3923178E7,6.99192E6,5.9004E6,3.195888E6,7.32E2,1.6793684E7,1.2134161E5,-6.413707E4,-5.192081E4,-8.983912E3,5.9672383E4,5.2660848E4,1.12299086E5,3.708162E4,9.360812E4],"split_indices":[23,0,10,18,2,24,25,0,0,0,0,0,0,0,0],"split_type":[0,0,0,0,0,0,0,0,0,0,0,0,0,0,0],"sum_hessian":[8.554E3,5.888E3,2.666E3,4.407E3,1.481E3,2.386E3,2.8E2,3.102E3,1.305E3,1.412E3,6.9E1,1.45E2,2.241E3,2.14E2,6.6E1],"tree_param":{"num_deleted":"0","num_feature":"32","num_nodes":"15","size_leaf_vector":"1"}},{"base_weights":[-7.5839277E3,-4.666061E6,1.0083291E7,-6.080838E6,-8.4873656E5,1.0772871E7,4.801157E6,-6.6575E4,-5.6878965E4,-1.1542795E4,5.8866547E4,5.050738E4,1.1142714E5,3.4698496E4,9.542311E4],"categories":[],"categories_nodes":[],"categories_segments":[],"categories_sizes":[],"default_left":[0,0,0,0,0,0,0,0,0,0,0,0,0,0,0],"id":34,"left_children":[1,3,5,7,9,11,13,-1,-1,-1,-1,-1,-1,-1,-1],"loss_changes":[4.0139795E17,3.154035E16,9.7225E15,8.919788E14,3.267602E15,4.922943E15,1.9233851E15,0E0,0E0,0E0,0E0,0E0,0E0,0E0,0E0],"parents":[2147483647,0,0,1,1,2,2,3,3,4,4,5,5,6,6],"right_children":[2,4,6,8,10,12,14,-1,-1,-1,-1,-1,-1,-1,-1],"split_conditions":[1.3881239E7,3.221232E6,5.9004E6,2.655898E5,7.32E2,1.6793684E7,1.2134161E5,-6.6575E4,-5.6878965E4,-1.1542795E4,5.8866547E4,5.050738E4,1.1142714E5,3.4698496E4,9.542311E4],"split_indices":[23,0,10,17,2,24,25,0,0,0,0,0,0,0,0],"split_type":[0,0,0,0,0,0,0,0,0,0,0,0,0,0,0],"sum_hessian":[8.535E3,5.84E3,2.695E3,4.26E3,1.58E3,2.382E3,3.13E2,1.716E3,2.544E3,1.513E3,6.7E1,1.46E2,2.236E3,2.47E2,6.6E1],"tree_param":{"num_deleted":"0","num_feature":"32","num_nodes":"15","size_leaf_vector":"1"}},{"base_weights":[-1.5119514E3,-4.535241E6,1.015132E7,-5.9409325E6,-4.8127888E5,7.3539555E6,1.1055931E7,-6.31212E4,-5.063356E4,2.7096854E4,-1.1924296E4,7.696013E4,-3.6127883E4,1.0199854E5,1.3196069E5],"categories":[],"categories_nodes":[],"categories_segments":[],"categories_sizes":[],"default_left":[0,0,0,0,0,0,0,0,0,0,0,0,0,0,0],"id":35,"left_children":[1,3,5,7,9,11,13,-1,-1,-1,-1,-1,-1,-1,-1],"loss_changes":[3.9304747E17,3.3633124E16,6.5114797E15,1.3639614E15,3.459292E15,2.4878448E15,3.3809983E15,0E0,0E0,0E0,0E0,0E0,0E0,0E0,0E0],"parents":[2147483647,0,0,1,1,2,2,3,3,4,4,5,5,6,6],"right_children":[2,4,6,8,10,12,14,-1,-1,-1,-1,-1,-1,-1,-1],"split_conditions":[1.4170387E7,6.99192E6,2.5736816E7,3.195888E6,5E1,9.945219E-1,2.7228616E7,-6.31212E4,-5.063356E4,2.7096854E4,-1.1924296E4,7.696013E4,-3.6127883E4,1.0199854E5,1.3196069E5],"split_indices":[23,0,18,18,2,29,24,0,0,0,0,0,0,0,0],"split_type":[0,0,0,0,0,0,0,0,0,0,0,0,0,0,0],"sum_hessian":[8.535E3,5.901E3,2.634E3,4.381E3,1.52E3,6.48E2,1.986E3,3.072E3,1.309E3,2.76E2,1.244E3,6.29E2,1.9E1,1.426E3,5.6E2],"tree_param":{"num_deleted":"0","num_feature":"32","num_nodes":"15","size_leaf_vector":"1"}},{"base_weights":[-4.4809595E3,-4.582557E6,9.864023E6,-5.9629575E6,-8.333785E5,1.0545915E7,4.677854E6,-6.075759E4,-3.8751547E4,-1.1630818E4,5.970785E4,4.9745703E4,1.0899726E5,3.350015E4,9.559819E4],"categories":[],"categories_nodes":[],"categories_segments":[],"categories_sizes":[],"default_left":[0,0,0,0,0,0,0,0,0,0,0,0,0,0,0],"id":36,"left_children":[1,3,5,7,9,11,13,-1,-1,-1,-1,-1,-1,-1,-1],"loss_changes":[3.857773E17,3.017796E16,9.472963E15,9.5365454E14,3.5387299E15,4.5934847E15,1.9986603E15,0E0,0E0,0E0,0E0,0E0,0E0,0E0,0E0],"parents":[2147483647,0,0,1,1,2,2,3,3,4,4,5,5,6,6],"right_children":[2,4,6,8,10,12,14,-1,-1,-1,-1,-1,-1,-1,-1],"split_conditions":[1.3881239E7,3.221232E6,5.9004E6,6.48E2,7.32E2,1.6793684E7,1.188606E5,-6.075759E4,-3.8751547E4,-1.1630818E4,5.970785E4,4.9745703E4,1.0899726E5,3.350015E4,9.559819E4],"split_indices":[23,0,10,2,2,24,25,0,0,0,0,0,0,0,0],"split_type":[0,0,0,0,0,0,0,0,0,0,0,0,0,0,0],"sum_hessian":[8.535E3,5.831E3,2.704E3,4.261E3,1.57E3,2.388E3,3.16E2,4.04E3,2.21E2,1.499E3,7.1E1,1.44E2,2.244E3,2.51E2,6.5E1],"tree_param":{"num_deleted":"0","num_feature":"32","num_nodes":"15","size_leaf_vector":"1"}},{"base_weights":[-1.7189494E4,-4.536124E6,9.727598E6,-5.8237165E6,-6.2788994E5,1.0411637E7,4.5061895E6,-5.92394E4,6.692654E3,-9.588519E3,5.8017777E4,4.962732E4,1.0771487E5,3.268052E4,9.1043734E4],"categories":[],"categories_nodes":[],"categories_segments":[],"categories_sizes":[],"default_left":[0,0,0,0,0,0,0,0,0,0,0,0,0,0,0],"id":37,"left_children":[1,3,5,7,9,11,13,-1,-1,-1,-1,-1,-1,-1,-1],"loss_changes":[3.7500713E17,2.9270048E16,9.544465E15,2.8413957E15,3.0825973E15,4.55873E15,1.7407599E15,0E0,0E0,0E0,0E0,0E0,0E0,0E0,0E0],"parents":[2147483647,0,0,1,1,2,2,3,3,4,4,5,5,6,6],"right_children":[2,4,6,8,10,12,14,-1,-1,-1,-1,-1,-1,-1,-1],"split_conditions":[1.3881239E7,6.99192E6,5.9004E6,6.74E2,7.32E2,1.6793684E7,1.2134161E5,-5.92394E4,6.692654E3,-9.588519E3,5.8017777E4,4.962732E4,1.0771487E5,3.268052E4,9.1043734E4],"split_indices":[23,0,10,2,2,24,25,0,0,0,0,0,0,0,0],"split_type":[0,0,0,0,0,0,0,0,0,0,0,0,0,0,0],"sum_hessian":[8.512E3,5.816E3,2.696E3,4.374E3,1.442E3,2.382E3,3.14E2,4.308E3,6.6E1,1.373E3,6.9E1,1.49E2,2.233E3,2.5E2,6.4E1],"tree_param":{"num_deleted":"0","num_feature":"32","num_nodes":"15","size_leaf_vector":"1"}},{"base_weights":[-7.1896973E3,-4.448148E6,9.759351E6,-5.763785E6,-5.2292744E5,1.0332661E7,4.878942E6,-6.1176426E4,-4.923993E4,2.7328162E4,-1.1636954E4,9.5128195E4,1.2732201E5,3.5904977E4,9.033078E4],"categories":[],"categories_nodes":[],"categories_segments":[],"categories_sizes":[],"default_left":[0,0,0,0,0,0,0,0,0,0,0,0,0,0,0],"id":38,"left_children":[1,3,5,7,9,11,13,-1,-1,-1,-1,-1,-1,-1,-1],"loss_changes":[3.6992265E17,3.0271385E16,7.360801E15,1.2447502E15,3.080463E15,4.4556678E15,1.456548E15,0E0,0E0,0E0,0E0,0E0,0E0,0E0,0E0],"parents":[2147483647,0,0,1,1,2,2,3,3,4,4,5,5,6,6],"right_children":[2,4,6,8,10,12,14,-1,-1,-1,-1,-1,-1,-1,-1],"split_conditions":[1.3923178E7,6.99192E6,5.9004E6,3.195888E6,5E1,2.685091E7,1.2134161E5,-6.1176426E4,-4.923993E4,2.7328162E4,-1.1636954E4,9.5128195E4,1.2732201E5,3.5904977E4,9.033078E4],"split_indices":[23,0,10,18,2,24,25,0,0,0,0,0,0,0,0],"split_type":[0,0,0,0,0,0,0,0,0,0,0,0,0,0,0],"sum_hessian":[8.525E3,5.861E3,2.664E3,4.389E3,1.472E3,2.382E3,2.82E2,3.081E3,1.308E3,2.41E2,1.231E3,1.782E3,6E2,2.18E2,6.4E1],"tree_param":{"num_deleted":"0","num_feature":"32","num_nodes":"15","size_leaf_vector":"1"}},{"base_weights":[1.48733545E4,-4.365555E6,9.792669E6,-5.7108995E6,-4.7439488E5,8.936625E6,1.2644397E7,-6.0617406E4,-4.866565E4,2.6501309E4,-1.1601527E4,9.449503E4,5.1246598E4,1.0265181E5,1.2899248E5],"categories":[],"categories_nodes":[],"categories_segments":[],"categories_sizes":[],"default_left":[0,0,0,0,0,0,0,0,0,0,0,0,0,0,0],"id":39,"left_children":[1,3,5,7,9,11,13,-1,-1,-1,-1,-1,-1,-1,-1],"loss_changes":[3.661575E17,3.090162E16,6.2361207E15,1.2406872E15,3.2599344E15,3.889969E15,1.0734841E14,0E0,0E0,0E0,0E0,0E0,0E0,0E0,0E0],"parents":[2147483647,0,0,1,1,2,2,3,3,4,4,5,5,6,6],"right_children":[2,4,6,8,10,12,14,-1,-1,-1,-1,-1,-1,-1,-1],"split_conditions":[1.4170387E7,6.99192E6,2.685091E7,3.195888E6,5E1,8.617392E6,2.9405264E7,-6.0617406E4,-4.866565E4,2.6501309E4,-1.1601527E4,9.449503E4,5.1246598E4,1.0265181E5,1.2899248E5],"split_indices":[23,0,24,18,2,10,18,0,0,0,0,0,0,0,0],"split_type":[0,0,0,0,0,0,0,0,0,0,0,0,0,0,0],"sum_hessian":[8.545E3,5.902E3,2.643E3,4.385E3,1.517E3,2.039E3,6.04E2,3.091E3,1.294E3,2.72E2,1.245E3,1.795E3,2.44E2,6.6E1,5.38E2],"tree_param":{"num_deleted":"0","num_feature":"32","num_nodes":"15","size_leaf_vector":"1"}},{"base_weights":[1.01107704E2,-4.315386E6,9.69206E6,-5.6370985E6,-4.7078816E5,7.045945E6,1.0545954E7,-5.977859E4,-4.8298402E4,-7.9563374E3,5.896666E4,5.5512055E4,9.47458E4,9.715156E4,1.2463139E5],"categories":[],"categories_nodes":[],"categories_segments":[],"categories_sizes":[],"default_left":[0,0,0,0,0,0,0,0,0,0,0,0,0,0,0],"id":40,"left_children":[1,3,5,7,9,11,13,-1,-1,-1,-1,-1,-1,-1,-1],"loss_changes":[3.5839908E17,3.0122521E16,5.819818E15,1.1560678E15,3.1501497E15,2.2566725E15,2.937603E15,0E0,0E0,0E0,0E0,0E0,0E0,0E0,0E0],"parents":[2147483647,0,0,1,1,2,2,3,3,4,4,5,5,6,6],"right_children":[2,4,6,8,10,12,14,-1,-1,-1,-1,-1,-1,-1,-1],"split_conditions":[1.4170387E7,6.99192E6,2.5736816E7,3.195888E6,7.32E2,4.111927E6,2.685091E7,-5.977859E4,-4.8298402E4,-7.9563374E3,5.896666E4,5.5512055E4,9.47458E4,9.715156E4,1.2463139E5],"split_indices":[23,0,18,18,2,22,24,0,0,0,0,0,0,0,0],"split_type":[0,0,0,0,0,0,0,0,0,0,0,0,0,0,0],"sum_hessian":[8.565E3,5.927E3,2.638E3,4.41E3,1.517E3,6.48E2,1.99E3,3.094E3,1.316E3,1.445E3,7.2E1,4.05E2,2.43E2,1.396E3,5.94E2],"tree_param":{"num_deleted":"0","num_feature":"32","num_nodes":"15","size_leaf_vector":"1"}},{"base_weights":[1.3872654E4,-4.3568115E6,9.396693E6,-5.646306E6,-7.578643E5,3.5844182E6,9.936086E6,-5.7615855E4,-3.6230453E4,-1.0633778E4,5.699213E4,4.8971242E4,1.936866E4,9.1273984E4,1.23774555E5],"categories":[],"categories_nodes":[],"categories_segments":[],"categories_sizes":[],"default_left":[0,0,0,0,0,0,0,0,0,0,0,0,0,0,0],"id":41,"left_children":[1,3,5,7,9,11,13,-1,-1,-1,-1,-1,-1,-1,-1],"loss_changes":[3.5087203E17,2.7079915E16,8.454609E15,9.574427E14,3.052589E15,4.873486E14,4.6918566E15,0E0,0E0,0E0,0E0,0E0,0E0,0E0,0E0],"parents":[2147483647,0,0,1,1,2,2,3,3,4,4,5,5,6,6],"right_children":[2,4,6,8,10,12,14,-1,-1,-1,-1,-1,-1,-1,-1],"split_conditions":[1.3881239E7,5.88848E6,1.7320616E7,6.48E2,7.32E2,3.201696E6,2.685091E7,-5.7615855E4,-3.6230453E4,-1.0633778E4,5.699213E4,4.8971242E4,1.936866E4,9.1273984E4,1.23774555E5],"split_indices":[23,0,23,2,2,10,24,0,0,0,0,0,0,0,0],"split_type":[0,0,0,0,0,0,0,0,0,0,0,0,0,0,0],"sum_hessian":[8.552E3,5.835E3,2.717E3,4.295E3,1.54E3,2.32E2,2.485E3,4.061E3,2.34E2,1.472E3,6.8E1,1.27E2,1.05E2,1.873E3,6.12E2],"tree_param":{"num_deleted":"0","num_feature":"32","num_nodes":"15","size_leaf_vector":"1"}},{"base_weights":[6.347211E3,-4.227723E6,9.499464E6,-5.526366E6,-4.5110062E5,8.600028E6,1.2098435E7,-5.858952E4,-4.7231832E4,2.5954072E4,-1.1167753E4,9.127552E4,4.9021586E4,1.0683059E5,1.2635477E5],"categories":[],"categories_nodes":[],"categories_segments":[],"categories_sizes":[],"default_left":[0,0,0,0,0,0,0,0,0,0,0,0,0,0,0],"id":42,"left_children":[1,3,5,7,9,11,13,-1,-1,-1,-1,-1,-1,-1,-1],"loss_changes":[3.4454365E17,2.9068682E16,5.977237E15,1.1230824E15,3.085429E15,3.7522724E15,2.486872E14,0E0,0E0,0E0,0E0,0E0,0E0,0E0,0E0],"parents":[2147483647,0,0,1,1,2,2,3,3,4,4,5,5,6,6],"right_children":[2,4,6,8,10,12,14,-1,-1,-1,-1,-1,-1,-1,-1],"split_conditions":[1.4170387E7,6.99192E6,2.6521264E7,3.195888E6,5E1,5.9004E6,3.0662688E7,-5.858952E4,-4.7231832E4,2.5954072E4,-1.1167753E4,9.127552E4,4.9021586E4,1.0683059E5,1.2635477E5],"split_indices":[23,0,16,18,2,10,18,0,0,0,0,0,0,0,0],"split_type":[0,0,0,0,0,0,0,0,0,0,0,0,0,0,0],"sum_hessian":[8.568E3,5.926E3,2.642E3,4.409E3,1.517E3,1.969E3,6.73E2,3.111E3,1.298E3,2.71E2,1.246E3,1.721E3,2.48E2,1.96E2,4.77E2],"tree_param":{"num_deleted":"0","num_feature":"32","num_nodes":"15","size_leaf_vector":"1"}},{"base_weights":[-3.574748E4,-4.2011035E6,9.380043E6,-5.5654195E6,-6.505002E5,8.519978E6,1.1979863E7,-5.0436664E4,-6.003796E4,-1.4223808E4,2.1036426E4,3.840216E4,8.9168836E4,9.833597E4,1.23016305E5],"categories":[],"categories_nodes":[],"categories_segments":[],"categories_sizes":[],"default_left":[0,0,0,0,0,0,0,0,0,0,0,0,0,0,0],"id":43,"left_children":[1,3,5,7,9,11,13,-1,-1,-1,-1,-1,-1,-1,-1],"loss_changes":[3.3579944E17,2.8747556E16,5.67226E15,9.212705E14,3.512674E15,3.6041476E15,2.0992082E14,0E0,0E0,0E0,0E0,0E0,0E0,0E0,0E0],"parents":[2147483647,0,0,1,1,2,2,3,3,4,4,5,5,6,6],"right_children":[2,4,6,8,10,12,14,-1,-1,-1,-1,-1,-1,-1,-1],"split_conditions":[1.4170387E7,3.221232E6,2.6521264E7,1.820766E6,1.1698608E7,1.7320616E7,2.6445896E7,-5.0436664E4,-6.003796E4,-1.4223808E4,2.1036426E4,3.840216E4,8.9168836E4,9.833597E4,1.23016305E5],"split_indices":[23,0,16,8,0,23,19,0,0,0,0,0,0,0,0],"split_type":[0,0,0,0,0,0,0,0,0,0,0,0,0,0,0],"sum_hessian":[8.558E3,5.934E3,2.624E3,4.286E3,1.648E3,1.978E3,6.46E2,1.966E3,2.32E3,1.288E3,3.6E2,1.56E2,1.822E3,9.2E1,5.54E2],"tree_param":{"num_deleted":"0","num_feature":"32","num_nodes":"15","size_leaf_vector":"1"}},{"base_weights":[1.1482004E4,-4.2090365E6,9.088922E6,-5.4671195E6,-7.888539E5,3.3607132E6,9.636771E6,-5.5777926E4,1.2336282E4,-1.0870556E4,5.672659E4,4.721144E4,1.764175E4,8.883196E4,1.2088172E5],"categories":[],"categories_nodes":[],"categories_segments":[],"categories_sizes":[],"default_left":[0,0,0,0,0,0,0,0,0,0,0,0,0,0,0],"id":44,"left_children":[1,3,5,7,9,11,13,-1,-1,-1,-1,-1,-1,-1,-1],"loss_changes":[3.2905383E17,2.5219129E16,8.4912706E15,3.1785507E15,3.0532874E15,5.0697445E14,4.3870342E15,0E0,0E0,0E0,0E0,0E0,0E0,0E0,0E0],"parents":[2147483647,0,0,1,1,2,2,3,3,4,4,5,5,6,6],"right_children":[2,4,6,8,10,12,14,-1,-1,-1,-1,-1,-1,-1,-1],"split_conditions":[1.3881239E7,5.0128295E6,1.7320616E7,6.74E2,7.32E2,3.201696E6,2.6978596E7,-5.5777926E4,1.2336282E4,-1.0870556E4,5.672659E4,4.721144E4,1.764175E4,8.883196E4,1.2088172E5],"split_indices":[23,23,23,2,2,10,19,0,0,0,0,0,0,0,0],"split_type":[0,0,0,0,0,0,0,0,0,0,0,0,0,0,0],"sum_hessian":[8.585E3,5.861E3,2.724E3,4.284E3,1.577E3,2.39E2,2.485E3,4.215E3,6.9E1,1.509E3,6.8E1,1.27E2,1.12E2,1.907E3,5.78E2],"tree_param":{"num_deleted":"0","num_feature":"32","num_nodes":"15","size_leaf_vector":"1"}},{"base_weights":[3.1779146E3,-4.057058E6,9.286039E6,-5.3563995E6,-3.4906494E5,8.422841E6,1.1781983E7,-5.682815E4,-4.5777594E4,-6.8676978E3,5.769976E4,4.6279734E4,8.781044E4,1.0519416E5,1.22471086E5],"categories":[],"categories_nodes":[],"categories_segments":[],"categories_sizes":[],"default_left":[0,0,0,0,0,0,0,0,0,0,0,0,0,0,0],"id":45,"left_children":[1,3,5,7,9,11,13,-1,-1,-1,-1,-1,-1,-1,-1],"loss_changes":[3.2191192E17,2.8624376E16,5.40556E15,1.0663974E15,3.1974252E15,2.5498534E15,1.3708677E14,0E0,0E0,0E0,0E0,0E0,0E0,0E0,0E0],"parents":[2147483647,0,0,1,1,2,2,3,3,4,4,5,5,6,6],"right_children":[2,4,6,8,10,12,14,-1,-1,-1,-1,-1,-1,-1,-1],"split_conditions":[1.5092371E7,6.99192E6,2.6521264E7,3.195888E6,7.32E2,1.7329442E7,3.0662688E7,-5.682815E4,-4.5777594E4,-6.8676978E3,5.769976E4,4.6279734E4,8.781044E4,1.0519416E5,1.22471086E5],"split_indices":[23,0,16,18,2,23,18,0,0,0,0,0,0,0,0],"split_type":[0,0,0,0,0,0,0,0,0,0,0,0,0,0,0],"sum_hessian":[8.537E3,5.94E3,2.597E3,4.398E3,1.542E3,1.936E3,6.61E2,3.092E3,1.306E3,1.463E3,7.9E1,1.69E2,1.767E3,1.9E2,4.71E2],"tree_param":{"num_deleted":"0","num_feature":"32","num_nodes":"15","size_leaf_vector":"1"}},{"base_weights":[1.1741694E3,-4.1834148E6,8.877839E6,-5.3806415E6,-8.672538E5,9.582786E6,3.9168062E6,-5.4877336E4,-3.407943E4,-1.1765902E4,5.7770527E4,4.3662684E4,9.903574E4,2.9526396E4,8.130595E4],"categories":[],"categories_nodes":[],"categories_segments":[],"categories_sizes":[],"default_left":[0,0,0,0,0,0,0,0,0,0,0,0,0,0,0],"id":46,"left_children":[1,3,5,7,9,11,13,-1,-1,-1,-1,-1,-1,-1,-1],"loss_changes":[3.174394E17,2.3049603E16,9.502031E15,8.6120966E14,3.183323E15,3.9149142E15,1.3506496E15,0E0,0E0,0E0,0E0,0E0,0E0,0E0,0E0],"parents":[2147483647,0,0,1,1,2,2,3,3,4,4,5,5,6,6],"right_children":[2,4,6,8,10,12,14,-1,-1,-1,-1,-1,-1,-1,-1],"split_conditions":[1.3874527E7,3.221232E6,5.9004E6,6.48E2,7.32E2,1.6793684E7,1.2134161E5,-5.4877336E4,-3.407943E4,-1.1765902E4,5.7770527E4,4.3662684E4,9.903574E4,2.9526396E4,8.130595E4],"split_indices":[23,0,10,2,2,24,25,0,0,0,0,0,0,0,0],"split_type":[0,0,0,0,0,0,0,0,0,0,0,0,0,0,0],"sum_hessian":[8.542E3,5.806E3,2.736E3,4.265E3,1.541E3,2.394E3,3.42E2,4.043E3,2.22E2,1.474E3,6.7E1,1.4E2,2.254E3,2.81E2,6.1E1],"tree_param":{"num_deleted":"0","num_feature":"32","num_nodes":"15","size_leaf_vector":"1"}},{"base_weights":[-5.2620522E3,-4.132298E6,8.778388E6,-5.334258E6,-8.2221506E5,9.474072E6,3.8371188E6,-5.444533E4,-3.3996426E4,-1.133011E4,5.681522E4,8.743092E4,1.1755163E5,2.81194E4,8.2624125E4],"categories":[],"categories_nodes":[],"categories_segments":[],"categories_sizes":[],"default_left":[0,0,0,0,0,0,0,0,0,0,0,0,0,0,0],"id":47,"left_children":[1,3,5,7,9,11,13,-1,-1,-1,-1,-1,-1,-1,-1],"loss_changes":[3.0935794E17,2.309093E16,9.306473E15,8.688633E14,3.142356E15,3.7865634E15,1.4970012E15,0E0,0E0,0E0,0E0,0E0,0E0,0E0,0E0],"parents":[2147483647,0,0,1,1,2,2,3,3,4,4,5,5,6,6],"right_children":[2,4,6,8,10,12,14,-1,-1,-1,-1,-1,-1,-1,-1],"split_conditions":[1.3874527E7,3.221232E6,5.9004E6,6.48E2,7.32E2,2.6978596E7,1.2134161E5,-5.444533E4,-3.3996426E4,-1.133011E4,5.681522E4,8.743092E4,1.1755163E5,2.81194E4,8.2624125E4],"split_indices":[23,0,10,2,2,19,25,0,0,0,0,0,0,0,0],"split_type":[0,0,0,0,0,0,0,0,0,0,0,0,0,0,0],"sum_hessian":[8.53E3,5.804E3,2.726E3,4.257E3,1.547E3,2.388E3,3.38E2,4.025E3,2.32E2,1.478E3,6.9E1,1.815E3,5.73E2,2.77E2,6.1E1],"tree_param":{"num_deleted":"0","num_feature":"32","num_nodes":"15","size_leaf_vector":"1"}},{"base_weights":[9.632727E3,-4.0629088E6,8.762742E6,-5.2930045E6,-7.7811975E5,9.386318E6,3.9909848E6,-5.9017113E4,-4.9547547E4,2.73022E4,-1.2951612E4,4.2001926E4,9.717283E4,2.950128E4,8.020112E4],"categories":[],"categories_nodes":[],"categories_segments":[],"categories_sizes":[],"default_left":[0,0,0,0,0,0,0,0,0,0,0,0,0,0,0],"id":48,"left_children":[1,3,5,7,9,11,13,-1,-1,-1,-1,-1,-1,-1,-1],"loss_changes":[3.04568E17,2.3552544E16,7.999342E15,8.166365E14,2.8920441E15,4.0264288E15,1.2830973E15,0E0,0E0,0E0,0E0,0E0,0E0,0E0,0E0],"parents":[2147483647,0,0,1,1,2,2,3,3,4,4,5,5,6,6],"right_children":[2,4,6,8,10,12,14,-1,-1,-1,-1,-1,-1,-1,-1],"split_conditions":[1.3881239E7,3.221232E6,5.9004E6,5.8266633E4,5E1,1.6793684E7,1.2134161E5,-5.9017113E4,-4.9547547E4,2.73022E4,-1.2951612E4,4.2001926E4,9.717283E4,2.950128E4,8.020112E4],"split_indices":[23,0,10,17,2,24,25,0,0,0,0,0,0,0,0],"split_type":[0,0,0,0,0,0,0,0,0,0,0,0,0,0,0],"sum_hessian":[8.54E3,5.829E3,2.711E3,4.24E3,1.589E3,2.396E3,3.15E2,1.505E3,2.735E3,2.03E2,1.386E3,1.45E2,2.251E3,2.53E2,6.2E1],"tree_param":{"num_deleted":"0","num_feature":"32","num_nodes":"15","size_leaf_vector":"1"}},{"base_weights":[3.9264316E4,-3.9101628E6,8.928154E6,-5.1698795E6,-3.4909197E5,8.093933E6,1.1263941E7,-5.6532266E4,-4.6633734E4,-1.1631401E4,2.1011838E4,3.8337625E4,8.402372E4,9.8402375E4,1.18082836E5],"categories":[],"categories_nodes":[],"categories_segments":[],"categories_sizes":[],"default_left":[0,0,0,0,0,0,0,0,0,0,0,0,0,0,0],"id":49,"left_children":[1,3,5,7,9,11,13,-1,-1,-1,-1,-1,-1,-1,-1],"loss_changes":[3.0092517E17,2.662032E16,4.9601375E15,1.0215408E15,3.1017752E15,2.4937353E15,3.062913E14,0E0,0E0,0E0,0E0,0E0,0E0,0E0,0E0],"parents":[2147483647,0,0,1,1,2,2,3,3,4,4,5,5,6,6],"right_children":[2,4,6,8,10,12,14,-1,-1,-1,-1,-1,-1,-1,-1],"split_conditions":[1.5092371E7,6.99192E6,2.6521264E7,2.106128E6,1.1698608E7,1.7320616E7,3.0662688E7,-5.6532266E4,-4.6633734E4,-1.1631401E4,2.1011838E4,3.8337625E4,8.402372E4,9.8402375E4,1.18082836E5],"split_indices":[23,0,16,0,0,23,18,0,0,0,0,0,0,0,0],"split_type":[0,0,0,0,0,0,0,0,0,0,0,0,0,0,0],"sum_hessian":[8.568E3,5.933E3,2.635E3,4.382E3,1.551E3,1.948E3,6.87E2,2.234E3,2.148E3,1.165E3,3.86E2,1.33E2,1.815E3,2E2,4.87E2],"tree_param":{"num_deleted":"0","num_feature":"32","num_nodes":"15","size_leaf_vector":"1"}},{"base_weights":[1.2840042E4,-4.0086165E6,8.526432E6,-5.1464885E6,-7.346034E5,3.4178962E6,9.153385E6,-5.26343E4,-3.1371217E4,-1.0456083E4,5.5565023E4,2.6771602E4,9.330853E4,8.400446E4,1.1347488E5],"categories":[],"categories_nodes":[],"categories_segments":[],"categories_sizes":[],"default_left":[0,0,0,0,0,0,0,0,0,0,0,0,0,0,0],"id":50,"left_children":[1,3,5,7,9,11,13,-1,-1,-1,-1,-1,-1,-1,-1],"loss_changes":[2.927234E17,2.1625882E16,8.7240235E15,9.7661543E14,2.945073E15,1.2783465E15,3.8499743E15,0E0,0E0,0E0,0E0,0E0,0E0,0E0,0E0],"parents":[2147483647,0,0,1,1,2,2,3,3,4,4,5,5,6,6],"right_children":[2,4,6,8,10,12,14,-1,-1,-1,-1,-1,-1,-1,-1],"split_conditions":[1.3874527E7,5.88848E6,1.7329442E7,6.48E2,7.32E2,7.63E2,2.685091E7,-5.26343E4,-3.1371217E4,-1.0456083E4,5.5565023E4,2.6771602E4,9.330853E4,8.400446E4,1.1347488E5],"split_indices":[23,0,23,2,2,2,24,0,0,0,0,0,0,0,0],"split_type":[0,0,0,0,0,0,0,0,0,0,0,0,0,0,0],"sum_hessian":[8.546E3,5.805E3,2.741E3,4.307E3,1.498E3,3.01E2,2.44E3,4.068E3,2.39E2,1.429E3,6.9E1,2.7E2,3.1E1,1.823E3,6.17E2],"tree_param":{"num_deleted":"0","num_feature":"32","num_nodes":"15","size_leaf_vector":"1"}},{"base_weights":[2.543336E4,-3.957735E6,8.404627E6,-5.1185595E6,-8.0456656E5,3.34096E6,9.033633E6,-5.2274336E4,-3.152961E4,-1.1158081E4,5.473273E4,2.6649771E4,9.20292E4,8.310419E4,1.1219133E5],"categories":[],"categories_nodes":[],"categories_segments":[],"categories_sizes":[],"default_left":[0,0,0,0,0,0,0,0,0,0,0,0,0,0,0],"id":51,"left_children":[1,3,5,7,9,11,13,-1,-1,-1,-1,-1,-1,-1,-1],"loss_changes":[2.8485864E17,2.1166475E16,8.6998514E15,8.69121E14,3.0568826E15,1.1686606E15,3.6843776E15,0E0,0E0,0E0,0E0,0E0,0E0,0E0,0E0],"parents":[2147483647,0,0,1,1,2,2,3,3,4,4,5,5,6,6],"right_children":[2,4,6,8,10,12,14,-1,-1,-1,-1,-1,-1,-1,-1],"split_conditions":[1.3874527E7,3.221232E6,1.7329442E7,6.48E2,7.32E2,7.63E2,2.685091E7,-5.2274336E4,-3.152961E4,-1.1158081E4,5.473273E4,2.6649771E4,9.20292E4,8.310419E4,1.1219133E5],"split_indices":[23,0,23,2,2,2,24,0,0,0,0,0,0,0,0],"split_type":[0,0,0,0,0,0,0,0,0,0,0,0,0,0,0],"sum_hessian":[8.531E3,5.783E3,2.748E3,4.226E3,1.557E3,3.05E2,2.443E3,4.002E3,2.24E2,1.485E3,7.2E1,2.76E2,2.9E1,1.842E3,6.01E2],"tree_param":{"num_deleted":"0","num_feature":"32","num_nodes":"15","size_leaf_vector":"1"}},{"base_weights":[-1.0686254E4,-3.8210845E6,8.566787E6,-5.072897E6,-5.959588E5,7.781099E6,1.114256E7,-4.5799953E4,-5.486141E4,-1.3468723E4,2.0507725E4,8.265823E4,4.1214836E4,7.976938E4,1.1303354E5],"categories":[],"categories_nodes":[],"categories_segments":[],"categories_sizes":[],"default_left":[0,0,0,0,0,0,0,0,0,0,0,0,0,0,0],"id":52,"left_children":[1,3,5,7,9,11,13,-1,-1,-1,-1,-1,-1,-1,-1],"loss_changes":[2.7934371E17,2.3886375E16,5.1509715E15,8.189386E14,3.2978345E15,3.5137042E15,1.3260282E14,0E0,0E0,0E0,0E0,0E0,0E0,0E0,0E0],"parents":[2147483647,0,0,1,1,2,2,3,3,4,4,5,5,6,6],"right_children":[2,4,6,8,10,12,14,-1,-1,-1,-1,-1,-1,-1,-1],"split_conditions":[1.4170387E7,3.221232E6,2.685091E7,1.820766E6,1.1698608E7,8.628928E6,2.6445896E7,-4.5799953E4,-5.486141E4,-1.3468723E4,2.0507725E4,8.265823E4,4.1214836E4,7.976938E4,1.1303354E5],"split_indices":[23,0,24,8,0,10,19,0,0,0,0,0,0,0,0],"split_type":[0,0,0,0,0,0,0,0,0,0,0,0,0,0,0],"sum_hessian":[8.543E3,5.916E3,2.627E3,4.261E3,1.655E3,2.019E3,6.08E2,1.952E3,2.309E3,1.29E3,3.65E2,1.781E3,2.38E2,3.4E1,5.74E2],"tree_param":{"num_deleted":"0","num_feature":"32","num_nodes":"15","size_leaf_vector":"1"}},{"base_weights":[-1.1403528E4,-3.7452542E6,8.556019E6,-4.956472E6,-3.224196E5,7.7442765E6,1.0845339E7,-5.44145E4,-4.452677E4,-6.501616E3,5.5357727E4,8.143838E4,4.5273457E4,9.442078E4,1.13975195E5],"categories":[],"categories_nodes":[],"categories_segments":[],"categories_sizes":[],"default_left":[0,0,0,0,0,0,0,0,0,0,0,0,0,0,0],"id":53,"left_children":[1,3,5,7,9,11,13,-1,-1,-1,-1,-1,-1,-1,-1],"loss_changes":[2.7411497E17,2.4738814E16,4.669368E15,1.0294521E15,3.005216E15,2.4009297E15,3.129399E14,0E0,0E0,0E0,0E0,0E0,0E0,0E0,0E0],"parents":[2147483647,0,0,1,1,2,2,3,3,4,4,5,5,6,6],"right_children":[2,4,6,8,10,12,14,-1,-1,-1,-1,-1,-1,-1,-1],"split_conditions":[1.5092371E7,6.99192E6,2.6521264E7,2.106128E6,7.32E2,8.617392E6,3.0662688E7,-5.44145E4,-4.452677E4,-6.501616E3,5.5357727E4,8.143838E4,4.5273457E4,9.442078E4,1.13975195E5],"split_indices":[23,0,16,0,2,10,18,0,0,0,0,0,0,0,0],"split_type":[0,0,0,0,0,0,0,0,0,0,0,0,0,0,0],"sum_hessian":[8.565E3,5.966E3,2.599E3,4.406E3,1.56E3,1.925E3,6.74E2,2.237E3,2.169E3,1.479E3,8.1E1,1.71E3,2.15E2,2E2,4.74E2],"tree_param":{"num_deleted":"0","num_feature":"32","num_nodes":"15","size_leaf_vector":"1"}},{"base_weights":[2.7049126E3,-3.8471662E6,8.155115E6,-4.972566E6,-7.560967E5,8.804514E6,3.611535E6,-5.0770492E4,-3.0978273E4,-1.0557788E4,5.468625E4,3.9413324E4,9.108664E4,1.5223405E4,5.3142168E4],"categories":[],"categories_nodes":[],"categories_segments":[],"categories_sizes":[],"default_left":[0,0,0,0,0,0,0,0,0,0,0,0,0,0,0],"id":54,"left_children":[1,3,5,7,9,11,13,-1,-1,-1,-1,-1,-1,-1,-1],"loss_changes":[2.6966325E17,2.0294133E16,8.0695564E15,8.039749E14,2.9202138E15,3.4858985E15,1.221704E15,0E0,0E0,0E0,0E0,0E0,0E0,0E0,0E0],"parents":[2147483647,0,0,1,1,2,2,3,3,4,4,5,5,6,6],"right_children":[2,4,6,8,10,12,14,-1,-1,-1,-1,-1,-1,-1,-1],"split_conditions":[1.3874527E7,3.221232E6,5.9004E6,6.48E2,7.32E2,1.6793684E7,1.9819952E7,-5.0770492E4,-3.0978273E4,-1.0557788E4,5.468625E4,3.9413324E4,9.108664E4,1.5223405E4,5.3142168E4],"split_indices":[23,0,10,2,2,24,0,0,0,0,0,0,0,0,0],"split_type":[0,0,0,0,0,0,0,0,0,0,0,0,0,0,0],"sum_hessian":[8.588E3,5.834E3,2.754E3,4.276E3,1.558E3,2.408E3,3.46E2,4.048E3,2.28E2,1.488E3,7E1,1.43E2,2.265E3,1.57E2,1.89E2],"tree_param":{"num_deleted":"0","num_feature":"32","num_nodes":"15","size_leaf_vector":"1"}},{"base_weights":[6.2264277E3,-3.8250988E6,8.0926525E6,-4.928892E6,-7.823513E5,2.8953565E6,8.654966E6,-5.5361934E4,-4.6094645E4,-1.0791189E4,5.3022445E4,1.8051709E4,4.245768E4,7.957998E4,1.07919695E5],"categories":[],"categories_nodes":[],"categories_segments":[],"categories_sizes":[],"default_left":[0,0,0,0,0,0,0,0,0,0,0,0,0,0,0],"id":55,"left_children":[1,3,5,7,9,11,13,-1,-1,-1,-1,-1,-1,-1,-1],"loss_changes":[2.6752429E17,1.967016E16,8.063767E15,7.844672E14,2.83056E15,3.8829296E14,3.5636546E15,0E0,0E0,0E0,0E0,0E0,0E0,0E0,0E0],"parents":[2147483647,0,0,1,1,2,2,3,3,4,4,5,5,6,6],"right_children":[2,4,6,8,10,12,14,-1,-1,-1,-1,-1,-1,-1,-1],"split_conditions":[1.3874527E7,3.221232E6,1.7320616E7,2.2454902E4,7.32E2,1.7257856E7,2.685091E7,-5.5361934E4,-4.6094645E4,-1.0791189E4,5.3022445E4,1.8051709E4,4.245768E4,7.957998E4,1.07919695E5],"split_indices":[23,0,23,17,2,3,24,0,0,0,0,0,0,0,0],"split_type":[0,0,0,0,0,0,0,0,0,0,0,0,0,0,0],"sum_hessian":[8.631E3,5.857E3,2.774E3,4.297E3,1.56E3,2.72E2,2.502E3,1.472E3,2.825E3,1.489E3,7.1E1,1.53E2,1.19E2,1.893E3,6.09E2],"tree_param":{"num_deleted":"0","num_feature":"32","num_nodes":"15","size_leaf_vector":"1"}},{"base_weights":[3.1974861E4,-3.7676268E6,8.0466565E6,-4.866379E6,-7.596307E5,8.683615E6,3.5806785E6,-4.9710918E4,-2.9910512E4,-1.0685181E4,5.2854035E4,3.8308152E4,8.99887E4,2.5841209E4,7.5994984E4],"categories":[],"categories_nodes":[],"categories_segments":[],"categories_sizes":[],"default_left":[0,0,0,0,0,0,0,0,0,0,0,0,0,0,0],"id":56,"left_children":[1,3,5,7,9,11,13,-1,-1,-1,-1,-1,-1,-1,-1],"loss_changes":[2.6067117E17,1.9185E16,7.7704033E15,8.0294414E14,2.9153196E15,3.6080474E15,1.3512638E15,0E0,0E0,0E0,0E0,0E0,0E0,0E0,0E0],"parents":[2147483647,0,0,1,1,2,2,3,3,4,4,5,5,6,6],"right_children":[2,4,6,8,10,12,14,-1,-1,-1,-1,-1,-1,-1,-1],"split_conditions":[1.3874527E7,3.221232E6,5.9004E6,6.48E2,7.32E2,1.6793684E7,1.2134161E5,-4.9710918E4,-2.9910512E4,-1.0685181E4,5.2854035E4,3.8308152E4,8.99887E4,2.5841209E4,7.5994984E4],"split_indices":[23,0,10,2,2,24,25,0,0,0,0,0,0,0,0],"split_type":[0,0,0,0,0,0,0,0,0,0,0,0,0,0,0],"sum_hessian":[8.556E3,5.805E3,2.751E3,4.251E3,1.554E3,2.406E3,3.45E2,4.024E3,2.27E2,1.48E3,7.4E1,1.48E2,2.258E3,2.79E2,6.6E1],"tree_param":{"num_deleted":"0","num_feature":"32","num_nodes":"15","size_leaf_vector":"1"}},{"base_weights":[-6.546164E3,-3.593299E6,8.1926185E6,-4.7442105E6,-3.154379E5,7.44037E6,1.0623691E7,-5.2055633E4,-4.2684098E4,9.948737E3,-1.744903E4,7.844822E4,4.0180695E4,7.593228E4,1.0771731E5],"categories":[],"categories_nodes":[],"categories_segments":[],"categories_sizes":[],"default_left":[0,0,0,0,0,0,0,0,0,0,0,0,0,0,0],"id":57,"left_children":[1,3,5,7,9,11,13,-1,-1,-1,-1,-1,-1,-1,-1],"loss_changes":[2.5211535E17,2.2496248E16,4.616746E15,9.2532493E14,2.909793E15,2.701122E15,1.131638E14,0E0,0E0,0E0,0E0,0E0,0E0,0E0,0E0],"parents":[2147483647,0,0,1,1,2,2,3,3,4,4,5,5,6,6],"right_children":[2,4,6,8,10,12,14,-1,-1,-1,-1,-1,-1,-1,-1],"split_conditions":[1.5092371E7,6.99192E6,2.685091E7,2.106128E6,2.0107248E7,8.628928E6,2.6445896E7,-5.2055633E4,-4.2684098E4,9.948737E3,-1.744903E4,7.844822E4,4.0180695E4,7.593228E4,1.0771731E5],"split_indices":[23,0,24,0,10,10,19,0,0,0,0,0,0,0,0],"split_type":[0,0,0,0,0,0,0,0,0,0,0,0,0,0,0],"sum_hessian":[8.569E3,5.962E3,2.607E3,4.412E3,1.55E3,1.997E3,6.1E2,2.232E3,2.18E3,8.09E2,7.41E2,1.784E3,2.13E2,3.3E1,5.77E2],"tree_param":{"num_deleted":"0","num_feature":"32","num_nodes":"15","size_leaf_vector":"1"}},{"base_weights":[-2.2620785E4,-3.587603E6,8.1297435E6,-4.7176955E6,-3.3523394E5,7.4582845E6,1.053916E7,-5.0168473E4,-3.9979977E4,9.572157E3,-1.746918E4,4.192744E4,7.871018E4,7.7097195E4,1.0775978E5],"categories":[],"categories_nodes":[],"categories_segments":[],"categories_sizes":[],"default_left":[0,0,0,0,0,0,0,0,0,0,0,0,0,0,0],"id":58,"left_children":[1,3,5,7,9,11,13,-1,-1,-1,-1,-1,-1,-1,-1],"loss_changes":[2.474983E17,2.1773947E16,4.0381283E15,9.065989E14,2.7942566E15,2.6715126E15,2.1158297E14,0E0,0E0,0E0,0E0,0E0,0E0,0E0,0E0],"parents":[2147483647,0,0,1,1,2,2,3,3,4,4,5,5,6,6],"right_children":[2,4,6,8,10,12,14,-1,-1,-1,-1,-1,-1,-1,-1],"split_conditions":[1.5092371E7,6.99192E6,2.6978596E7,3.195888E6,2.0107248E7,1.7384752E7,2.9116864E7,-5.0168473E4,-3.9979977E4,9.572157E3,-1.746918E4,4.192744E4,7.871018E4,7.7097195E4,1.0775978E5],"split_indices":[23,0,19,18,10,0,18,0,0,0,0,0,0,0,0],"split_type":[0,0,0,0,0,0,0,0,0,0,0,0,0,0,0],"sum_hessian":[8.512E3,5.923E3,2.589E3,4.395E3,1.528E3,2.031E3,5.58E2,3.098E3,1.297E3,7.98E2,7.3E2,2.3E2,1.801E3,4.8E1,5.1E2],"tree_param":{"num_deleted":"0","num_feature":"32","num_nodes":"15","size_leaf_vector":"1"}},{"base_weights":[-1.9342104E4,-3.662299E6,7.7685805E6,-4.730382E6,-7.580254E5,8.410857E6,3.2821238E6,-4.237091E4,-5.1303188E4,2.7997516E4,-1.2166572E4,3.553473E4,8.715885E4,2.3053455E4,7.34726E4],"categories":[],"categories_nodes":[],"categories_segments":[],"categories_sizes":[],"default_left":[0,0,0,0,0,0,0,0,0,0,0,0,0,0,0],"id":59,"left_children":[1,3,5,7,9,11,13,-1,-1,-1,-1,-1,-1,-1,-1],"loss_changes":[2.4293898E17,1.8089947E16,7.8096593E15,7.986492E14,2.5692645E15,3.466451E15,1.3366964E15,0E0,0E0,0E0,0E0,0E0,0E0,0E0,0E0],"parents":[2147483647,0,0,1,1,2,2,3,3,4,4,5,5,6,6],"right_children":[2,4,6,8,10,12,14,-1,-1,-1,-1,-1,-1,-1,-1],"split_conditions":[1.3874527E7,3.221232E6,5.9004E6,1.339888E6,5E1,1.6793684E7,1.2134161E5,-4.237091E4,-5.1303188E4,2.7997516E4,-1.2166572E4,3.553473E4,8.715885E4,2.3053455E4,7.34726E4],"split_indices":[23,0,10,8,2,24,25,0,0,0,0,0,0,0,0],"split_type":[0,0,0,0,0,0,0,0,0,0,0,0,0,0,0],"sum_hessian":[8.559E3,5.832E3,2.727E3,4.263E3,1.569E3,2.384E3,3.43E2,1.917E3,2.346E3,1.78E2,1.391E3,1.42E2,2.242E3,2.79E2,6.4E1],"tree_param":{"num_deleted":"0","num_feature":"32","num_nodes":"15","size_leaf_vector":"1"}},{"base_weights":[-1.8692004E4,-3.6279608E6,7.7075855E6,-4.627412E6,-5.4128756E5,8.3244215E6,3.335863E6,-5.0934375E4,-4.1387594E4,-8.468756E3,5.239758E4,3.5440797E4,8.642894E4,2.386742E4,7.283891E4],"categories":[],"categories_nodes":[],"categories_segments":[],"categories_sizes":[],"default_left":[0,0,0,0,0,0,0,0,0,0,0,0,0,0,0],"id":60,"left_children":[1,3,5,7,9,11,13,-1,-1,-1,-1,-1,-1,-1,-1],"loss_changes":[2.3848046E17,1.7977316E16,7.2885595E15,9.612738E14,2.5305483E15,3.563105E15,1.2399707E15,0E0,0E0,0E0,0E0,0E0,0E0,0E0,0E0],"parents":[2147483647,0,0,1,1,2,2,3,3,4,4,5,5,6,6],"right_children":[2,4,6,8,10,12,14,-1,-1,-1,-1,-1,-1,-1,-1],"split_conditions":[1.3874527E7,6.99192E6,5.9004E6,2.106128E6,7.32E2,1.6793684E7,1.2134161E5,-5.0934375E4,-4.1387594E4,-8.468756E3,5.239758E4,3.5440797E4,8.642894E4,2.386742E4,7.283891E4],"split_indices":[23,0,10,0,2,24,25,0,0,0,0,0,0,0,0],"split_type":[0,0,0,0,0,0,0,0,0,0,0,0,0,0,0],"sum_hessian":[8.548E3,5.827E3,2.721E3,4.401E3,1.426E3,2.383E3,3.38E2,2.245E3,2.156E3,1.356E3,7E1,1.5E2,2.233E3,2.75E2,6.3E1],"tree_param":{"num_deleted":"0","num_feature":"32","num_nodes":"15","size_leaf_vector":"1"}},{"base_weights":[1.2495814E3,-3.5983418E6,7.6264395E6,-4.5739395E6,-5.63626E5,3.0267548E6,8.194541E6,-5.0333676E4,-4.0998133E4,-8.642869E3,5.183994E4,2.3212076E4,8.5475164E4,7.526337E4,1.0327764E5],"categories":[],"categories_nodes":[],"categories_segments":[],"categories_sizes":[],"default_left":[0,0,0,0,0,0,0,0,0,0,0,0,0,0,0],"id":61,"left_children":[1,3,5,7,9,11,13,-1,-1,-1,-1,-1,-1,-1,-1],"loss_changes":[2.357995E17,1.727325E16,7.1504677E15,9.214079E14,2.4652398E15,1.1531528E15,3.3436664E15,0E0,0E0,0E0,0E0,0E0,0E0,0E0,0E0],"parents":[2147483647,0,0,1,1,2,2,3,3,4,4,5,5,6,6],"right_children":[2,4,6,8,10,12,14,-1,-1,-1,-1,-1,-1,-1,-1],"split_conditions":[1.3874527E7,6.99192E6,1.7329442E7,2.106128E6,7.32E2,7.63E2,2.7228616E7,-5.0333676E4,-4.0998133E4,-8.642869E3,5.183994E4,2.3212076E4,8.5475164E4,7.526337E4,1.0327764E5],"split_indices":[23,0,23,0,2,2,24,0,0,0,0,0,0,0,0],"split_type":[0,0,0,0,0,0,0,0,0,0,0,0,0,0,0],"sum_hessian":[8.587E3,5.834E3,2.753E3,4.414E3,1.42E3,3.04E2,2.449E3,2.234E3,2.18E3,1.351E3,6.9E1,2.72E2,3.2E1,1.871E3,5.78E2],"tree_param":{"num_deleted":"0","num_feature":"32","num_nodes":"15","size_leaf_vector":"1"}},{"base_weights":[1.8881887E4,-3.5575305E6,7.565231E6,-4.5962945E6,-6.8100306E5,8.178142E6,3.254609E6,-5.184616E4,-4.282702E4,-9.699679E3,5.2355715E4,3.4665645E4,8.494155E4,2.6205244E4,9.105467E4],"categories":[],"categories_nodes":[],"categories_segments":[],"categories_sizes":[],"default_left":[0,0,0,0,0,0,0,0,0,0,0,0,0,0,0],"id":62,"left_children":[1,3,5,7,9,11,13,-1,-1,-1,-1,-1,-1,-1,-1],"loss_changes":[2.3040124E17,1.7300438E16,7.200255E15,7.419556E14,2.6401164E15,3.5110499E15,1.2334204E15,0E0,0E0,0E0,0E0,0E0,0E0,0E0,0E0],"parents":[2147483647,0,0,1,1,2,2,3,3,4,4,5,5,6,6],"right_children":[2,4,6,8,10,12,14,-1,-1,-1,-1,-1,-1,-1,-1],"split_conditions":[1.3874527E7,3.221232E6,5.9004E6,2.2454902E4,7.32E2,1.6793684E7,2.5744172E7,-5.184616E4,-4.282702E4,-9.699679E3,5.2355715E4,3.4665645E4,8.494155E4,2.6205244E4,9.105467E4],"split_indices":[23,0,10,17,2,24,19,0,0,0,0,0,0,0,0],"split_type":[0,0,0,0,0,0,0,0,0,0,0,0,0,0,0],"sum_hessian":[8.533E3,5.79E3,2.743E3,4.253E3,1.537E3,2.4E3,3.43E2,1.47E3,2.783E3,1.467E3,7E1,1.52E2,2.248E3,3.12E2,3.1E1],"tree_param":{"num_deleted":"0","num_feature":"32","num_nodes":"15","size_leaf_vector":"1"}},{"base_weights":[-3.0194153E3,-3.5118285E6,7.493084E6,-4.536548E6,-7.025588E5,3.498507E6,8.111007E6,-4.0586746E4,-4.9354906E4,-9.737855E3,5.0849066E4,2.6716053E4,8.320849E4,7.435726E4,1.00473695E5],"categories":[],"categories_nodes":[],"categories_segments":[],"categories_sizes":[],"default_left":[0,0,0,0,0,0,0,0,0,0,0,0,0,0,0],"id":63,"left_children":[1,3,5,7,9,11,13,-1,-1,-1,-1,-1,-1,-1,-1],"loss_changes":[2.244622E17,1.6727601E16,6.6607727E15,7.7254436E14,2.451173E15,1.424012E15,2.9348714E15,0E0,0E0,0E0,0E0,0E0,0E0,0E0,0E0],"parents":[2147483647,0,0,1,1,2,2,3,3,4,4,5,5,6,6],"right_children":[2,4,6,8,10,12,14,-1,-1,-1,-1,-1,-1,-1,-1],"split_conditions":[1.3874527E7,3.221232E6,1.7384752E7,1.820766E6,7.32E2,7.63E2,2.685091E7,-4.0586746E4,-4.9354906E4,-9.737855E3,5.0849066E4,2.6716053E4,8.320849E4,7.435726E4,1.00473695E5],"split_indices":[23,0,0,8,2,2,24,0,0,0,0,0,0,0,0],"split_type":[0,0,0,0,0,0,0,0,0,0,0,0,0,0,0],"sum_hessian":[8.53E3,5.811E3,2.719E3,4.257E3,1.554E3,3.66E2,2.353E3,1.945E3,2.312E3,1.486E3,6.8E1,3.15E2,5.1E1,1.751E3,6.02E2],"tree_param":{"num_deleted":"0","num_feature":"32","num_nodes":"15","size_leaf_vector":"1"}},{"base_weights":[-6.410526E3,-3.3701198E6,7.695067E6,-4.434512E6,-3.3469844E5,5.420673E6,8.398993E6,-4.732291E4,-3.738267E4,-9.535294E3,2.3045385E4,3.967519E4,7.876033E4,7.734082E4,1.0025651E5],"categories":[],"categories_nodes":[],"categories_segments":[],"categories_sizes":[],"default_left":[0,0,0,0,0,0,0,0,0,0,0,0,0,0,0],"id":64,"left_children":[1,3,5,7,9,11,13,-1,-1,-1,-1,-1,-1,-1,-1],"loss_changes":[2.2190445E17,1.925945E16,4.0799956E15,8.797725E14,2.535235E15,2.1544436E15,1.9964039E15,0E0,0E0,0E0,0E0,0E0,0E0,0E0,0E0],"parents":[2147483647,0,0,1,1,2,2,3,3,4,4,5,5,6,6],"right_children":[2,4,6,8,10,12,14,-1,-1,-1,-1,-1,-1,-1,-1],"split_conditions":[1.5092371E7,6.99192E6,2.5736816E7,3.195888E6,4.111927E6,4.111927E6,2.7228616E7,-4.732291E4,-3.738267E4,-9.535294E3,2.3045385E4,3.967519E4,7.876033E4,7.734082E4,1.0025651E5],"split_indices":[23,0,18,18,22,22,24,0,0,0,0,0,0,0,0],"split_type":[0,0,0,0,0,0,0,0,0,0,0,0,0,0,0],"sum_hessian":[8.562E3,5.96E3,2.602E3,4.412E3,1.548E3,6.19E2,1.983E3,3.084E3,1.328E3,1.255E3,2.93E2,3.92E2,2.27E2,1.415E3,5.68E2],"tree_param":{"num_deleted":"0","num_feature":"32","num_nodes":"15","size_leaf_vector":"1"}},{"base_weights":[-1.1333405E4,-3.4634798E6,7.337132E6,-4.402975E6,-5.350446E5,7.931182E6,3.1608572E6,-4.8260285E4,-3.9579234E4,-8.127858E3,4.9328383E4,3.3319516E4,8.2246086E4,2.2497422E4,7.096801E4],"categories":[],"categories_nodes":[],"categories_segments":[],"categories_sizes":[],"default_left":[0,0,0,0,0,0,0,0,0,0,0,0,0,0,0],"id":65,"left_children":[1,3,5,7,9,11,13,-1,-1,-1,-1,-1,-1,-1,-1],"loss_changes":[2.1778181E17,1.6065321E16,6.758509E15,7.9508435E14,2.1650874E15,3.1793066E15,1.2059181E15,0E0,0E0,0E0,0E0,0E0,0E0,0E0,0E0],"parents":[2147483647,0,0,1,1,2,2,3,3,4,4,5,5,6,6],"right_children":[2,4,6,8,10,12,14,-1,-1,-1,-1,-1,-1,-1,-1],"split_conditions":[1.3874527E7,6.99192E6,5.9004E6,2.106128E6,7.32E2,1.6793684E7,1.2134161E5,-4.8260285E4,-3.9579234E4,-8.127858E3,4.9328383E4,3.3319516E4,8.2246086E4,2.2497422E4,7.096801E4],"split_indices":[23,0,10,0,2,24,25,0,0,0,0,0,0,0,0],"split_type":[0,0,0,0,0,0,0,0,0,0,0,0,0,0,0],"sum_hessian":[8.581E3,5.839E3,2.742E3,4.42E3,1.419E3,2.399E3,3.43E2,2.258E3,2.162E3,1.352E3,6.7E1,1.45E2,2.254E3,2.81E2,6.2E1],"tree_param":{"num_deleted":"0","num_feature":"32","num_nodes":"15","size_leaf_vector":"1"}},{"base_weights":[1.2007909E4,-3.285559E6,7.5578925E6,-4.345907E6,-2.7076297E5,6.8707235E6,9.814156E6,-4.857029E4,-3.967152E4,9.479238E3,-1.6230899E4,7.224241E4,3.8934914E4,7.290274E4,1.00277875E5],"categories":[],"categories_nodes":[],"categories_segments":[],"categories_sizes":[],"default_left":[0,0,0,0,0,0,0,0,0,0,0,0,0,0,0],"id":66,"left_children":[1,3,5,7,9,11,13,-1,-1,-1,-1,-1,-1,-1,-1],"loss_changes":[2.1257357E17,1.9002138E16,3.8962225E15,8.138276E14,2.5553603E15,2.0445762E15,1.8057331E14,0E0,0E0,0E0,0E0,0E0,0E0,0E0,0E0],"parents":[2147483647,0,0,1,1,2,2,3,3,4,4,5,5,6,6],"right_children":[2,4,6,8,10,12,14,-1,-1,-1,-1,-1,-1,-1,-1],"split_conditions":[1.5092371E7,6.99192E6,2.685091E7,1.594814E6,2.0107248E7,8.628928E6,2.9116864E7,-4.857029E4,-3.967152E4,9.479238E3,-1.6230899E4,7.224241E4,3.8934914E4,7.290274E4,1.00277875E5],"split_indices":[23,0,24,18,10,10,18,0,0,0,0,0,0,0,0],"split_type":[0,0,0,0,0,0,0,0,0,0,0,0,0,0,0],"sum_hessian":[8.539E3,5.943E3,2.596E3,4.396E3,1.547E3,1.996E3,6E2,1.863E3,2.533E3,8.14E2,7.33E2,1.782E3,2.14E2,5.2E1,5.48E2],"tree_param":{"num_deleted":"0","num_feature":"32","num_nodes":"15","size_leaf_vector":"1"}},{"base_weights":[-3.2764465E2,-3.3731862E6,7.1475165E6,-4.362462E6,-6.782292E5,7.739299E6,2.949389E6,-4.4608727E4,-2.5774848E4,-9.545421E3,5.018375E4,3.2194074E4,8.0302805E4,2.1142334E4,6.691989E4],"categories":[],"categories_nodes":[],"categories_segments":[],"categories_sizes":[],"default_left":[0,0,0,0,0,0,0,0,0,0,0,0,0,0,0],"id":67,"left_children":[1,3,5,7,9,11,13,-1,-1,-1,-1,-1,-1,-1,-1],"loss_changes":[2.0439105E17,1.5350578E16,6.707811E15,7.148887E14,2.446604E15,3.0739425E15,1.0318796E15,0E0,0E0,0E0,0E0,0E0,0E0,0E0,0E0],"parents":[2147483647,0,0,1,1,2,2,3,3,4,4,5,5,6,6],"right_children":[2,4,6,8,10,12,14,-1,-1,-1,-1,-1,-1,-1,-1],"split_conditions":[1.3874527E7,3.221232E6,5.9004E6,6.48E2,7.32E2,1.6793684E7,1.2134161E5,-4.4608727E4,-2.5774848E4,-9.545421E3,5.018375E4,3.2194074E4,8.0302805E4,2.1142334E4,6.691989E4],"split_indices":[23,0,10,2,2,24,25,0,0,0,0,0,0,0,0],"split_type":[0,0,0,0,0,0,0,0,0,0,0,0,0,0,0],"sum_hessian":[8.474E3,5.758E3,2.716E3,4.211E3,1.547E3,2.379E3,3.37E2,3.989E3,2.22E2,1.477E3,7E1,1.45E2,2.234E3,2.78E2,5.9E1],"tree_param":{"num_deleted":"0","num_feature":"32","num_nodes":"15","size_leaf_vector":"1"}},{"base_weights":[1.8126592E4,-3.334893E6,7.068645E6,-4.3140735E6,-6.6776725E5,7.6485585E6,3.066769E6,-4.415509E4,-2.5156137E4,-9.483147E3,4.985753E4,7.012142E4,9.671512E4,2.134718E4,7.122231E4],"categories":[],"categories_nodes":[],"categories_segments":[],"categories_sizes":[],"default_left":[0,0,0,0,0,0,0,0,0,0,0,0,0,0,0],"id":68,"left_children":[1,3,5,7,9,11,13,-1,-1,-1,-1,-1,-1,-1,-1],"loss_changes":[2.020769E17,1.5123237E16,6.347687E15,7.485355E14,2.4794036E15,2.965357E15,1.3007083E15,0E0,0E0,0E0,0E0,0E0,0E0,0E0,0E0],"parents":[2147483647,0,0,1,1,2,2,3,3,4,4,5,5,6,6],"right_children":[2,4,6,8,10,12,14,-1,-1,-1,-1,-1,-1,-1,-1],"split_conditions":[1.3874527E7,3.221232E6,5.9004E6,6.48E2,7.32E2,2.6978596E7,1.2134161E5,-4.415509E4,-2.5156137E4,-9.483147E3,4.985753E4,7.012142E4,9.671512E4,2.134718E4,7.122231E4],"split_indices":[23,0,10,2,2,19,25,0,0,0,0,0,0,0,0],"split_type":[0,0,0,0,0,0,0,0,0,0,0,0,0,0,0],"sum_hessian":[8.544E3,5.791E3,2.753E3,4.235E3,1.556E3,2.403E3,3.5E2,4.007E3,2.28E2,1.484E3,7.2E1,1.834E3,5.69E2,2.87E2,6.3E1],"tree_param":{"num_deleted":"0","num_feature":"32","num_nodes":"15","size_leaf_vector":"1"}},{"base_weights":[-2.3006908E4,-3.314724E6,7.0145785E6,-4.22392E6,-4.9001422E5,7.582391E6,3.118499E6,-4.5109867E4,-3.540544E4,-7.7126846E3,4.8187582E4,3.2729387E4,7.851116E4,2.4933404E4,8.814324E4],"categories":[],"categories_nodes":[],"categories_segments":[],"categories_sizes":[],"default_left":[0,0,0,0,0,0,0,0,0,0,0,0,0,0,0],"id":69,"left_children":[1,3,5,7,9,11,13,-1,-1,-1,-1,-1,-1,-1,-1],"loss_changes":[1.986674E17,1.5001926E16,5.9997687E15,8.351306E14,2.1342362E15,2.704034E15,1.2069959E15,0E0,0E0,0E0,0E0,0E0,0E0,0E0,0E0],"parents":[2147483647,0,0,1,1,2,2,3,3,4,4,5,5,6,6],"right_children":[2,4,6,8,10,12,14,-1,-1,-1,-1,-1,-1,-1,-1],"split_conditions":[1.3874527E7,6.99192E6,5.9004E6,3.195888E6,7.32E2,1.6793684E7,2.5744172E7,-4.5109867E4,-3.540544E4,-7.7126846E3,4.8187582E4,3.2729387E4,7.851116E4,2.4933404E4,8.814324E4],"split_indices":[23,0,10,18,2,24,19,0,0,0,0,0,0,0,0],"split_type":[0,0,0,0,0,0,0,0,0,0,0,0,0,0,0],"sum_hessian":[8.572E3,5.841E3,2.731E3,4.418E3,1.423E3,2.382E3,3.49E2,3.105E3,1.313E3,1.353E3,7E1,1.41E2,2.241E3,3.17E2,3.2E1],"tree_param":{"num_deleted":"0","num_feature":"32","num_nodes":"15","size_leaf_vector":"1"}},{"base_weights":[-3.5416754E4,-3.5153278E6,6.472706E6,-4.2353265E6,-1.1244378E6,2.4917872E6,7.526719E6,-4.7902324E4,-3.9444574E4,-1.4506257E4,4.7956773E4,2.0141523E4,7.816461E4,6.835118E4,9.2749484E4],"categories":[],"categories_nodes":[],"categories_segments":[],"categories_sizes":[],"default_left":[0,0,0,0,0,0,0,0,0,0,0,0,0,0,0],"id":70,"left_children":[1,3,5,7,9,11,13,-1,-1,-1,-1,-1,-1,-1,-1],"loss_changes":[1.9377173E17,9.587634E15,1.2471262E16,6.548279E14,2.5092869E15,1.5641098E15,2.7257752E15,0E0,0E0,0E0,0E0,0E0,0E0,0E0,0E0],"parents":[2147483647,0,0,1,1,2,2,3,3,4,4,5,5,6,6],"right_children":[2,4,6,8,10,12,14,-1,-1,-1,-1,-1,-1,-1,-1],"split_conditions":[1.0904225E7,3.221232E6,1.7384752E7,2.2454902E4,7.32E2,7.63E2,2.6521264E7,-4.7902324E4,-3.9444574E4,-1.4506257E4,4.7956773E4,2.0141523E4,7.816461E4,6.835118E4,9.2749484E4],"split_indices":[23,0,0,17,2,2,16,0,0,0,0,0,0,0,0],"split_type":[0,0,0,0,0,0,0,0,0,0,0,0,0,0,0],"sum_hessian":[8.552E3,5.573E3,2.979E3,4.282E3,1.291E3,6.25E2,2.354E3,1.464E3,2.818E3,1.225E3,6.6E1,5.76E2,4.9E1,1.693E3,6.61E2],"tree_param":{"num_deleted":"0","num_feature":"32","num_nodes":"15","size_leaf_vector":"1"}},{"base_weights":[1.4293068E4,-3.2599682E6,6.9353735E6,-4.209686E6,-6.5035375E5,7.5099225E6,2.936742E6,-4.775091E4,-3.914776E4,2.7627533E4,-1.0914695E4,3.2813242E4,7.782199E4,2.051804E4,6.908765E4],"categories":[],"categories_nodes":[],"categories_segments":[],"categories_sizes":[],"default_left":[0,0,0,0,0,0,0,0,0,0,0,0,0,0,0],"id":71,"left_children":[1,3,5,7,9,11,13,-1,-1,-1,-1,-1,-1,-1,-1],"loss_changes":[1.9475009E17,1.4453497E16,6.297642E15,6.769212E14,2.3523745E15,2.7207243E15,1.2024542E15,0E0,0E0,0E0,0E0,0E0,0E0,0E0,0E0],"parents":[2147483647,0,0,1,1,2,2,3,3,4,4,5,5,6,6],"right_children":[2,4,6,8,10,12,14,-1,-1,-1,-1,-1,-1,-1,-1],"split_conditions":[1.3874527E7,3.221232E6,5.9004E6,2.2454902E4,5E1,1.6793684E7,1.2134161E5,-4.775091E4,-3.914776E4,2.7627533E4,-1.0914695E4,3.2813242E4,7.782199E4,2.051804E4,6.908765E4],"split_indices":[23,0,10,17,2,24,25,0,0,0,0,0,0,0,0],"split_type":[0,0,0,0,0,0,0,0,0,0,0,0,0,0,0],"sum_hessian":[8.59E3,5.832E3,2.758E3,4.275E3,1.557E3,2.41E3,3.48E2,1.457E3,2.818E3,1.77E2,1.38E3,1.47E2,2.263E3,2.87E2,6.1E1],"tree_param":{"num_deleted":"0","num_feature":"32","num_nodes":"15","size_leaf_vector":"1"}},{"base_weights":[-3.0316646E4,-3.2269012E6,6.8027575E6,-4.169791E6,-6.3122944E5,7.3780585E6,2.883933E6,-3.7188207E4,-4.5311016E4,2.694011E4,-1.0678951E4,6.7440266E4,9.403221E4,1.962662E4,6.7769914E4],"categories":[],"categories_nodes":[],"categories_segments":[],"categories_sizes":[],"default_left":[0,0,0,0,0,0,0,0,0,0,0,0,0,0,0],"id":72,"left_children":[1,3,5,7,9,11,13,-1,-1,-1,-1,-1,-1,-1,-1],"loss_changes":[1.8777817E17,1.4329355E16,6.135653E15,6.6681944E14,2.274445E15,2.9438307E15,1.2435353E15,0E0,0E0,0E0,0E0,0E0,0E0,0E0,0E0],"parents":[2147483647,0,0,1,1,2,2,3,3,4,4,5,5,6,6],"right_children":[2,4,6,8,10,12,14,-1,-1,-1,-1,-1,-1,-1,-1],"split_conditions":[1.3874527E7,3.221232E6,5.9004E6,1.339888E6,5E1,2.6978596E7,1.2134161E5,-3.7188207E4,-4.5311016E4,2.694011E4,-1.0678951E4,6.7440266E4,9.403221E4,1.962662E4,6.7769914E4],"split_indices":[23,0,10,8,2,19,25,0,0,0,0,0,0,0,0],"split_type":[0,0,0,0,0,0,0,0,0,0,0,0,0,0,0],"sum_hessian":[8.593E3,5.855E3,2.738E3,4.294E3,1.561E3,2.386E3,3.52E2,1.918E3,2.376E3,1.8E2,1.381E3,1.823E3,5.63E2,2.87E2,6.5E1],"tree_param":{"num_deleted":"0","num_feature":"32","num_nodes":"15","size_leaf_vector":"1"}},{"base_weights":[-8.083481E3,-3.1874028E6,6.755409E6,-4.0633022E6,-4.5039634E5,3.0552828E6,7.340993E6,-4.4883984E4,-3.6216062E4,2.6521598E4,-9.07877E3,2.2857158E4,7.6099164E4,6.732896E4,9.256322E4],"categories":[],"categories_nodes":[],"categories_segments":[],"categories_sizes":[],"default_left":[0,0,0,0,0,0,0,0,0,0,0,0,0,0,0],"id":73,"left_children":[1,3,5,7,9,11,13,-1,-1,-1,-1,-1,-1,-1,-1],"loss_changes":[1.8486194E17,1.4015977E16,5.912435E15,7.9986035E14,2.0196541E15,1.2944342E15,2.6423068E15,0E0,0E0,0E0,0E0,0E0,0E0,0E0,0E0],"parents":[2147483647,0,0,1,1,2,2,3,3,4,4,5,5,6,6],"right_children":[2,4,6,8,10,12,14,-1,-1,-1,-1,-1,-1,-1,-1],"split_conditions":[1.3874527E7,6.99192E6,1.7384752E7,2.106128E6,5E1,7.63E2,2.7228616E7,-4.4883984E4,-3.6216062E4,2.6521598E4,-9.07877E3,2.2857158E4,7.6099164E4,6.732896E4,9.256322E4],"split_indices":[23,0,0,0,2,2,24,0,0,0,0,0,0,0,0],"split_type":[0,0,0,0,0,0,0,0,0,0,0,0,0,0,0],"sum_hessian":[8.593E3,5.846E3,2.747E3,4.428E3,1.418E3,3.77E2,2.37E3,2.249E3,2.179E3,1.81E2,1.237E3,3.25E2,5.2E1,1.805E3,5.65E2],"tree_param":{"num_deleted":"0","num_feature":"32","num_nodes":"15","size_leaf_vector":"1"}},{"base_weights":[1.2483805E4,-3.1794382E6,6.604968E6,-4.0511018E6,-6.46464E5,2.4531372E6,7.1707215E6,-4.1568496E4,-2.2511943E4,-9.107095E3,4.7662863E4,1.8645242E4,7.600596E4,6.565475E4,9.111449E4],"categories":[],"categories_nodes":[],"categories_segments":[],"categories_sizes":[],"default_left":[0,0,0,0,0,0,0,0,0,0,0,0,0,0,0],"id":74,"left_children":[1,3,5,7,9,11,13,-1,-1,-1,-1,-1,-1,-1,-1],"loss_changes":[1.7963946E17,1.2694635E16,6.507236E15,7.935897E14,2.1173413E15,9.933834E14,2.762377E15,0E0,0E0,0E0,0E0,0E0,0E0,0E0,0E0],"parents":[2147483647,0,0,1,1,2,2,3,3,4,4,5,5,6,6],"right_children":[2,4,6,8,10,12,14,-1,-1,-1,-1,-1,-1,-1,-1],"split_conditions":[1.3870318E7,5.0128295E6,1.7329442E7,6.48E2,7.32E2,7.63E2,2.7228616E7,-4.1568496E4,-2.2511943E4,-9.107095E3,4.7662863E4,1.8645242E4,7.600596E4,6.565475E4,9.111449E4],"split_indices":[23,23,23,2,2,2,24,0,0,0,0,0,0,0,0],"split_type":[0,0,0,0,0,0,0,0,0,0,0,0,0,0,0],"sum_hessian":[8.533E3,5.75E3,2.783E3,4.277E3,1.473E3,3.35E2,2.448E3,4.038E3,2.39E2,1.406E3,6.7E1,3.03E2,3.2E1,1.872E3,5.76E2],"tree_param":{"num_deleted":"0","num_feature":"32","num_nodes":"15","size_leaf_vector":"1"}},{"base_weights":[-1.837336E4,-3.3412292E6,6.1571475E6,-4.0076645E6,-1.0325366E6,7.14809E6,2.1546708E6,-4.1111445E4,-2.2249674E4,-1.3306584E4,4.7099316E4,6.4767195E4,8.845824E4,1.8125525E4,8.085737E4],"categories":[],"categories_nodes":[],"categories_segments":[],"categories_sizes":[],"default_left":[0,0,0,0,0,0,0,0,0,0,0,0,0,0,0],"id":75,"left_children":[1,3,5,7,9,11,13,-1,-1,-1,-1,-1,-1,-1,-1],"loss_changes":[1.753242E17,8.5387386E15,1.1824758E16,7.746575E14,2.1460366E15,2.6188735E15,1.1810296E15,0E0,0E0,0E0,0E0,0E0,0E0,0E0,0E0],"parents":[2147483647,0,0,1,1,2,2,3,3,4,4,5,5,6,6],"right_children":[2,4,6,8,10,12,14,-1,-1,-1,-1,-1,-1,-1,-1],"split_conditions":[1.0904225E7,5.88848E6,5.9004E6,6.48E2,7.32E2,2.6521264E7,2.5744172E7,-4.1111445E4,-2.2249674E4,-1.3306584E4,4.7099316E4,6.4767195E4,8.845824E4,1.8125525E4,8.085737E4],"split_indices":[23,0,10,2,2,16,19,0,0,0,0,0,0,0,0],"split_type":[0,0,0,0,0,0,0,0,0,0,0,0,0,0,0],"sum_hessian":[8.54E3,5.553E3,2.987E3,4.308E3,1.245E3,2.393E3,5.94E2,4.07E3,2.38E2,1.185E3,6E1,1.721E3,6.72E2,5.64E2,3E1],"tree_param":{"num_deleted":"0","num_feature":"32","num_nodes":"15","size_leaf_vector":"1"}},{"base_weights":[1.4992339E4,-2.9785315E6,6.819343E6,-3.9437692E6,-2.4113598E5,6.1750035E6,8.88626E6,-4.211272E4,-3.3011273E4,-5.335949E3,4.8917625E4,2.975319E4,6.4539684E4,6.588035E4,9.071095E4],"categories":[],"categories_nodes":[],"categories_segments":[],"categories_sizes":[],"default_left":[0,0,0,0,0,0,0,0,0,0,0,0,0,0,0],"id":76,"left_children":[1,3,5,7,9,11,13,-1,-1,-1,-1,-1,-1,-1,-1],"loss_changes":[1.7460097E17,1.572726E16,3.3807062E15,7.2874E14,2.3372978E15,1.7470381E15,1.4475758E14,0E0,0E0,0E0,0E0,0E0,0E0,0E0,0E0],"parents":[2147483647,0,0,1,1,2,2,3,3,4,4,5,5,6,6],"right_children":[2,4,6,8,10,12,14,-1,-1,-1,-1,-1,-1,-1,-1],"split_conditions":[1.5092371E7,6.99192E6,2.685091E7,3.195888E6,7.32E2,1.7329442E7,2.9116864E7,-4.211272E4,-3.3011273E4,-5.335949E3,4.8917625E4,2.975319E4,6.4539684E4,6.588035E4,9.071095E4],"split_indices":[23,0,24,18,2,23,18,0,0,0,0,0,0,0,0],"split_type":[0,0,0,0,0,0,0,0,0,0,0,0,0,0,0],"sum_hessian":[8.568E3,5.951E3,2.617E3,4.399E3,1.552E3,2.001E3,6.16E2,3.1E3,1.299E3,1.47E3,8.2E1,1.62E2,1.839E3,5.1E1,5.65E2],"tree_param":{"num_deleted":"0","num_feature":"32","num_nodes":"15","size_leaf_vector":"1"}},{"base_weights":[1.3822157E4,-3.0474385E6,6.507893E6,-3.8947605E6,-4.35383E5,7.0617275E6,2.729259E6,-3.988487E4,2.2591021E4,2.555086E4,-8.81774E3,2.9192154E4,7.3290984E4,1.858685E4,6.4769465E4],"categories":[],"categories_nodes":[],"categories_segments":[],"categories_sizes":[],"default_left":[0,0,0,0,0,0,0,0,0,0,0,0,0,0,0],"id":77,"left_children":[1,3,5,7,9,11,13,-1,-1,-1,-1,-1,-1,-1,-1],"loss_changes":[1.7027065E17,1.2879928E16,5.704713E15,2.5435183E15,1.9101558E15,2.6016335E15,1.1313459E15,0E0,0E0,0E0,0E0,0E0,0E0,0E0,0E0],"parents":[2147483647,0,0,1,1,2,2,3,3,4,4,5,5,6,6],"right_children":[2,4,6,8,10,12,14,-1,-1,-1,-1,-1,-1,-1,-1],"split_conditions":[1.3874527E7,6.99192E6,5.9004E6,6.74E2,5E1,1.6793684E7,1.2134161E5,-3.988487E4,2.2591021E4,2.555086E4,-8.81774E3,2.9192154E4,7.3290984E4,1.858685E4,6.4769465E4],"split_indices":[23,0,10,2,2,24,25,0,0,0,0,0,0,0,0],"split_type":[0,0,0,0,0,0,0,0,0,0,0,0,0,0,0],"sum_hessian":[8.561E3,5.819E3,2.742E3,4.393E3,1.426E3,2.39E3,3.52E2,4.328E3,6.5E1,1.84E2,1.242E3,1.46E2,2.244E3,2.88E2,6.4E1],"tree_param":{"num_deleted":"0","num_feature":"32","num_nodes":"15","size_leaf_vector":"1"}},{"base_weights":[1.745006E4,-3.0218712E6,6.4570915E6,-3.9066412E6,-6.073026E5,6.9808665E6,2.7488752E6,-4.003025E4,-2.2221219E4,-8.645659E3,4.6655656E4,2.9757316E4,7.2435516E4,1.8480107E4,6.5501637E4],"categories":[],"categories_nodes":[],"categories_segments":[],"categories_sizes":[],"default_left":[0,0,0,0,0,0,0,0,0,0,0,0,0,0,0],"id":78,"left_children":[1,3,5,7,9,11,13,-1,-1,-1,-1,-1,-1,-1,-1],"loss_changes":[1.6755514E17,1.2420212E16,5.293951E15,6.713206E14,2.1259479E15,2.4814345E15,1.1508123E15,0E0,0E0,0E0,0E0,0E0,0E0,0E0,0E0],"parents":[2147483647,0,0,1,1,2,2,3,3,4,4,5,5,6,6],"right_children":[2,4,6,8,10,12,14,-1,-1,-1,-1,-1,-1,-1,-1],"split_conditions":[1.3874527E7,3.221232E6,5.9004E6,6.48E2,7.32E2,1.6793684E7,1.188606E5,-4.003025E4,-2.2221219E4,-8.645659E3,4.6655656E4,2.9757316E4,7.2435516E4,1.8480107E4,6.5501637E4],"split_indices":[23,0,10,2,2,24,25,0,0,0,0,0,0,0,0],"split_type":[0,0,0,0,0,0,0,0,0,0,0,0,0,0,0],"sum_hessian":[8.557E3,5.814E3,2.743E3,4.254E3,1.56E3,2.402E3,3.41E2,4.022E3,2.32E2,1.489E3,7.1E1,1.49E2,2.253E3,2.78E2,6.3E1],"tree_param":{"num_deleted":"0","num_feature":"32","num_nodes":"15","size_leaf_vector":"1"}},{"base_weights":[-8.440347E3,-3.2044238E6,5.937226E6,-3.867283E6,-1.0157351E6,1.9068662E6,6.8030015E6,-3.440609E4,-4.229946E4,-1.3189756E4,4.5919203E4,3.2666488E4,1.3258792E4,6.197431E4,8.7728945E4],"categories":[],"categories_nodes":[],"categories_segments":[],"categories_sizes":[],"default_left":[0,0,0,0,0,0,0,0,0,0,0,0,0,0,0],"id":79,"left_children":[1,3,5,7,9,11,13,-1,-1,-1,-1,-1,-1,-1,-1],"loss_changes":[1.6267656E17,8.0702693E15,1.0418225E16,6.325671E14,2.2163145E15,4.1178724E14,2.8332783E15,0E0,0E0,0E0,0E0,0E0,0E0,0E0,0E0],"parents":[2147483647,0,0,1,1,2,2,3,3,4,4,5,5,6,6],"right_children":[2,4,6,8,10,12,14,-1,-1,-1,-1,-1,-1,-1,-1],"split_conditions":[1.0904225E7,3.221232E6,1.7320616E7,1.820766E6,7.32E2,2.1355344E7,2.6978596E7,-3.440609E4,-4.229946E4,-1.3189756E4,4.5919203E4,3.2666488E4,1.3258792E4,6.197431E4,8.7728945E4],"split_indices":[23,0,23,8,2,9,19,0,0,0,0,0,0,0,0],"split_type":[0,0,0,0,0,0,0,0,0,0,0,0,0,0,0],"sum_hessian":[8.557E3,5.566E3,2.991E3,4.271E3,1.295E3,5.3E2,2.461E3,1.97E3,2.301E3,1.23E3,6.5E1,1.56E2,3.74E2,1.888E3,5.73E2],"tree_param":{"num_deleted":"0","num_feature":"32","num_nodes":"15","size_leaf_vector":"1"}},{"base_weights":[7.9915547E3,-3.1864782E6,5.868781E6,-3.8200842E6,-9.8824244E5,2.2329695E6,6.8333775E6,-3.913808E4,2.1175326E4,-1.2762676E4,4.545521E4,1.7545186E4,7.141846E4,6.246484E4,8.546182E4],"categories":[],"categories_nodes":[],"categories_segments":[],"categories_sizes":[],"default_left":[0,0,0,0,0,0,0,0,0,0,0,0,0,0,0],"id":80,"left_children":[1,3,5,7,9,11,13,-1,-1,-1,-1,-1,-1,-1,-1],"loss_changes":[1.604842E17,7.719899E15,1.0575464E16,2.404065E15,1.9931617E15,1.4717827E15,2.298297E15,0E0,0E0,0E0,0E0,0E0,0E0,0E0,0E0],"parents":[2147483647,0,0,1,1,2,2,3,3,4,4,5,5,6,6],"right_children":[2,4,6,8,10,12,14,-1,-1,-1,-1,-1,-1,-1,-1],"split_conditions":[1.0904225E7,5.88848E6,1.7384752E7,6.74E2,7.32E2,7.63E2,2.685091E7,-3.913808E4,2.1175326E4,-1.2762676E4,4.545521E4,1.7545186E4,7.141846E4,6.246484E4,8.546182E4],"split_indices":[23,0,0,2,2,2,24,0,0,0,0,0,0,0,0],"split_type":[0,0,0,0,0,0,0,0,0,0,0,0,0,0,0],"sum_hessian":[8.568E3,5.546E3,3.022E3,4.304E3,1.242E3,6.35E2,2.387E3,4.238E3,6.6E1,1.182E3,6E1,5.81E2,5.4E1,1.784E3,6.03E2],"tree_param":{"num_deleted":"0","num_feature":"32","num_nodes":"15","size_leaf_vector":"1"}},{"base_weights":[-1.4215132E3,-2.814456E6,6.5543455E6,-3.7856295E6,-3.4671325E5,4.580461E6,7.176937E6,-3.883285E4,2.1035816E4,-9.846283E3,2.0645959E4,4.8981168E4,-4.088059E4,6.697964E4,8.7883E4],"categories":[],"categories_nodes":[],"categories_segments":[],"categories_sizes":[],"default_left":[0,0,0,0,0,0,0,0,0,0,0,0,0,0,0],"id":81,"left_children":[1,3,5,7,9,11,13,-1,-1,-1,-1,-1,-1,-1,-1],"loss_changes":[1.5741579E17,1.4312253E16,3.085453E15,2.4726857E15,2.601421E15,1.7439768E15,1.3871971E15,0E0,0E0,0E0,0E0,0E0,0E0,0E0,0E0],"parents":[2147483647,0,0,1,1,2,2,3,3,4,4,5,5,6,6],"right_children":[2,4,6,8,10,12,14,-1,-1,-1,-1,-1,-1,-1,-1],"split_conditions":[1.3970096E7,5.0128295E6,2.5736816E7,6.74E2,1.3877015E7,2.8251664E7,2.8122682E7,-3.883285E4,2.1035816E4,-9.846283E3,2.0645959E4,4.8981168E4,-4.088059E4,6.697964E4,8.7883E4],"split_indices":[0,23,18,2,24,9,16,0,0,0,0,0,0,0,0],"split_type":[0,0,0,0,0,0,0,0,0,0,0,0,0,0,0],"sum_hessian":[8.532E3,5.971E3,2.561E3,4.284E3,1.687E3,6.18E2,1.943E3,4.215E3,6.9E1,1.335E3,3.52E2,5.97E2,2.1E1,1.505E3,4.38E2],"tree_param":{"num_deleted":"0","num_feature":"32","num_nodes":"15","size_leaf_vector":"1"}},{"base_weights":[1.3139883E4,-3.1253635E6,5.7792355E6,-3.7581305E6,-9.651227E5,2.175788E6,6.736573E6,-3.8541305E4,-2.0617111E4,-1.252935E4,4.444963E4,1.712851E4,7.1096E4,6.1191414E4,8.301756E4],"categories":[],"categories_nodes":[],"categories_segments":[],"categories_sizes":[],"default_left":[0,0,0,0,0,0,0,0,0,0,0,0,0,0,0],"id":82,"left_children":[1,3,5,7,9,11,13,-1,-1,-1,-1,-1,-1,-1,-1],"loss_changes":[1.5485353E17,7.5670065E15,1.037555E16,6.800565E14,1.9687854E15,1.4290306E15,2.2035587E15,0E0,0E0,0E0,0E0,0E0,0E0,0E0,0E0],"parents":[2147483647,0,0,1,1,2,2,3,3,4,4,5,5,6,6],"right_children":[2,4,6,8,10,12,14,-1,-1,-1,-1,-1,-1,-1,-1],"split_conditions":[1.0904225E7,5.88848E6,1.7384752E7,6.48E2,7.32E2,7.63E2,2.6521264E7,-3.8541305E4,-2.0617111E4,-1.252935E4,4.444963E4,1.712851E4,7.1096E4,6.1191414E4,8.301756E4],"split_indices":[23,0,0,2,2,2,16,0,0,0,0,0,0,0,0],"split_type":[0,0,0,0,0,0,0,0,0,0,0,0,0,0,0],"sum_hessian":[8.553E3,5.539E3,3.014E3,4.283E3,1.256E3,6.34E2,2.38E3,4.052E3,2.31E2,1.194E3,6.2E1,5.82E2,5.2E1,1.713E3,6.67E2],"tree_param":{"num_deleted":"0","num_feature":"32","num_nodes":"15","size_leaf_vector":"1"}},{"base_weights":[1.5260217E3,-3.09577E6,5.6886555E6,-3.7264042E6,-1.0026237E6,6.600505E6,2.00289E6,-4.2716863E4,-3.440954E4,-1.3014345E4,4.478548E4,6.0304766E4,8.420818E4,1.6443896E4,7.729228E4],"categories":[],"categories_nodes":[],"categories_segments":[],"categories_sizes":[],"default_left":[0,0,0,0,0,0,0,0,0,0,0,0,0,0,0],"id":83,"left_children":[1,3,5,7,9,11,13,-1,-1,-1,-1,-1,-1,-1,-1],"loss_changes":[1.5092132E17,7.3147373E15,1.0127181E16,6.3489925E14,2.1182981E15,2.414098E15,